svm_type c_svc
kernel_type linear
nr_class 2
total_sv 134
rho -1.8191620942175315
label 1 -1
nr_sv 57 77
SV
0.021759394991450937 1:0.030303 2:0.141294 3:0.0184332 4:0.623574 5:0.0344828 6:1 7:0.0379147 8:1 9:0.00869565 10:0.24667 11:0.0209424 12:0.0722284 13:0.0187793 14:0.788294 15:0.0295359 16:0.0634192 17:0.0127119 18:0.698322 19:0.0133929 20:0.0494896 21:0.00507614 22:0.121592 23:0.0226244 24:1 25:0.0387931 26:1 27:0.0083682 28:0.823417 29:0.0381356 30:0.0318965 31:0.0138889 32:0.0823713 33:0.0181818 34:0.78867 35:0.0452489 36:0.0785194 37:0.037037 38:0.624506 41:0.0108696 42:0.665707 43:0.0544554 44:0.0895002 45:0.0310078 46:0.497334 47:0.0806452 48:0.935723 49:0.375527 50:0.00766141 51:0.352941 52:0.99823 53:0.374486 54:0.000552304 55:0.269406 56:0.986503 57:0.153153 58:0.00289703 59:0.0235294 60:0.973688 61:0.0229008 62:0.142002 63:0.0177778 64:0.243602 65:0.129412 66:0.962048 67:0.273764 68:0.0123786 69:0.294118 70:0.991502 71:0.368421 72:1 73:0.146853 74:0.0102918 75:0.0454545 76:0.651387 77:0.0368664 78:0.00399126 81:0.037037 82:0.241391 83:0.0313725 84:0.728046 85:0.273764 86:0.0557875 87:0.442857 88:0.0772971 89:0.0888889 90:0.0336806 91:0.0528846 92:0.499552 93:0.110701 94:0.765236 95:0.19863 96:0.91367 97:0.303754 98:0.950973 99:0.381974 100:0.994628 101:0.258621 103:0.419231 104:0.0496743 105:0.289474 106:0.0536865 107:0.161765 108:0.0414554 109:0.0863636 110:0.0402206 111:0.199052 112:0.771183 113:0.405172 114:0.922863 115:0.421277 116:0.00735953 117:0.0232558 118:0.897278 121:0.0253165 122:0.144753 123:0.229682 124:0.168464 125:0.386973 126:0.108505 127:0.257261 128:0.559198 129:0.197842 130:0.579286 131:0.0806452 132:0.375869 133:0.115044 134:0.422731 135:0.172524 136:0.482651 137:0.227468 138:0.568666 139:0.0682731 140:0.738281 141:0.166038 142:0.106389 143:0.113821 144:0.397198 145:0.276 146:0.54501 147:0.163866 148:0.515391 149:0.182609 150:0.528554 151:0.184426 152:0.353118 153:0.323009 154:0.562752 155:0.455882 156:0.791279 157:0.352941 158:0.977625 161:0.110266 162:0.224113 163:0.532319 164:0.139989 165:0.393665 166:0.635209 167:0.0617761 168:0.666168 169:0.035533 170:0.291929 171:0.0246479 172:0.812875 173:0.0456621 174:0.984032 175:0.059761 176:0.106144 177:0.0923077 178:0.27899 179:0.15736 180:0.40265 181:0.177711 182:0.576774 183:0.114943 184:0.668735 185:0.0519031 186:0.0840851 187:0.0281124 188:0.726103 189:0.0539419 190:0.0675234 191:0.0161943 192:0.788654 193:0.251969 194:0.248593 195:0.265873 196:0.591376 197:0.445055 198:0.824085 201:0.393728 202:0.223382 203:0.145833 204:0.703375 205:0.116022 206:0.644718 207:0.0689655 208:0.905583 209:0.040625 210:0.183656 211:0.012766 212:0.494261 213:0.0752212 214:0.491037 215:0.02 216:0.603429 217:0.0543478 218:0.446286 219:0.0798479 220:0.566341 221:0.0406504 222:0.230537 223:0.0982906 224:0.490701 225:0.0666667 226:0.561117 227:0.0578947 228:0.410865 229:0.0410256 230:0.594532 231:0.0251046 232:0.856629 233:0.0609756 234:0.0638724 235:0.212687 236:0.276799 237:0.475728 238:0.717073 241:0.345455 242:0.245697 243:0.165957 244:0.802465 245:0.04 246:0.242672 247:0.0674847 248:0.612851 249:0.0264317 250:0.106059 251:0.0440252 252:0.727014 253:0.0347003 254:0.183378 255:0.041841 256:0.652167 257:0.0253623 258:0.793413 259:0.0552995 260:0.19452 261:0.0553506 262:0.813783 263:0.0491803 264:0.148016 265:0.08 266:0.982173 267:0.0471204 268:0.208472 269:0.0387597 270:0.0923162 271:0.0334928 272:0.372799 273:0.0854701 274:0.651155 275:0.181481 276:0.208146 277:0.142202 278:0.754512 281:0.452675 282:0.244538 283:0.254902 284:0.698867 285:0.0795455 286:0.92893 287:0.0304348 288:0.204235 289:0.0273038 290:0.549777 291:0.0245399 292:0.769124 293:0.0829493 294:0.0027319 295:0.0159236 296:0.968472 297:0.0434783 298:0.918997 299:0.108491 300:0.099075 301:0.065 302:0.796447 303:0.106762 304:0.10542 305:0.0725806 306:0.722943 307:0.0696864 308:0.120147 309:0.038961 310:0.656554 311:0.0187793 312:0.939317 313:0.0319635 314:0.197007 315:0.168182 316:0.221064 317:0.155709 318:0.780613 321:0.447619 322:0.253161 323:0.121457 324:0.579855 325:0.122137 326:0.857322 327:0.0471698 328:0.541104 329:0.036036 330:0.0702358 331:0.0386266 332:0.296838 333:0.106481 334:0.584458 335:0.0137931 336:0.115306 337:0.0338164 338:0.377101 339:0.0459184 340:0.515528 341:0.0244898 342:0.289022 343:0.102767 344:0.524846 345:0.0458333 346:0.498892 347:0.0622407 348:0.535401 349:0.0255319 350:0.447758 351:0.0340426 352:0.598028 353:0.04 354:0.276225 355:0.175214 356:0.26634 357:0.333333 358:0.749104 361:0.27451 362:0.23097 363:0.26087 364:0.405914 365:0.229249 366:0.782526 367:0.0540541 368:0.173337 369:0.107623 370:0.54912 371:0.109524 372:0.552874 373:0.0452675 374:0.204379 375:0.0248963 376:0.636026 377:0.0765957 378:0.473602 379:0.0235294 380:0.220452 381:0.141176 382:0.627039 383:0.0614035 384:0.123467 385:0.0239234 386:0.623001 387:0.0235849 388:0.247147 389:0.0679612 390:0.485376 391:0.0297398 392:0.499401 393:0.0693069 394:0.390393 395:0.208054 396:0.116673 397:0.440329 398:0.687455 401:0.0843373 402:0.227914 403:0.468468 404:0.273254 405:0.216463 406:0.659868 407:0.2125 408:0.959369 409:0.105 410:0.946111 411:0.173913 412:0.0694353 413:0.011583 414:0.295606 415:0.0961538 416:0.804627 417:0.135802 418:0.101159 419:0.054902 420:0.843138 421:0.0994475 422:0.0739324 423:0.0176211 424:0.874686 425:0.0855615 426:1 427:0.0718232 428:0.882663 429:0.108808 430:0.0515978 431:0.0175439 432:0.89219 433:0.278689 434:0.171783 435:0.144068 436:0.770539 437:0.438356 438:0.638785 441:0.00796813 442:0.49446 443:0.252252 444:0.225673 445:0.420513 446:0.437049 447:0.179167 448:0.780854 449:0.107759 450:0.0249538 451:0.0757576 452:0.628732 453:0.0629371 454:0.0992129 455:0.0325581 456:0.496593 457:0.0238095 458:0.0782974 459:0.0513834 460:0.545827 461:0.00985222 462:0.698322 463:0.031746 464:0.183635 465:0.0460251 466:0.585196 467:0.0141509 468:0.448007 469:0.0373134 470:0.863958 471:0.0641026 472:0.197986 473:0.21831 474:0.0981813 475:0.422939 476:0.64948 477:0.0851064 478:0.597639 481:0.00813008 482:0.304456 483:0.0300429 484:0.117938 485:0.441406 486:0.238625 487:0.464455 488:0.538089 489:0.211207 490:0.879433 491:0.0590164 492:0.11596 493:0.0480349 494:0.692444 495:0.059633 496:0.23592 497:0.109804 498:0.586194 499:0.042735 500:0.350588 501:0.0339623 502:0.479566 503:0.0689655 504:0.547601 505:0.00414938 506:0.222956 507:0.0454545 508:0.172902 509:0.10473 510:0.539747 511:0.349398 512:0.117922 513:0.356 514:0.664449 515:0.22623 516:0.626551 517:0.0301724 518:0.932945 521:0.0352941 522:0.18028 523:0.0414747 524:0.531799 525:0.0921659 526:0.283676 527:0.359322 528:0.267012 529:0.4 530:0.594318 531:0.229391 532:0.987699 533:0.0352941 534:0.635146 535:0.0534351 536:0.651809 537:0.0627451 538:0.0273042 539:0.0561798 540:0.0403179 541:0.034188 542:0.621994 543:0.090566 544:0.065991 545:0.0255474 546:0.143262 547:0.0985915 548:0.652514 549:0.428571 550:0.109775 551:0.187755 552:0.654707 553:0.381757 554:0.610814 555:0.0225225 556:0.40541 557:0.0416667 558:0.634355 561:0.0186916 562:0.616336 563:0.0341463 564:1 565:0.0528634 566:0.225673 567:0.1625 568:0.276448 569:0.464115 570:0.310206 571:0.466942 572:0.610876 573:0.268817 574:0.980884 575:0.0973451 576:0.0797375 577:0.012766 578:0.423488 579:0.0613027 580:0.777963 581:0.104693 582:0.129476 583:0.0384615 584:0.602532 585:0.0583658 586:0.675793 587:0.380392 588:0.132015 589:0.130435 590:0.656196 591:0.492537 592:0.614826 593:0.025974 594:0.672203 595:0.00680272 596:0.486503 597:0.00560224 598:0.619301 601:0.0300429 602:0.245196 603:0.0384615 604:0.665404 605:0.0172414 606:0.229754 607:0.0292683 608:0.312 609:0.189516 610:0.259188 611:0.485149 612:0.329742 613:0.454936 614:0.601316 615:0.217391 616:0.968269 617:0.119231 618:0.0449037 619:0.052 620:0.499039 621:0.0188679 622:0.695335 623:0.0389105 624:0.918705 625:0.287273 626:0.103745 627:0.0319149 628:0.549346 629:0.528169 630:0.616721 631:0.0147601 632:0.749169 633:0.015873 634:0.656227 635:0.00515464 636:1 637:0.0111111 638:0.248504 641:0.0307692 642:0.107577 643:0.0128755 644:0.693183 645:0.00649351 646:0.241391 647:0.0144231 648:0.29997 649:0.00888889 650:0.169923 651:0.239234 652:0.263559 653:0.451456 654:0.33547 655:0.416667 656:0.562675 657:0.162264 658:0.856565 659:0.252137 660:0.0274855 661:0.156146 662:0.00984671 663:0.318386 664:0.105934 665:0.178947 666:0.538081 667:0.586345 668:0.615549 669:0.0271186 670:0.0971195 671:0.03125 672:0.645664 673:0.00507614 674:0.874541 675:0.0030581 676:0.872985 678:0.48755 681:0.015873 682:0.546236 683:0.0116279 684:0.621994 686:0.498099 687:0.0271739 688:0.164318 689:0.021097 690:0.777003 691:0.0300429 692:0.184265 693:0.110727 694:0.283214 695:0.268882 696:0.315142 697:0.47619 698:0.502499 699:0.204724 700:0.497684 701:0.21097 702:0.452898 703:0.474265 704:0.577128 705:0.296053 706:0.634353 707:0.0658915 708:0.0702689 709:0.0478261 710:0.598971 711:0.0423453 712:0.987631 713:0.0273556 714:0.982149 715:0.0405405 716:0.963319 717:0.0424528 718:1 722:0.493295 723:0.0123457 724:1 725:0.00990099 726:0.107334 727:0.028777 728:0.308168 729:0.0362694 730:0.585165 731:0.00696864 732:0.62449 733:0.0125523 734:0.0848544 735:0.0420561 736:0.226532 737:0.230126 738:0.245994 739:0.284483 740:0.489585 741:0.266436 742:0.616039 743:0.0532319 744:0.563157 745:0.0570175 746:0.405485 747:0.0946502 748:0.617815 749:0.0535714 750:0.258751 751:0.0666667 752:0.565017 753:0.0728477 754:0.512387 755:0.0588235 756:0.523214 757:0.0439024 758:0.50459 
0.03963073334096353 1:0.20202 2:0.196866 3:0.16129 4:0.646244 5:0.0344828 6:0.161313 7:0.07109 8:0.845812 9:0.195652 10:0.829276 11:0.188482 12:0.161075 13:0.206573 14:0.352445 15:0.07173 16:0.618221 17:0.0338983 18:0.442029 19:0.0267857 20:0.274973 21:0.111675 22:0.749027 23:0.0316742 24:0.313391 25:0.0560345 26:0.21311 27:0.100418 28:0.856057 29:0.0974576 30:0.127201 31:0.0416667 32:0.836912 33:0.0772727 34:0.00784709 35:0.00904977 36:0.926034 37:0.164021 38:0.269463 41:0.108696 42:0.531674 43:0.049505 44:0.527983 45:0.0620155 46:0.120335 47:0.0564516 48:0.493295 49:0.185654 50:0.712751 51:0.0784314 52:0.869406 53:0.201646 54:0.257544 55:0.0502283 56:0.894463 57:0.103604 58:0.0690678 59:0.0352941 60:0.374354 61:0.0954198 62:0.718384 63:0.12 64:0.071152 65:0.109804 66:0.171484 67:0.144487 68:0.577127 69:0.188235 70:0.479118 71:0.131579 72:0.478142 73:0.0909091 74:0.588192 75:0.0409091 76:0.631908 77:0.133641 78:0.977835 81:0.0634921 82:0.0403179 83:0.117647 84:0.0994157 85:0.0836502 86:0.603031 87:0.278571 88:0.488717 89:0.388889 90:0.522163 91:0.466346 92:0.552875 93:0.380074 94:0.397522 95:0.383562 96:0.491016 97:0.187713 98:0.552329 99:0.0944206 100:0.434462 101:0.0137931 102:0.248405 103:0.0692308 104:0.479533 105:0.223684 106:0.55042 107:0.509804 108:0.548731 109:0.463636 110:0.462101 111:0.450237 112:0.476801 113:0.409483 114:0.494403 115:0.306383 116:0.436617 117:0.125581 118:0.644236 121:0.07173 122:0.162081 123:0.113074 124:0.617429 125:0.413793 126:0.615498 127:0.294606 128:0.548892 129:0.208633 130:0.51812 131:0.233871 132:0.560836 133:0.120944 134:0.353647 135:0.28115 136:0.365381 137:0.386266 138:0.474181 139:0.124498 140:0.289962 141:0.0641509 142:0.847693 143:0.280488 144:0.61107 145:0.404 146:0.591676 147:0.231092 148:0.601696 149:0.152174 150:0.347809 151:0.217213 152:0.462166 153:0.300885 154:0.426431 155:0.504902 156:0.358449 157:0.316742 158:0.475603 161:0.0532319 162:0.826494 163:0.368821 164:0.651378 165:0.41629 166:0.61501 167:0.0733591 168:0.605964 169:0.0152284 170:0.84306 171:0.0211268 172:0.387486 173:0.0136986 174:0.948454 175:0.139442 176:0.229193 177:0.392308 178:0.313353 179:0.42132 180:0.39852 181:0.340361 182:0.61756 183:0.383142 184:0.637808 185:0.121107 186:0.568012 187:0.0441767 188:0.662371 189:0.0124481 190:0.905784 191:0.0121457 192:0.40547 193:0.0944882 194:0.235336 195:0.309524 196:0.288538 197:0.489011 198:0.37801 201:0.264808 202:0.761981 203:0.4125 204:0.690072 205:0.0497238 206:0.659777 207:0.044335 208:0.0807845 209:0.03125 210:0.73299 211:0.0510638 212:0.228007 213:0.039823 214:0.543163 215:0.0233333 216:0.670271 217:0.375 218:0.225953 219:0.285171 220:0.428734 221:0.447154 222:0.586051 223:0.24359 224:0.637022 225:0.0577778 226:0.15339 227:0.0263158 228:0.528918 229:0.0615385 230:0.603295 231:0.0334728 232:0.162936 233:0.0243902 234:0.420064 235:0.11194 236:0.280581 237:0.475728 238:0.309853 241:0.436364 242:0.730087 243:0.280851 244:0.686923 245:0.055 246:0.064742 247:0.0306748 248:0.558031 249:0.0528634 250:0.615077 251:0.0534591 252:0.0171902 253:0.00630915 254:0.239653 255:0.0167364 256:0.419111 257:0.0253623 258:0.623395 259:0.0276498 260:0.297482 261:0.0110701 262:0.549616 263:0.0122951 264:0.497177 265:0.0133333 266:0.545693 267:0.0314136 268:0.774367 269:0.0232558 270:0.175057 271:0.0143541 272:0.74912 273:0.0128205 274:0.341662 275:0.0333333 276:0.948606 277:0.472477 278:0.243455 281:0.54321 282:0.762715 283:0.25 284:0.911865 285:0.0606061 286:0.686509 287:0.0130435 288:0.843294 289:0.0614334 290:0.219697 291:0.0644172 292:0.623912 293:0.0691244 294:0.978774 295:0.022293 296:0.0190745 297:0.00483092 298:0.874543 299:0.0235849 300:0.162136 301:0.025 302:0.52896 303:0.00711744 304:0.493001 305:0.016129 306:0.37325 307:0.010453 308:0.786569 309:0.012987 310:0.33347 311:0.0187793 312:0.688802 313:0.0639269 314:0.241785 315:0.0409091 316:0.783874 317:0.391003 318:0.21687 321:0.480952 322:0.724041 323:0.388664 324:0.852447 325:0.19084 326:0.978167 327:0.0566038 328:0.960556 329:0.024024 330:0.00995538 331:0.0643777 332:0.276924 333:0.0694444 334:0.609111 335:0.0206897 336:0.603039 337:0.00483092 338:0.617429 339:0.0153061 340:0.842908 341:0.0244898 342:0.00930452 344:0.494261 345:0.0291667 346:0.270972 347:0.0373444 348:0.860963 349:0.0382979 350:0.049429 351:0.012766 352:0.698276 353:0.0690909 354:0.15133 355:0.0598291 356:0.497965 357:0.580952 358:0.146873 361:0.105882 362:0.78658 363:0.367589 364:0.81868 365:0.252964 366:0.872961 367:0.018018 368:0.724045 369:0.0627803 370:0.621512 371:0.0333333 372:0.134329 373:0.0205761 374:0.600788 375:0.0124481 376:1 377:0.00851064 378:0.110148 379:0.0196078 380:0.466349 381:0.0294118 382:0.661717 383:0.0482456 384:0.985546 385:0.0669856 386:0.223298 387:0.0424528 388:0.564914 389:0.0436893 390:0.634896 391:0.0408922 392:0.143767 393:0.0445545 394:0.743252 395:0.305369 396:0.18218 397:0.477366 398:0.130729 401:0.156627 402:0.46692 403:0.400901 404:0.675226 405:0.32622 406:0.836321 407:0.283333 408:0.962557 409:0.045 410:0.0836977 411:0.0338164 412:0.934981 413:0.019305 414:0.182944 415:0.0336538 416:0.54064 417:0.0205761 418:0.748046 419:0.0196078 420:0.0834066 421:0.0497238 422:0.176665 423:0.0396476 424:0.717877 425:0.0160428 426:0.341305 427:0.0220994 428:0.536195 429:0.0310881 430:0.322373 431:0.0204678 432:0.0405394 433:0.102459 434:0.147581 435:0.644068 436:0.146079 437:0.146119 438:0.140453 441:0.103586 442:0.45214 443:0.0660661 444:0.364985 445:0.451282 446:0.813274 447:0.429167 448:0.873076 449:0.155172 450:0.0110566 451:0.0265152 452:0.745293 453:0.013986 454:0.823499 455:0.0418605 456:0.074444 457:0.00952381 458:0.495781 459:0.027668 460:0.0407433 461:0.00985222 462:0.342558 463:0.047619 464:0.63851 465:0.0502092 466:0.0112904 467:0.0990566 468:1 469:0.0597015 470:0.199153 471:0.0448718 472:0.386558 473:0.376761 474:0.158075 475:0.318996 476:0.100944 477:0.202128 478:0.705971 481:0.182927 482:0.0297208 483:0.377682 484:0.130643 485:0.1875 486:0.690965 487:0.516588 488:0.756562 489:0.37931 490:0.940727 491:0.144262 492:0.978829 493:0.00873362 494:0.286479 495:0.0321101 496:0.655578 497:0.0352941 498:0.227328 499:0.0470085 500:0.604094 501:0.0188679 502:0.583753 503:0.0517241 504:0.151666 505:0.0414938 506:0.271016 507:0.0867769 508:0.620783 509:0.0439189 510:1 511:0.401606 512:0.12394 513:0.492 514:0.144568 515:0.0557377 516:0.804514 517:0.185345 518:0.736006 521:0.133333 522:0.155088 523:0.078341 524:0.942531 525:0.119816 526:0.665707 527:0.122034 528:0.802956 529:0.4 530:0.875546 531:0.344086 532:0.909443 533:0.207843 534:1 535:0.0229008 536:0.973363 537:0.0196078 538:0.968513 539:0.011236 540:0.747131 541:0.0512821 542:0.127412 543:0.00754717 544:1 545:0.0328467 546:0.54421 547:0.056338 548:0.134147 549:0.304029 550:0.0931033 551:0.534694 552:0.0940736 553:0.165541 554:0.106244 555:0.121622 556:0.653018 557:0.104167 558:0.15478 561:0.149533 562:0.283483 563:0.263415 564:0.590516 565:0.0352423 566:1 567:0.1125 568:0.159269 569:0.296651 570:0.673625 571:0.367769 572:0.815265 573:0.401434 574:0.930573 575:0.318584 576:0.995611 577:0.0212766 578:0.800266 579:0.0306513 580:0.0924399 581:0.0144404 582:0.240722 583:0.0448718 584:0.652167 585:0.132296 586:0.0767938 587:0.482353 588:0.08482 589:0.482213 590:0.112911 591:0.0335821 592:0.175181 593:0.0649351 594:0.5827 595:0.0340136 596:0.381322 597:0.0672269 598:0.154722 601:0.0772532 602:0.982277 603:0.0865385 604:0.191234 605:0.0301724 606:0.34331 607:0.0878049 608:0.745641 609:0.0322581 610:0.218584 611:0.0792079 612:0.686115 613:0.339056 614:0.796769 615:0.398551 616:0.88499 617:0.242308 618:0.99747 619:0.156 620:0.991831 621:0.0150943 622:0.850723 623:0.194553 624:0.0799021 625:0.461818 626:0.107303 627:0.280142 628:0.115663 629:0.0669014 630:0.0294474 631:0.0848708 632:0.547528 633:0.0539683 634:0.971558 635:0.185567 636:0.110516 637:0.333333 638:0.633623 641:0.130769 642:0.644341 643:0.227468 644:0.472413 645:0.181818 646:0.429829 647:0.0817308 648:0.740189 649:0.0933333 651:0.0813397 652:0.165851 653:0.252427 654:0.550813 655:0.392857 656:0.693108 657:0.433962 658:0.965286 659:0.337607 660:0.920654 661:0.285714 662:0.0613965 663:0.591928 664:0.0940941 665:0.266667 666:0.114709 667:0.184739 668:0.434949 669:0.183051 670:0.613997 671:0.203125 672:0.0910583 673:0.0456853 674:0.408934 675:0.12844 676:0.676042 677:0.22807 678:0.323768 681:0.301587 682:0.741586 683:0.19186 684:0.239128 685:0.183673 686:0.220765 687:0.11413 688:0.446148 689:0.0886076 690:0.585378 691:0.184549 692:0.758412 693:0.0138408 694:0.538306 695:0.160121 696:0.232431 697:0.294372 698:0.758457 699:0.232283 700:0.918658 701:0.400844 702:0.118346 703:0.117647 704:0.105128 705:0.148026 706:0.706091 707:0.0775194 708:0.32122 709:0.2 710:0.262566 711:0.0781759 712:0.615759 713:0.0607903 714:0.532702 715:0.198198 716:0.682536 717:0.0801887 718:0.145166 721:0.675 722:0.752619 723:0.358025 724:0.10062 725:0.113861 726:0.0428604 727:0.165468 728:0.431657 729:0.170984 730:0.440439 731:0.1777 732:0.740296 733:0.150628 734:0.0255076 735:0.275701 736:0.165064 737:0.154812 738:0.581872 739:0.0862069 740:0.902024 741:0.124567 742:0.0993827 743:0.0684411 744:0.675794 745:0.179825 746:0.729762 747:0.176955 748:0.0454271 749:0.171429 750:0.125132 751:0.116667 752:0.677456 753:0.13245 754:0.489913 755:0.106952 756:0.715353 757:0.131707 758:0.0144687 
0.027529931535362921 1:0.141414 2:0.0376458 3:0.0829493 4:0.301354 5:0.103448 6:0.650272 7:0.0853081 8:0.146171 9:0.0869565 10:0.388704 11:0.26178 12:0.107856 13:0.0985915 14:0.688415 15:0.135021 16:0.571114 17:0.0169492 18:0.0374886 19:0.0758929 20:0.334807 21:0.0913706 22:0.290369 23:0.081448 24:0.405507 25:0.461207 26:0.255196 27:0.129707 28:0.627747 29:0.533898 30:0.712285 31:0.226852 32:1 33:0.118182 34:0.0669848 35:0.040724 36:0.33733 37:0.132275 38:0.512064 41:0.0815217 42:0.752829 43:0.049505 44:0.316951 45:0.0271318 46:0.371668 47:0.0483871 48:0.746648 49:0.308017 50:0.185328 51:0.0901961 52:0.889336 53:0.185185 54:0.676816 55:0.086758 56:0.239258 57:0.126126 58:0.568048 59:0.0941176 60:0.355696 61:0.0763359 62:0.436173 63:0.146667 64:0.386681 65:0.380392 66:0.179117 67:0.190114 68:0.899376 69:0.215686 70:0.650889 71:0.214912 72:0.583207 73:0.0699301 74:0.674624 75:0.0590909 76:0.661064 77:0.0138249 78:0.841063 81:0.121693 82:0.684619 83:0.0470588 84:0.14601 85:0.0456274 86:0.148127 87:0.0607143 88:0.302834 89:0.296296 90:0.115582 91:0.278846 92:0.679567 93:0.125461 94:0.597643 95:0.0582192 96:0.921732 97:0.0238908 98:0.977382 99:0.0901288 100:0.118157 101:0.0103448 102:0.44762 103:0.338462 104:0.227754 105:0.3125 106:0.189177 107:0.509804 108:0.718837 109:0.304545 110:0.656812 111:0.0758294 112:0.405431 113:0.137931 114:0.580762 115:0.0553191 116:0.535782 117:0.0372093 118:0.373135 121:0.0253165 122:0.687291 123:0.04947 124:0.107334 125:0.0114943 126:0.747834 127:0.33195 128:0.206546 129:0.107914 130:0.863633 131:0.225806 132:0.745274 133:0.0737463 134:0.174642 135:0.0511182 136:0.758697 137:0.390558 138:0.00832015 139:0.140562 140:0.981724 141:0.0641509 142:0.344309 143:0.495935 144:0.182329 145:0.24 146:0.096415 147:0.542017 148:0.688878 149:0.208696 150:0.619188 151:0.0286885 152:0.609309 153:0.039823 154:0.982333 155:0.0588235 156:0.0427527 157:0.0226244 158:0.144625 161:0.0228137 162:0.315427 163:0.0228137 164:0.497952 165:0.081448 166:0.247078 167:0.34749 168:0.158238 169:0.22335 170:0.72397 171:0.246479 172:0.888495 173:0.315068 174:0.0259261 175:0.310757 176:0.180866 177:0.265385 178:0.87762 179:0.395939 180:0.892119 181:0.259036 182:0.159356 183:0.436782 184:0.215081 185:0.231834 186:0.683349 187:0.46988 188:0.680119 189:0.0705394 190:0.962972 191:0.0566802 192:0.116019 193:0.011811 194:0.405303 195:0.0277778 196:0.610324 197:0.0769231 198:0.930953 201:0.010453 202:0.234856 203:0.0416667 204:0.395346 205:0.403315 206:0.174947 207:0.187192 208:0.0877983 209:0.0625 210:0.148511 211:0.195745 212:0.880991 213:0.247788 214:0.911952 215:0.366667 216:0.159148 217:0.266304 218:0.629178 219:0.281369 220:0.834913 221:0.369919 222:0.0898065 223:0.260684 224:0.264744 225:0.577778 226:0.608229 227:0.373684 228:0.595791 229:0.317949 230:0.974284 231:0.376569 232:0.992894 233:0.0609756 234:0.989292 235:0.0895522 236:0.402105 237:0.101942 238:0.321972 241:0.0290909 242:0.900272 243:0.195745 244:0.2311 245:0.395 246:0.1465 247:0.00613497 248:0.119965 249:0.198238 250:0.160954 251:0.081761 252:0.611551 253:0.0851735 254:0.698389 255:0.154812 256:0.0545758 257:0.130435 258:0.301021 259:0.211982 260:0.593344 261:0.132841 262:0.671116 263:0.131148 264:0.753589 265:0.186667 266:0.773534 267:0.439791 268:0.183548 269:0.182171 270:0.0604917 271:0.397129 272:0.7999 273:0.405983 274:0.938016 275:0.12963 276:0.115439 277:0.229358 278:0.264003 281:0.0411523 282:0.632941 283:0.436275 284:0.20572 285:0.0984848 286:0.155074 287:0.121739 288:0.154853 289:0.0443686 290:0.940597 291:0.0429448 292:0.553302 293:0.115207 294:0.101894 295:0.10828 296:0.816858 297:0.21256 298:0.0244477 299:0.0330189 300:0.874723 301:0.08 302:0.665632 303:0.106762 304:0.844225 305:0.25 306:0.953484 307:0.418118 308:0.12617 309:0.04329 310:0.492631 311:0.0751174 312:0.730809 313:0.456621 314:0.784353 315:0.15 316:0.96659 317:0.193772 318:0.183009 321:0.12381 322:0.144181 323:0.331984 324:0.199598 325:0.0916031 326:0.289413 327:0.424528 328:0.45646 329:0.0960961 330:0.752514 331:0.175966 332:0.11953 333:0.0462963 334:0.278722 335:0.0103448 336:0.49446 337:0.154589 338:0.770119 339:0.132653 340:0.878779 341:0.122449 342:0.0481257 343:0.114625 344:0.0801706 345:0.075 346:0.015434 347:0.06639 348:0.00680372 349:0.0808511 350:0.0648115 351:0.0808511 352:0.0649621 353:0.327273 354:0.788289 355:0.0982906 356:0.783191 357:0.285714 358:0.181588 361:0.117647 362:0.237223 363:0.264822 364:0.103952 365:0.264822 366:0.656288 367:0.333333 368:0.27673 369:0.044843 370:0.938878 371:0.0571429 372:0.97356 373:0.0781893 374:0.0737142 375:0.0290456 376:0.168433 377:0.0765957 378:0.763667 379:0.0745098 380:0.922182 381:0.158824 382:0.0466291 383:0.0921053 384:0.0656645 385:0.0526316 386:1 387:0.0471698 388:0.0569865 389:0.0582524 390:0.101672 391:0.0557621 392:0.146561 393:0.519802 394:0.726191 395:0.0302013 396:0.558793 397:0.160494 398:0.0724131 401:0.393574 402:0.155529 403:0.184685 404:0.803288 405:0.182927 406:0.62902 407:0.608333 408:0.22755 409:0.145 410:0.508164 411:0.0434783 412:0.042685 413:0.015444 414:0.822379 415:0.0673077 416:0.0613567 417:0.0164609 418:0.874022 419:0.0352941 420:1 421:0.0552486 422:0.0384771 423:0.0176211 424:1 425:0.0160428 426:0.948614 427:0.0331492 428:0.101977 429:0.0414508 430:0.165629 431:0.0233918 432:0.729149 433:0.463115 434:0.677248 435:0.177966 436:0.303768 437:0.150685 438:0.873661 441:0.374502 442:0.0726724 443:0.318318 444:0.662933 445:0.0769231 446:0.288681 447:0.4125 448:0.271011 449:0.306034 450:0.41238 451:0.0113636 452:0.820473 453:0.0314685 454:0.361724 455:0.0418605 456:0.939029 457:0.0285714 458:0.0659744 459:0.0158103 460:0.0354205 461:0.00492611 462:0.874804 463:0.00793651 464:0.873565 465:0.0251046 466:0.0243683 467:0.0518868 468:0.0410121 469:0.0373134 470:0.028211 471:0.176282 472:0.768524 473:0.257042 474:0.710914 475:0.290323 476:0.198483 477:0.212766 478:0.746609 481:0.361789 482:0.683266 483:0.283262 484:0.628654 485:0.0507813 486:0.0405542 487:0.236967 488:0.240291 489:0.435345 490:0.279206 491:0.170492 492:0.534438 493:0.122271 494:0.121988 495:0.0366972 496:0.76923 497:0.0117647 498:0.0449533 499:0.0042735 500:0.749295 501:0.00754717 502:0.622955 503:0.00862069 504:0.123829 505:0.0290456 506:0.1084 507:0.0123967 508:0.0633737 509:0.0101351 510:0.960563 511:0.317269 512:0.75428 513:0.2 514:0.871298 515:0.265574 516:0.131422 517:0.336207 518:0.69521 521:0.505882 522:0.627884 523:0.0599078 524:0.379388 525:0.0368664 526:0.639974 527:0.122034 528:0.154325 529:0.273469 530:0.253523 531:0.318996 532:0.383253 533:0.0901961 534:0.462879 535:0.0305344 536:0.619971 537:0.0156863 538:0.926042 539:0.0149813 540:0.873565 541:0.0213675 542:0.0530288 543:0.0226415 544:0.120283 545:0.0182482 546:0.299809 547:0.0316901 548:0.457854 549:0.043956 550:0.506924 551:0.195918 552:0.72329 553:0.108108 554:0.888255 555:0.144144 556:0.959217 557:0.28125 558:0.631864 561:0.130841 562:0.64058 563:0.0682927 564:0.207762 565:0.0969163 566:0.334295 567:0.0458333 568:0.36999 569:0.138756 570:0.488897 571:0.442149 572:0.275712 573:0.27957 574:0.444806 575:0.0309735 576:0.413376 577:0.0255319 578:0.935254 579:0.0306513 580:0.980071 581:0.0397112 582:0.0166086 583:0.025641 584:0.960528 585:0.0116732 586:0.74968 587:0.0431373 588:0.493971 589:0.0474308 590:0.443765 591:0.0671642 592:0.65111 593:0.0735931 594:0.639604 595:0.309524 596:0.732491 597:0.151261 598:0.543454 601:0.0214592 602:0.661838 603:0.0721154 604:0.989342 605:0.103448 606:0.243343 607:0.0926829 608:0.624455 609:0.0282258 610:0.350915 611:0.267327 612:0.233042 613:0.390558 614:0.269552 615:0.076087 616:0.348738 617:0.00769231 618:0.874805 619:0.06 620:0.019215 621:0.0150943 622:0.526038 623:0.0505837 624:0.630699 625:0.0509091 626:0.768918 627:0.0638298 628:0.982316 629:0.0598592 630:0.0544269 631:0.129151 632:0.578435 633:0.0285714 634:0.726206 635:0.737113 636:0.697738 637:0.244444 638:0.0927667 641:0.1 642:0.186611 643:0.0772532 644:0.754341 645:0.0909091 646:0.171782 647:0.0336538 648:0.860324 649:0.0666667 650:0.179344 651:0.177033 652:0.240077 653:0.441748 654:0.230269 655:0.150794 656:0.16802 657:0.0867925 658:0.0751763 659:0.102564 660:0.628651 661:0.126246 662:0.5174 663:0.130045 664:0.493494 665:0.0912281 666:0.481757 667:0.13253 668:0.508089 669:0.149153 670:0.675635 671:0.0546875 672:0.15803 673:0.263959 674:0.810985 675:0.180428 676:0.75145 677:0.111111 678:0.743776 681:0.0634921 682:0.143414 683:0.0755814 684:0.784383 685:0.0714286 686:0.153208 687:0.0434783 688:0.898224 689:0.0548523 690:0.0987947 691:0.197425 692:0.233307 693:0.342561 694:0.232843 695:0.126888 696:0.165012 697:0.116883 698:0.719821 699:0.244094 700:0.605171 701:0.278481 702:0.488557 703:0.176471 704:0.485468 705:0.134868 706:0.516794 707:0.193798 708:0.469647 709:0.169565 710:0.546725 711:0.0846906 712:0.277265 713:0.203647 714:0.722689 715:0.292793 716:0.67363 717:0.0896226 718:0.699608 721:0.125 722:0.0814285 723:0.0493827 724:0.766944 725:0.0594059 726:0.165587 727:0.028777 728:0.924504 729:0.0362694 730:0.95479 731:0.198606 732:0.25736 733:0.460251 734:0.236937 735:0.0700935 736:0.118324 737:0.305439 738:0.705532 739:0.301724 740:0.647044 741:0.16609 742:0.422228 743:0.114068 744:0.433074 745:0.118421 746:0.576589 747:0.152263 748:0.379811 749:0.121429 750:0.410124 751:0.144444 752:0.340873 753:0.556291 754:0.704731 755:0.272727 756:0.647282 757:0.0243902 758:0.574835 
0.017807268916637666 1:0.181818 2:0.395776 3:0.0552995 4:0.326924 5:0.0172414 6:0.0670465 7:0.056872 8:0.0354621 9:0.0652174 10:0.158482 11:0.052356 12:0.384558 13:0.0704225 14:0.572385 15:0.0464135 16:0.263625 17:0.0762712 18:0.516858 19:0.0491071 20:0.499094 21:0.0456853 22:0.682204 23:0.0769231 24:0.768285 25:0.0689655 26:0.819309 27:0.117155 28:0.800786 29:0.148305 30:0.813298 31:0.125 32:0.885824 33:0.313636 34:0.144907 35:0.176471 36:0.143113 37:0.015873 38:0.593049 41:0.26087 42:0.418136 43:0.178218 44:0.37857 45:0.0852713 46:0.423149 47:0.0604839 48:0.504032 49:0.0886076 50:0.521111 51:0.176471 52:0.496042 53:0.234568 54:0.481782 55:0.200913 56:0.520073 57:0.108108 58:0.466357 59:0.0705882 60:0.437252 61:0.0419847 62:0.54205 63:0.0533333 64:0.696223 65:0.0509804 66:0.807928 67:0.0912548 68:0.823639 69:0.12549 70:0.850127 71:0.131579 72:0.0144246 73:0.185315 74:0.118585 75:0.0454545 76:0.0468049 77:0.0875576 78:0.685991 81:0.179894 82:0.227224 83:0.121569 84:0.218333 85:0.0570342 86:0.277452 87:0.0464286 88:0.587675 89:0.111111 90:0.669302 91:0.134615 92:0.56331 93:0.140221 94:0.415297 95:0.106164 96:0.424077 97:0.0750853 98:0.40941 99:0.0901288 100:0.394922 101:0.0551724 102:0.459864 103:0.0307692 104:0.554657 105:0.0230263 106:0.813811 107:0.0735294 108:0.82339 109:0.0863636 110:0.85728 111:0.118483 112:0.0652805 113:0.0603448 114:0.105161 115:0.0978723 116:0.591457 117:0.102326 118:0.668985 121:0.227848 122:0.0808745 123:0.130742 124:0.0860115 125:0.0498084 126:0.082311 127:0.0456432 128:0.675555 129:0.140288 130:0.721159 131:0.0725806 132:0.748138 133:0.0707965 134:0.234013 135:0.0734824 136:0.273677 137:0.0944206 138:0.386871 139:0.0843373 140:0.379985 141:0.0679245 142:0.383072 143:0.0406504 144:0.350802 145:0.012 146:0.698024 147:0.0462185 148:0.644148 149:0.0347826 150:0.57252 151:0.0122951 152:0.948626 153:0.132743 154:0.627503 155:0.230392 156:0.509177 157:0.149321 158:0.454478 161:0.114068 162:0.144504 163:0.0228137 164:0.103732 165:0.040724 166:0.697619 167:0.0579151 168:0.638121 169:0.172589 170:0.691872 171:0.0633803 172:0.693434 173:0.0913242 174:0.308894 175:0.103586 176:0.425038 177:0.103846 178:0.404971 179:0.106599 180:0.368838 181:0.063253 182:0.316362 183:0.0574713 184:0.345273 185:0.0657439 186:0.575773 187:0.144578 188:0.542096 189:0.157676 190:0.467428 191:0.137652 192:0.627655 193:0.188976 194:0.723198 195:0.0555556 196:0.367026 197:0.252747 198:0.271646 201:0.0627178 202:0.107334 203:0.0166667 204:0.823137 205:0.0883978 206:0.739054 207:0.0689655 208:0.736322 209:0.084375 210:0.701208 211:0.0851064 212:0.690306 213:0.0530973 214:0.451348 215:0.1 216:0.432072 217:0.190217 218:0.379495 219:0.106464 220:0.357717 221:0.0934959 222:0.332888 223:0.0726496 224:0.451909 225:0.208889 226:0.593296 227:0.326316 228:0.530931 229:0.328205 230:0.441468 231:0.175732 232:0.53111 233:0.203252 234:0.760165 235:0.149254 236:0.0550823 237:0.305825 238:0.141584 241:0.0472727 242:0.0142955 243:0.0297872 244:0.771066 245:0.08 246:0.717771 247:0.0644172 248:0.704014 249:0.123348 250:0.673197 251:0.0849057 252:0.670506 253:0.0536278 254:0.639097 255:0.0878661 256:0.388626 257:0.134058 258:0.332431 259:0.138249 260:0.315549 261:0.0664207 262:0.341254 263:0.102459 264:0.614 265:0.266667 266:0.644843 267:0.277487 268:0.535039 269:0.24031 270:0.388575 271:0.239234 272:0.368363 273:0.123932 274:0.589411 275:0.0814815 276:0.106414 277:0.155963 278:0.142626 281:0.0493827 282:0.846087 283:0.102941 284:0.912158 285:0.0719697 286:0.698499 287:0.130435 288:0.689849 289:0.0853242 290:0.752334 291:0.0705521 292:0.687293 293:0.105991 294:0.661922 295:0.0350318 296:0.289836 297:0.178744 298:0.255657 299:0.150943 300:0.288623 301:0.05 302:0.403304 303:0.120996 304:0.696004 305:0.262097 306:0.739492 307:0.087108 308:0.944373 309:0.264069 310:0.152535 311:0.215962 312:0.238291 313:0.123288 314:0.300864 315:0.0863636 316:0.313611 317:0.017301 318:0.383665 321:0.047619 322:0.01333 323:0.1417 324:0.776568 325:0.0877863 326:0.781448 327:0.0754717 328:0.795856 329:0.105105 330:0.761237 331:0.107296 332:0.767564 333:0.0555556 334:0.828834 335:0.0448276 336:0.167082 337:0.154589 338:0.260023 339:0.153061 340:0.278313 341:0.0612245 342:0.449081 343:0.142292 344:0.630154 345:0.166667 346:0.675491 347:0.0124481 348:0.694802 349:0.106383 350:0.217118 351:0.144681 352:0.248714 353:0.105455 354:0.297166 355:0.0982906 356:0.296175 357:0.0428571 358:0.247307 361:0.0117647 362:0.835142 363:0.142292 364:0.749462 365:0.0988142 366:0.794698 367:0.0600601 368:0.841649 369:0.161435 370:0.796591 371:0.114286 372:0.81682 373:0.0576132 374:0.858561 375:0.0165975 376:0.0222735 377:0.131915 378:0.263153 379:0.0941176 380:0.335438 381:0.158824 382:0.525957 383:0.175439 384:0.585285 385:0.148325 386:0.601316 387:0.0283019 388:0.424026 389:0.0970874 390:0.229233 391:0.0929368 392:0.255471 393:0.148515 394:0.213464 395:0.0973154 396:0.258761 397:0.0534979 398:0.273847 401:0.0281124 402:0.589879 403:0.135135 404:0.732007 405:0.0609756 406:0.812621 407:0.108333 408:0.87023 409:0.195 410:0.819189 411:0.135266 412:0.845358 413:0.0694981 414:0.84951 415:0.0432692 416:0.799616 417:0.0946502 418:0.244136 419:0.0588235 420:0.424573 421:0.149171 422:0.575517 423:0.0969163 424:0.575732 425:0.0588235 426:0.498265 427:0.0607735 428:0.274252 429:0.0880829 430:0.202804 431:0.0877193 432:0.198973 433:0.122951 434:0.127038 435:0.127119 436:0.204151 437:0.0821918 438:0.233042 441:0.00398406 442:0.873615 443:0.0570571 444:0.750532 445:0.0615385 446:0.863241 447:0.0958333 448:0.838122 449:0.163793 450:0.79858 451:0.113636 452:0.825041 453:0.0909091 454:0.836755 455:0.0511628 456:0.799855 457:0.0428571 458:0.19203 459:0.0355731 460:0.549541 461:0.0640394 462:0.616829 463:0.00793651 464:0.925362 465:0.0585774 466:0.107384 467:0.0943396 468:0.168111 469:0.0895522 470:0.159006 471:0.144231 472:0.167213 473:0.0598592 474:0.0934395 475:0.09319 476:0.159576 477:0.0744681 478:0.141152 481:0.0284553 482:0.976772 483:0.0515021 484:0.811323 485:0.03125 486:0.899409 487:0.0900474 488:0.794605 489:0.146552 490:0.777591 491:0.0983607 492:0.816418 493:0.152838 494:0.814061 495:0.0642202 496:0.828195 497:0.0117647 498:0.799898 499:0.0213675 500:0.835548 501:0.0377358 502:0.0411851 503:0.0905172 504:0.0593009 505:0.107884 506:0.0150103 507:0.119835 508:0.111416 509:0.114865 510:0.144198 511:0.15261 512:0.150235 513:0.032 514:0.221373 515:0.0754098 516:0.168262 517:0.0862069 518:0.117775 521:0.0156863 522:0.616336 523:0.0460829 524:0.732422 525:0.0276498 526:0.818076 527:0.0677966 528:0.787866 529:0.110204 530:0.789358 531:0.100358 532:0.820205 533:0.168627 534:0.797718 535:0.0725191 536:0.780114 537:0.0588235 538:0.989381 539:0.104869 541:0.166667 542:0.0461912 543:0.143396 544:0.0486744 545:0.131387 546:0.00671278 547:0.137324 548:0.0586589 549:0.14652 550:0.116488 551:0.0938776 552:0.0890123 553:0.0675676 554:0.117775 555:0.126126 556:0.140868 557:0.0590278 558:0.111293 561:0.0514019 562:0.50321 563:0.0439024 564:0.597071 565:0.0176211 566:0.741892 567:0.075 568:0.791464 569:0.100478 570:0.798927 571:0.115702 572:0.803333 573:0.175627 574:0.76781 575:0.0309735 576:0.728357 577:0.102128 578:0.072156 579:0.137931 580:0.0418383 581:0.155235 582:0.035995 583:0.11859 584:0.0394721 585:0.128405 586:0.0226785 587:0.133333 588:0.0397676 589:0.126482 590:0.0871471 591:0.0597015 592:0.0420705 593:0.125541 594:0.118105 595:0.0884354 596:0.105797 597:0.0308123 598:0.0916091 601:0.0214592 602:0.0801576 603:0.0432692 604:0.479321 605:0.0387931 606:0.468416 607:0.117073 608:0.608946 609:0.0725806 610:0.798207 611:0.163366 612:0.817558 613:0.253219 614:0.791485 615:0.155797 616:0.0484764 617:0.188462 618:0.0795928 619:0.152 620:0.07572 621:0.0981132 622:0.0293583 623:0.120623 624:0.039442 625:0.0945455 626:0.0146066 627:0.0921986 628:0.026213 629:0.116197 630:0.0263083 631:0.110701 632:0.0613284 633:0.0825397 634:0.104784 635:0.0721649 636:0.107334 637:0.0166667 638:0.0917763 641:0.1 642:0.642953 643:0.0343348 644:0.00153689 645:0.0649351 646:0.850723 647:0.0432692 648:0.159609 649:0.0444444 650:0.764076 651:0.133971 652:0.719804 653:0.165049 654:0.80652 655:0.150794 656:0.0669307 657:0.124528 658:0.0721678 659:0.123932 660:0.0593041 661:0.0863787 662:0.0561405 663:0.103139 664:0.0321201 665:0.0736842 666:0.025877 667:0.0803213 668:0.0816783 669:0.0271186 670:0.0554299 671:0.015625 672:0.110897 673:0.0507614 674:0.247246 675:0.00917431 676:0.185877 677:0.0175439 678:0.839689 681:0.026455 682:0.328653 683:0.0174419 684:0.547611 685:0.158163 686:0.544662 687:0.103261 688:0.450455 689:0.0675105 690:0.78473 691:0.0600858 692:0.863848 693:0.0726644 694:0.92949 695:0.0936556 696:0.0592583 697:0.0952381 698:0.0862725 699:0.0629921 700:0.0783744 701:0.0506329 702:0.121895 703:0.0220588 704:0.0714453 705:0.0164474 706:1 707:0.0155039 708:0.173076 709:0.00869565 710:0.619076 711:0.0228013 712:0.493815 713:0.0334347 714:0.282725 715:0.0225225 716:0.317465 717:0.0235849 718:0.612837 721:0.1 722:0.0866301 723:0.17284 724:0.712895 725:0.19802 726:0.481793 727:0.273381 728:0.36056 729:0.0518135 730:0.792169 731:0.0348432 732:0.968542 733:0.0376569 734:0.00815008 735:0.0373832 736:0.0316569 737:0.0460251 738:0.0899034 739:0.0258621 740:0.0723719 741:0.0207612 742:0.220334 743:0.00760456 744:0.366792 745:0.0131579 746:0.650258 748:0.483783 749:0.025 750:0.772017 751:0.0277778 752:0.141896 753:0.0728477 754:0.275591 755:0.0213904 756:0.367826 757:0.0243902 758:0.591684 
0.0086889869510139977 1:1 2:0.0048327 3:0.548387 4:0.960862 5:0.362069 6:0.0176249 7:0.0995261 8:0.558946 9:0.026087 10:0.103426 11:0.078534 12:0.520289 13:0.0328638 14:0.563002 15:0.0337553 16:0.650904 17:0.0847458 18:0.0374886 19:0.0267857 20:0.973668 21:0.0913706 22:0.317355 23:0.131222 24:0.597471 25:0.012931 26:0.906322 27:0.0209205 28:0.601571 29:0.0127119 30:0.153876 31:0.0277778 32:0.0394721 33:0.0136364 34:0.749621 35:0.221719 36:0.25147 37:0.275132 38:0.743544 41:0.309783 42:0.0617915 43:0.331683 44:0.805619 45:0.375969 46:0.812591 47:0.108871 48:0.092701 49:0.0675105 50:0.719639 51:0.0431373 52:0.0852448 53:0.139918 54:0.995307 55:0.118721 56:0.113866 57:0.126126 58:0.550405 59:0.0588235 60:0.698481 61:0.0419847 62:0.0137289 63:0.0444444 64:0.290385 65:0.0745098 66:0.922301 67:0.095057 68:0.0181594 69:0.0745098 70:0.0570555 71:0.0570175 72:0.546846 73:0.013986 74:0.674624 75:0.218182 76:0.255781 77:0.230415 78:0.736279 81:0.0634921 82:0.114957 83:0.196078 84:0.716328 85:0.422053 86:0.700322 87:0.0285714 88:0.787692 89:0.0111111 90:0.746501 91:0.403846 92:0.056917 93:0.346863 94:0.974481 95:0.369863 96:0.956953 97:0.221843 98:0.0303592 99:0.0300429 100:0.0206825 101:0.0448276 102:0.725123 103:0.238462 104:0.0743946 105:0.3125 106:0.99832 107:0.553922 108:0.994356 109:0.359091 110:0.95128 111:0.0995261 112:0.047757 113:0.0301724 114:0.748885 115:0.212766 116:0.262206 117:0.223256 118:0.735983 121:0.0506329 122:0.639543 123:0.257951 124:0.720669 125:0.32567 126:0.653961 127:0.0829876 128:0.579861 129:0.345324 130:0.143166 131:0.387097 132:0.0683727 133:0.123894 134:0.988512 135:0.28115 136:0.853827 137:0.480687 138:0.935379 139:0.128514 140:0.959438 141:0.181132 142:0.173573 143:0.447154 144:0.107426 145:0.264 146:0.0388739 147:0.273109 148:0.892038 149:0.43913 150:0.855739 151:0.393443 152:0.978508 153:0.0530973 154:0.828923 155:0.245098 156:0.240105 157:0.20362 158:0.75268 161:0.0532319 162:0.791749 163:0.494297 164:0.656713 165:0.248869 166:0.635806 167:0.266409 168:0.20314 169:0.624365 170:0.15431 171:0.0387324 172:1 173:0.0456621 174:0.326288 175:0.115538 176:0.620883 177:0.45 178:0.774683 179:0.258883 180:0.942807 181:0.376506 182:0.164808 183:0.237548 184:0.143574 185:0.0657439 186:0.464806 187:0.148594 188:0.638235 189:0.19917 190:0.788362 191:0.465587 192:0.825358 193:0.0708661 194:0.838603 195:0.198413 196:0.23681 197:0.241758 198:0.756431 201:0.324042 202:0.693807 203:0.404167 204:0.636406 205:0.0939227 206:0.359281 207:0.571429 208:0.230882 209:0.146875 210:0.205971 211:0.102128 212:0.611237 213:0.0530973 214:0.919103 215:0.0666667 216:0.14734 217:0.472826 218:0.739237 219:0.197719 220:0.990808 221:0.394309 222:0.156979 223:0.042735 224:0.645927 225:0.00444444 226:0.874046 227:0.0684211 228:0.0853475 229:0.0358974 230:0.859117 231:0.615063 232:0.72904 233:0.0894309 234:0.783271 235:0.179104 236:0.245808 237:0.208738 238:0.744363 241:0.614545 242:0.625176 243:0.114894 244:0.642928 245:0.175 246:0.186621 247:0.368098 248:0.267078 249:0.0704846 250:0.278426 251:0.0471698 252:0.160965 253:0.0347003 254:0.580299 255:0.0251046 256:0.419111 257:0.115942 258:0.69443 259:0.119816 260:0.98162 261:0.158672 262:0.0955173 263:0.00409836 264:0.748589 265:0.0622222 266:0.0981891 267:0.052356 268:0.479717 269:0.116279 270:0.706752 271:0.588517 272:0.756905 273:0.111111 274:0.749269 275:0.17037 276:0.254218 277:0.197248 278:0.738253 281:0.135802 282:0.618859 283:0.0392157 284:0.16225 285:0.0189394 286:0.274634 287:0.573913 288:0.266651 289:0.133106 290:0.370441 291:0.0153374 292:0.663015 293:0.0322581 294:0.955434 295:0.0159236 296:0.939224 297:0.0386473 298:0.109536 299:0.0330189 300:0.342129 301:0.05 302:0.687812 303:0.0320285 304:0.271357 305:0.0483871 306:0.697949 307:0.0243902 308:0.0462775 309:0.0649351 310:0.736237 311:0.629108 312:0.699288 313:0.146119 314:0.659467 315:0.204545 316:0.24676 317:0.148789 318:0.751792 321:0.0428571 322:0.0865591 323:0.0364372 324:0.0328414 325:0.0534351 326:0.903075 327:0.556604 328:0.234448 329:0.237237 330:0.377332 331:0.0386266 332:0.0832076 333:0.0416667 334:0.564937 335:0.00689655 336:0.49446 337:0.0241546 338:0.744953 339:0.0357143 340:0.357809 341:0.0326531 342:0.725504 343:0.0513834 344:0.0897458 345:0.025 346:0.498892 347:0.0456432 348:0.580525 349:0.246809 350:0.793908 351:0.506383 352:0.668467 353:0.04 354:0.693476 355:0.200855 356:0.226656 357:0.219048 358:0.752574 361:0.0235294 362:0.237223 363:0.0632411 364:0.0415907 365:0.0671937 366:0.786291 367:0.159159 368:0.243706 369:0.58296 370:0.307578 371:0.190476 372:0.544826 373:0.0123457 374:0.152961 375:0.00414938 376:0.369101 377:0.0425532 378:0.777706 379:0.0470588 380:0.149238 381:0.0294118 382:0.141815 383:0.0394737 384:0.816241 385:0.0191388 386:0.70947 387:0.0943396 388:0.223361 389:0.665049 390:0.695022 391:0.267658 392:0.621427 393:0.029703 394:0.513497 395:0.14094 396:0.225003 397:0.176955 398:0.707871 401:0.0923695 402:0.29264 403:0.0585586 404:0.936664 405:0.0670732 406:0.713199 407:0.025 408:0.390407 409:0.66 410:0.250563 411:0.415459 412:0.440921 413:0.027027 414:0.518757 415:0.0336538 416:0.132532 417:0.0288066 418:0.607527 419:0.027451 420:0.154013 421:0.0331492 422:0.352059 423:0.0704846 424:0.650409 425:0.0427807 426:1 427:0.154696 428:0.737067 429:0.860104 430:0.652777 431:0.0175439 432:0.605847 433:0.0327869 434:0.202747 435:0.122881 436:0.235517 437:0.173516 438:0.659676 441:0.163347 442:0.237767 443:0.0660661 444:0.741892 445:0.112821 446:0.738159 447:0.0208333 448:0.185483 449:0.237069 450:0.209961 451:0.443182 452:0.31597 453:0.185315 454:0.465937 455:0.0186047 456:0.748297 457:0.0238095 458:0.330406 459:0.0118577 460:0.592074 461:0.0246305 462:0.525544 463:0.0198413 464:0.367826 465:0.041841 466:0.810187 467:0.617925 468:0.686068 469:0.253731 470:0.618822 471:0.0384615 472:0.0321986 473:0.0316901 474:0.132168 475:0.0286738 476:0.293109 477:0.0957447 478:0.6117 481:0.162602 482:0.200193 483:0.0987124 484:0.68814 485:0.0742188 486:0.77065 487:0.0663507 488:0.201599 489:0.0603448 490:0.695119 491:0.35082 492:0.254709 493:0.427948 494:0.378023 495:0.169725 496:0.532752 497:0.0392157 498:0.0746472 499:0.034188 500:0.901005 501:0.0339623 502:0.012253 503:0.0603448 504:0.155287 505:0.290456 506:0.678243 507:0.586777 508:0.654424 509:0.0608108 510:0.13277 511:0.0281124 512:0.557649 513:0.008 514:0.620696 515:0.0295082 516:0.656552 517:0.0172414 518:0.142786 521:0.0941176 522:0.239453 523:0.0506912 524:0.762909 525:0.0829493 526:0.714755 527:0.0237288 528:0.340084 529:0.0571429 530:0.69393 531:0.129032 532:0.205657 533:0.427451 534:0.302287 535:0.316794 536:0.41678 537:0.0823529 538:0.476234 539:0.0187266 540:0.896408 541:0.0128205 542:1 543:0.0867925 544:0.674463 545:0.492701 546:0.659974 547:0.165493 548:0.598414 549:0.025641 550:0.905204 551:0.0244898 552:0.4414 553:0.0168919 554:0.676841 555:0.027027 556:0.973331 557:0.1875 558:0.13857 561:0.121495 562:0.263607 563:0.0829268 564:0.829358 565:0.0837004 566:0.691631 567:0.0291667 568:0.384535 569:0.0239234 570:1 571:0.0454545 572:0.760633 573:0.236559 574:0.214099 575:0.482301 576:0.341889 577:0.225532 578:0.411712 579:0.0421456 580:0.552413 581:0.0685921 582:0.620362 583:0.272436 584:0.689102 585:0.424125 586:0.643061 587:0.0627451 588:0.148929 589:0.0869565 590:0.614124 591:0.0373134 592:0.0759667 593:0.021645 594:0.074705 595:0.0884354 596:0.145666 597:0.280112 598:0.181011 601:0.171674 602:0.249201 603:0.149038 604:0.701857 605:0.0862069 606:0.800949 607:0.0878049 608:0.181979 609:0.0443548 610:0.567356 611:0.0346535 612:0.559776 613:0.0171674 614:0.716745 615:0.384058 616:0.236468 617:0.407692 618:0.396348 619:0.08 620:0.555327 621:0.113208 622:0.798927 623:0.564202 624:0.648104 625:0.0436364 626:0.618956 627:0.0602837 628:0.617055 629:0.0422535 630:0.114502 631:0.0147601 632:0.12209 633:0.0349206 634:0.261958 635:0.247423 636:0.169988 637:0.838889 638:0.152403 641:0.246154 642:0.235065 643:0.0600858 644:0.745345 645:0.12987 646:0.747131 647:0.00480769 648:0.248671 649:0.00888889 650:0.748093 651:0.0143541 652:0.24441 653:0.00485437 654:0.498495 655:0.0714286 656:0.254814 657:0.49434 658:0.273023 659:0.316239 660:0.450853 661:0.498339 662:0.653373 663:0.246637 664:0.636487 665:0.045614 666:0.71054 667:0.0481928 668:0.133226 669:0.0101695 670:0.29997 671:0.0390625 672:0.523864 673:0.162437 674:0.257217 675:0.35474 676:0.191572 677:0.233918 678:0.117484 681:0.169312 682:0.246717 683:0.0813953 684:0.736557 685:0.102041 686:0.74905 687:0.00543478 688:0.0978801 689:0.00843882 690:0.820234 691:0.00858369 692:0.153971 694:0.499259 695:0.00302115 696:0.749152 697:0.341991 698:0.257311 699:0.23622 700:0.473878 701:0.438819 702:0.630141 703:0.0735294 704:0.572713 705:0.00986842 706:0.800167 707:0.0193798 708:0.0569865 709:0.026087 710:0.671093 711:0.0228013 712:0.335464 713:0.203647 714:0.220598 715:0.486486 716:0.165806 717:0.0613208 718:0.935129 721:0.4 722:0.244981 723:0.0802469 724:0.746908 725:0.0940594 726:0.744953 727:0.00719424 728:0.232671 729:0.0103627 730:0.744822 731:0.00348432 732:0.248978 734:0.495185 735:0.0280374 736:0.721608 737:0.104603 738:0.179095 739:0.0818966 740:0.515951 741:0.100346 742:0.650397 743:0.0494297 744:0.121987 745:0.00438596 746:0.363796 747:0.0288066 748:0.627734 749:0.025 750:0.726737 751:0.1 752:0.201586 753:0.582781 754:0.279453 755:0.502674 756:0.298552 757:0.292683 758:0.601447 
0.021096426391536131 1:0.010101 2:1 3:0.0184332 4:0.0702689 5:0.0215517 6:0.118629 7:0.161137 8:0.0150363 9:0.256522 10:0.0281756 11:0.230366 12:0.992759 13:0.197183 14:0.954534 15:0.206751 16:0.990257 17:0.029661 18:0.906271 19:0.03125 20:0.293014 21:0.0406091 22:0.831973 23:0.0180995 24:0.2879 25:0.0818966 26:0.0320479 27:0.263598 28:0.025444 29:0.186441 30:0.0078556 31:0.166667 32:0.937065 33:0.168182 34:0.956813 35:0.0497738 36:0.0263119 37:0.037037 38:1 41:0.0217391 42:0.0966202 43:0.00990099 44:0.0895002 45:0.162791 46:0.144555 47:0.120968 48:0.179567 49:0.0759494 50:0.516124 51:0.0784314 52:0.538603 53:0.0576132 54:0.542946 55:0.210046 56:0.73537 57:0.202703 58:0.957549 59:0.054902 60:0.180334 61:0.0572519 62:0.647333 63:0.191111 64:0.0858518 65:0.254902 66:0.129608 67:0.0988593 68:0.548901 69:0.0666667 70:0.564726 71:0.0570175 72:0.675735 73:0.129371 74:0.809632 75:0.163636 76:0.991038 77:0.0506912 78:0.639066 81:0.010582 82:0.31603 83:0.0980392 84:0.237575 85:0.095057 86:0.142881 87:0.0285714 88:0.980087 89:0.0296296 90:0.91622 91:0.0480769 92:0.0149819 93:0.0221402 94:0.196648 95:0.0376712 96:0.469412 97:0.170648 98:0.759156 99:0.0944206 100:0.985543 101:0.117241 102:0.201477 103:0.130769 104:0.184108 105:0.121711 106:0.593386 107:0.0392157 108:0.479024 109:0.0227273 110:0.10173 111:0.042654 112:0.155931 113:0.0646552 114:0.652079 115:0.208511 116:0.819369 117:0.0883721 118:0.0380925 121:0.0168776 122:0.297971 123:0.173145 124:0.128393 125:0.0842912 126:0.0917424 127:0.0580913 128:0.521621 129:0.0323741 130:0.516613 131:0.0282258 132:0.770888 133:0.244838 134:0.986443 135:0.357827 136:0.0177445 137:0.145923 138:0.820707 139:0.0682731 140:0.847335 141:0.139623 142:0.197409 143:0.0813008 144:0.897328 145:0.392 146:0.00070207 147:0.491597 148:0.0158311 149:0.0913043 150:0.0270621 151:0.0409836 152:0.592266 153:0.0752212 154:0.266279 155:0.235294 156:0.710855 157:0.18552 158:0.960875 161:0.136882 162:0.214114 163:0.102662 164:0.287467 165:0.0904977 166:0.685352 167:0.042471 168:0.0388997 169:0.0456853 170:0.180703 171:0.510563 172:0.0782974 173:0.26484 174:0.0518298 175:0.350598 176:0.815045 177:0.507692 178:0.955811 179:0.177665 180:0.940176 181:0.123494 182:0.229629 183:0.536398 184:0.0813586 185:0.204152 186:0.0532623 187:0.337349 188:0.775519 189:0.493776 190:0.964962 191:0.0728745 192:0.0072531 193:0.0314961 194:0.268422 195:0.0198413 196:0.374604 197:0.32967 198:0.751838 201:0.087108 202:0.168266 203:0.141667 204:0.131517 205:0.0497238 206:0.498052 207:0.0788177 208:0.534881 209:0.45 210:0.173637 211:0.0297872 212:0.382421 213:0.0973451 214:0.46908 215:0.353333 216:0.475727 217:0.826087 218:0.658575 219:0.334601 220:0.922806 221:0.739837 222:0.162917 223:0.230769 224:0.485826 225:0.44 226:0.530376 227:0.152632 228:0.379281 229:0.641026 230:0.73968 231:0.271967 232:0.955471 233:0.0243902 234:0.350507 235:0.0373134 236:0.155435 237:0.26699 238:0.713025 241:0.138182 242:0.298032 243:0.0468085 244:0.913416 245:0.04 246:0.847239 247:0.233129 248:0.245683 249:0.334802 250:0.142968 251:0.0440252 252:0.867231 253:0.347003 254:0.628094 255:0.158996 256:0.249196 257:0.202899 258:0.41872 259:0.202765 260:0.607565 261:0.0701107 262:0.115982 263:0.307377 264:0.583673 265:0.24 266:0.26739 267:0.382199 268:0.413468 269:0.22093 270:0.713296 271:0.488038 272:0.844755 273:0.0641026 274:0.206206 275:0.0333333 276:0.682289 277:0.146789 278:0.836431 281:0.242798 282:0.230985 283:0.0539216 284:0.705824 285:0.0492424 286:0.662801 287:0.534783 288:0.242133 289:0.105802 290:0.117881 291:0.306748 292:0.697414 293:0.101382 294:0.571168 295:0.0414013 296:0.866153 297:0.222222 298:0.180797 299:0.150943 300:0.391266 301:0.375 302:0.668799 303:0.0782918 304:0.11764 305:0.016129 306:0.960901 307:0.299652 308:0.241391 309:0.199134 310:0.439422 311:0.647887 312:0.759797 313:0.0684932 314:0.0636465 315:0.0545455 316:0.24676 317:0.176471 318:0.689847 321:0.242857 322:0.248069 323:0.097166 324:0.605562 325:0.0839695 326:1 327:0.65566 328:0.259718 329:0.0900901 330:0.763513 331:0.356223 332:0.727335 333:0.0925926 334:0.183523 336:0.49446 337:0.0434783 338:0.507872 339:0.0459184 340:0.281713 341:0.0734694 342:0.630892 343:0.0197628 344:0.241391 345:0.0291667 346:0.889184 347:0.178423 348:0.273336 349:0.289362 350:0.267266 351:0.570213 352:0.756705 353:0.0254545 354:0.72651 355:0.0213675 356:0.662623 357:0.147619 358:0.823159 361:0.12549 362:0.188661 363:0.106719 364:0.270361 365:0.173913 366:0.670632 367:0.474474 368:0.216434 369:0.246637 370:0.644306 371:0.309524 372:0.778192 373:0.0534979 374:0.337495 375:0.033195 376:0.680449 377:0.0425532 378:0.0781978 379:0.00392157 380:0.623423 381:0.0411765 382:0.541209 383:0.0745614 384:0.104426 385:0.119617 386:0.640706 387:0.212264 388:0.204611 389:0.398058 390:0.24715 391:0.535316 392:0.716296 393:0.0693069 394:0.598586 395:0.0402685 396:0.196866 397:0.242798 398:0.742968 401:0.0883534 402:0.221398 403:0.0900901 404:0.392755 405:0.0243902 406:0.121221 407:0.420833 408:0.256756 409:0.25 410:0.493942 411:0.425121 412:0.806847 413:0.0733591 414:0.117987 415:0.0288462 416:0.100234 417:0.0164609 418:0.822414 419:0.0313725 420:0.650291 421:0.132597 422:0.136535 423:0.0881057 424:0.672072 425:0.0588235 426:0.121964 427:0.209945 428:0.347661 429:0.445596 430:0.103494 431:0.371345 432:0.701968 433:0.0245902 434:0.350658 435:0.0381356 436:0.151105 437:0.292237 438:0.663814 441:0.0159363 442:0.368075 443:0.108108 444:0.289857 445:0.0307692 446:0.670404 447:0.2375 448:0.226981 449:0.456897 450:0.352629 451:0.378788 452:0.72929 453:0.202797 454:0.0120489 455:0.102326 456:0.489631 457:0.0571429 458:0.679418 459:0.0671937 460:0.135032 461:0.0591133 462:0.573126 463:0.00793651 464:0.5689 465:0.117155 466:0.648005 467:0.665094 468:0.16493 469:0.19403 470:0.767516 471:0.36859 472:0.638129 473:0.0739437 474:0.109221 475:0.103943 476:0.722697 477:0.106383 478:0.588142 481:0.0325203 482:0.801585 483:0.188841 484:0.25817 485:0.183594 486:0.476734 487:0.0805687 488:0.837496 489:0.603448 490:0.229907 491:0.42623 492:0.538818 493:0.349345 494:0.803969 495:0.46789 496:0.0272245 497:0.0352941 498:0.407214 499:0.0470085 500:0.675294 501:0.0150943 502:0.206707 503:0.0948276 504:0.624498 505:0.456432 506:0.067956 507:0.330579 508:0.113759 509:0.608108 510:0.623827 511:0.0843373 512:0.492203 513:0.032 514:0.620696 515:0.183607 516:0.660455 517:0.00431034 518:0.479714 521:0.0666667 522:0.664443 523:0.00921659 524:0.319426 525:0.281106 526:0.220289 527:0.189831 528:0.522831 529:0.044898 530:0.571727 531:0.44086 532:0.222904 533:0.505882 534:0.502104 535:0.385496 536:0.669025 537:0.454902 538:0.00872069 539:0.0861423 540:0.972281 541:0.0598291 542:0.82724 543:0.532075 544:0.102752 545:0.124088 546:0.275657 547:0.693662 548:0.602918 549:0.0952381 550:0.710197 551:0.122449 552:0.0709899 553:0.152027 554:0.594305 555:0.153153 556:0.599429 557:0.0173611 558:0.776366 561:0.046729 562:0.639441 563:0.0390244 564:0.0621493 565:0.0264317 566:0.407597 567:0.154167 568:0.27815 569:0.191388 570:0.403924 571:0.169421 572:0.588125 573:0.275986 574:0.210998 575:0.451327 576:0.3718 577:0.634043 578:0.593722 579:0.237548 580:0.947623 581:0.487365 582:0.10659 583:0.285256 584:0.549085 585:0.638132 586:0.616283 587:0.0980392 588:0.123388 589:0.0790514 590:0.447031 591:0.276119 592:0.595128 593:0.108225 594:0.646971 595:0.0306122 596:0.113929 597:0.022409 598:0.830081 601:0.0214592 602:0.245196 603:0.0384615 604:0.728609 605:0.00431034 606:0.229754 607:0.0487805 608:0.220782 609:0.0927419 610:0.231654 611:0.20297 612:0.398973 613:0.197425 614:0.523741 615:0.0797101 616:0.208063 617:0.384615 618:0.284034 619:0.42 620:0.466967 621:0.539623 622:0.606528 623:0.330739 624:0.643519 625:0.156364 626:0.100477 627:0.117021 628:0.595925 629:0.165493 630:0.608503 631:0.0184502 632:0.601094 633:0.0126984 634:0.488448 635:0.0257732 636:0.322603 637:0.0388889 638:0.563572 641:0.0307692 642:0.159805 643:0.0386266 644:0.618017 645:0.025974 646:0.0631596 647:0.0528846 648:0.174749 649:0.0666667 650:0.636678 651:0.0478469 652:0.197678 653:0.213592 654:0.25137 655:0.18254 656:0.511169 657:0.0754717 658:0.340249 659:0.0555556 660:0.28437 661:0.139535 662:0.643569 663:0.0941704 664:0.144374 665:0.224561 666:0.575531 667:0.144578 668:0.628837 669:0.00677966 670:0.07215 671:0.0117188 672:0.798005 673:0.00507614 674:0.247246 675:0.0030581 676:0.23791 677:0.00584795 678:0.48755 681:0.026455 682:0.834195 683:0.0232558 684:0.243988 685:0.0153061 686:0.247147 687:0.0271739 688:0.679815 689:0.00843882 690:0.414623 691:0.0257511 692:0.153971 693:0.00346021 694:0.874814 695:0.0966767 696:0.287784 697:0.155844 698:0.37581 699:0.169291 700:0.535058 701:0.0337553 702:0.0955173 703:0.283088 704:0.616737 705:0.0131579 706:0.458185 707:0.0155039 708:0.572171 709:0.0434783 710:1 711:0.019544 712:0.602532 713:0.00303951 714:0.23977 716:0.473014 717:0.00471698 718:0.741892 721:0.1 722:0.688783 723:0.0493827 724:0.0623339 725:0.019802 726:0.450128 727:0.0431655 728:0.634355 729:0.0673575 730:0.0546049 731:0.0139373 732:0.209936 733:0.0502092 734:0.63917 735:0.088785 736:0.106888 737:0.0627615 738:0.393424 739:0.176724 740:0.307378 741:0.269896 742:0.633433 743:0.0304183 744:0.00691742 745:0.0175439 746:0.0217626 747:0.0493827 748:0.185419 749:0.0607143 750:0.663153 751:0.05 752:0.0110566 753:0.00662252 754:0.121321 755:0.00534759 756:1 757:0.0097561 758:0.667468 
0.015046547480311513 1:0.040404 2:0.618278 3:0.0322581 4:0.977332 5:0.0775862 6:0.991103 7:0.236967 8:1 9:0.26087 10:0.201092 11:0.329843 12:0.63498 13:0.0469484 14:0.717654 15:0.113924 16:0.00480695 17:0.0381356 18:0.982362 19:0.00892857 20:0.248641 21:0.0456853 22:0.965062 23:0.0180995 24:0.12366 25:0.517241 26:0.998673 27:0.192469 28:0.99307 29:0.029661 30:0.225091 31:0.0277778 32:0.925297 33:0.0545455 34:0.960951 35:0.0271493 36:1 37:0.00529101 38:0.499342 41:0.0380435 42:0.179944 43:0.0544554 44:0.296357 45:0.124031 46:0.200792 47:0.205645 48:0.888743 49:0.0253165 50:0.524823 51:0.0313725 52:0.729982 53:0.345679 54:0.0333904 55:0.173516 56:0.927813 57:0.0540541 58:0.641972 59:0.0431373 60:0.193658 61:0.0496183 62:0.599792 63:0.573333 64:0.182527 65:0.396078 66:0.630648 67:0.178707 68:0.726233 69:0.270588 70:0.0257606 71:0.0307018 72:0.434734 73:0.0314685 74:0.815665 75:0.163636 76:0.968987 77:0.16129 78:0.0158033 81:0.00529101 82:1 83:0.105882 84:0.164347 85:0.513308 86:0.0708018 87:0.292857 88:0.791955 89:0.17037 91:0.451923 92:0.145805 93:0.239852 94:0.92929 95:0.212329 96:0.793177 97:0.290102 98:0.00216316 99:0.107296 100:0.974701 101:0.175862 102:0.232819 103:0.273077 104:0.00124186 105:0.0427632 106:0.712933 107:0.156863 108:0.331104 109:0.395455 110:0.871021 111:0.763033 112:0.00773451 113:0.275862 114:0.0540553 115:0.0382979 116:0.660867 117:0.172093 118:0.801979 121:0.0506329 122:0.221362 123:0.551237 124:0.141402 125:0.137931 126:0.774344 127:0.26971 128:0.839876 129:0.179856 130:0.0462346 131:0.399194 132:0.134459 133:0.224189 134:0.677822 135:0.028754 136:0.335494 137:0.261803 138:0.801723 139:0.104418 140:0.816741 141:0.520755 142:0.15456 143:0.304878 144:0.69337 145:0.14 146:0.868303 147:0.596639 148:0.128966 149:0.169565 150:0.206686 151:0.528689 152:0.615938 153:0.256637 154:0.870704 155:0.0588235 156:0.359995 157:0.171946 158:0.761715 161:0.422053 162:0.157613 163:0.448669 164:0.0687873 165:0.239819 166:0.519033 167:0.332046 168:0.578828 169:0.233503 170:0.109809 171:0.0669014 172:0.680766 173:0.214612 174:0.821132 175:0.135458 176:0.190548 177:0.265385 178:0.706724 179:0.370558 180:0.087876 181:0.0572289 182:0.326568 183:0.0804598 184:0.741992 185:0.16955 186:0.296314 187:0.140562 188:0.417372 189:0.356846 190:0.642225 191:0.295547 192:0.38319 193:0.385827 194:0.816219 195:0.190476 196:0.0673079 197:0.126374 198:0.584648 201:0.515679 202:0.242531 203:0.591667 204:0.633925 205:0.198895 206:0.655078 207:0.433498 208:0.135254 209:0.15625 210:0.958548 211:0.102128 212:0.419622 213:0.274336 214:0.824129 215:0.0466667 216:0.0472834 217:0.13587 218:0.407214 219:0.171103 220:0.621716 221:0.166667 222:0.0989689 223:0.260684 224:0.593824 225:0.191111 226:0.120952 227:0.0684211 228:0.556083 229:0.492308 230:0.868968 231:0.74477 232:0.14447 233:0.5 234:0.619136 235:0.182836 236:0.826458 237:0.262136 238:0.916379 241:0.247273 242:0.317913 243:0.191489 244:0.86916 245:0.25 246:0.169594 247:0.257669 248:0.127961 249:0.400881 250:0.81576 251:0.204403 252:0.194543 253:0.230284 254:0.699525 255:0.125523 256:0.730849 257:0.0326087 258:0.030671 259:0.262673 260:0.0965126 261:0.243542 262:0.824246 263:0.188525 264:0.221594 265:0.0933333 266:0.588589 267:0.387435 268:0.254403 269:0.162791 270:0.874825 271:0.239234 272:0.755504 273:0.106838 274:0.291382 275:0.177778 276:0.566332 277:0.344037 278:0.700032 281:0.510288 282:0.271647 283:0.205882 284:0.722016 285:0.337121 286:0.168433 287:0.204348 288:0.318028 289:0.351536 290:0.699764 291:0.0736196 292:0.141152 293:0.262673 294:0.676698 295:0.0732484 296:0.86007 297:0.193237 298:0.195862 299:0.29717 300:0.0435536 301:0.415 302:0.723535 303:0.0711744 304:0.269878 305:0.00806452 306:0.424602 307:0.43554 308:0.155922 309:0.311688 310:0.643701 311:0.305164 312:0.674464 313:0.0593607 314:0.821862 315:0.168182 317:0.16609 318:0.754389 321:0.652381 322:0.239923 323:0.0688259 324:0.0435871 325:0.103053 326:0.371428 327:0.169811 328:0.295895 329:0.177177 330:0.686325 331:0.150215 332:0.599931 333:0.0555556 334:0.788199 335:0.110345 336:0.894487 337:0.468599 338:0.157351 339:0.418367 340:0.87997 341:0.379592 342:0.636922 343:0.268775 344:0.0432703 345:0.283333 346:0.215481 347:0.0248963 348:0.441488 349:0.289362 350:0.61281 351:0.110638 352:0.836746 353:0.185455 354:0.0568604 355:0.141026 356:0.734496 357:0.27619 358:0.675046 361:0.576471 362:0.21864 363:0.256917 364:0.572965 365:0.142292 366:0.357977 367:0.0900901 368:0.124902 369:0.394619 370:0.617658 371:0.0619048 372:0.128232 373:0.0534979 374:0.146442 375:0.0788382 376:0.991974 377:0.46383 378:0.17678 379:0.729412 380:0.691005 381:0.547059 382:0.0836475 383:0.188596 384:0.887821 385:0.339713 386:0.109263 387:0.207547 388:0.774256 389:0.305825 390:0.0475221 391:0.185874 392:0.464213 393:0.158416 394:0.763577 395:0.234899 396:0.849771 397:0.0987654 398:0.706053 401:0.393574 402:0.230082 403:0.18018 405:0.240854 406:0.176241 407:0.695833 408:0.557725 409:0.2 410:0.449364 411:0.294686 412:0.0145393 413:0.111969 414:0.350522 415:0.0913462 416:0.235552 417:0.0246914 418:0.891772 419:0.184314 420:0.604679 421:0.254144 422:0.481934 423:0.145374 424:0.531141 425:0.320856 426:0.498265 427:0.0662983 428:0.361803 429:0.455959 430:0.745851 431:0.204678 432:0.177017 433:0.204918 434:0.00873424 435:0.461864 436:0.69474 437:0.146119 438:0.634937 441:0.517928 442:0.242929 443:0.39039 444:0.488837 445:0.85641 446:0.617594 447:0.383333 448:0.0983347 449:0.482759 450:0.250715 451:0.356061 452:0.623941 453:0.171329 454:0.339837 455:0.227907 456:0.420881 457:0.261905 458:0.652715 459:0.324111 460:0.574813 461:0.0738916 462:0.268651 463:0.154762 464:0.655898 465:0.217573 466:0.239335 467:0.0990566 468:0.37925 469:0.272388 470:0.86067 471:0.439103 472:0.0981698 473:0.295775 474:0.692215 475:0.415771 476:0.633219 477:0.0141844 478:0.661037 481:0.0121951 482:0.43303 483:0.0386266 484:0.380635 485:0.292969 486:0.255124 487:0.113744 488:0.667644 489:0.275862 490:0.145292 491:0.111475 492:0.679094 493:0.183406 494:0.393905 495:0.201835 496:0.342972 497:0.372549 498:0.813657 499:0.482906 500:0.0440971 501:0.316981 502:0.994287 503:0.103448 504:0.940557 505:0.19917 506:0.359629 507:0.322314 508:0.272142 509:0.101351 510:0.463484 511:0.216867 512:0.731179 513:0.724 514:0.615667 515:0.0852459 516:0.615613 517:0.0215517 518:0.21957 521:0.0196078 522:0.616336 523:0.0276498 524:0.245158 525:0.331797 526:0.234793 527:0.216949 528:0.423149 529:0.0285714 530:0.562331 531:0.229391 532:0.849954 533:0.337255 534:0.0610406 535:0.450382 536:0.148118 537:0.164706 538:0.93443 539:0.0486891 540:0.0897458 541:0.401709 542:0.615966 543:0.264151 544:0.796582 545:0.354015 546:0.0794493 547:0.235915 548:0.165981 549:0.117216 550:0.270161 551:0.759184 552:0.706507 553:0.0540541 554:0.60259 555:0.0495495 557:0.00694444 558:0.616336 561:0.0420561 562:1 563:0.0097561 564:0.142786 565:0.0792952 566:0.225673 567:0.3375 568:0.273724 569:0.267943 570:0.357902 571:0.0991736 572:0.581584 573:0.125448 574:0.397581 575:0.411504 576:0.139367 577:0.234043 578:0.645346 579:0.275862 580:0.750484 581:0.151625 582:0.0928186 583:0.0544872 584:0.925297 585:0.11284 586:0.00420868 587:0.113725 588:0.185704 589:0.173913 590:0.520478 591:0.641791 592:0.652621 593:0.0519481 594:0.188881 595:0.0544218 596:0.614877 597:0.0196078 598:0.173181 601:0.0472103 602:0.622599 603:0.00480769 604:0.245554 605:0.0215517 606:0.0613384 607:0.278049 608:0.251089 609:0.326613 610:0.358542 611:0.480198 612:0.532856 613:0.472103 614:0.211786 615:0.26087 616:0.532762 617:0.126923 618:0.547504 619:0.196 620:0.644962 621:0.045283 622:0.0897458 623:0.0194553 624:0.331175 625:0.196364 626:0.94513 627:0.439716 628:0.532733 629:0.408451 630:0.569912 631:0.284133 632:0.617949 633:0.015873 634:0.639441 635:0.0154639 636:0.182614 637:0.0111111 638:0.624253 641:0.00769231 642:1 643:0.0257511 644:0.262806 645:0.0519481 646:0.647282 647:0.0336538 648:0.204299 649:0.0888889 650:0.268154 651:0.464115 652:0.279294 653:0.126214 654:0.402966 655:0.218254 656:0.432121 657:0.158491 658:0.529133 659:0.0683761 660:0.478952 661:0.0398671 662:0.91996 663:0.331839 664:0.142879 665:0.761404 666:0.667421 667:0.0682731 668:0.576446 669:0.0271186 670:0.624336 671:0.0195313 672:0.0158033 674:0.498165 676:0.491941 678:0.48755 681:0.015873 682:0.90538 683:0.0116279 684:0.243988 685:0.00510204 686:1 687:0.0108696 688:0.226753 689:0.00843882 690:0.362381 691:0.403433 692:0.228016 693:0.307958 694:0.524406 695:0.154079 696:0.0999887 697:0.112554 698:0.117434 699:0.19685 700:0.399251 701:0.455696 702:0.455185 703:0.5625 704:0.59891 705:0.470395 706:0.625398 707:0.0271318 708:1 709:0.0304348 710:0.111177 711:0.0162866 712:0.620362 713:0.00303951 714:0.493181 715:0.0045045 716:0.473014 717:0.00471698 718:0.483783 721:0.0875 722:0.619971 723:0.0432099 724:0.0528679 725:0.00990099 726:0.565187 727:0.00719424 728:1 729:0.0259067 730:0.172651 731:0.0243902 732:0.374149 733:0.481172 734:0.245571 735:0.593458 736:0.484839 737:0.564854 738:0.5424 739:0.422414 740:0.55718 741:0.190311 742:0.469072 743:0.346008 744:0.622556 745:0.0175439 746:0.31167 747:0.0205761 748:0.546306 749:0.0214286 750:0.60641 751:0.00555556 752:0.622498 754:0.497898 756:0.494261 758:0.486503 
0.026744705631225694 1:0.10101 2:0.629062 3:0.0322581 4:0.182462 5:0.0387931 6:0.964944 7:0.0236967 8:0.600957 9:0.395652 10:0.0492166 11:0.60733 12:0.980852 13:0.680751 14:0.982451 15:0.417722 16:0.996782 17:0.0211864 18:0.123634 19:0.00892857 20:0.874773 21:0.0101523 22:0.423973 23:0.0226244 24:0.101041 25:0.413793 26:0.991711 27:0.585774 28:0.00924584 29:0.394068 30:0.988008 31:0.421296 33:0.0545455 34:0.817623 35:0.0226244 36:0.161999 37:0.026455 38:0.663548 41:0.0380435 42:0.0132949 43:0.0643564 44:0.232286 45:0.27907 46:0.966687 47:0.669355 48:0.0752495 49:0.274262 50:0.18018 51:0.0941176 52:0.39313 53:0.271605 54:0.810443 55:0.465753 56:0.803042 57:0.801802 59:0.278431 60:0.986569 61:0.0916031 62:0.0463438 63:0.537778 64:0.135298 65:0.25098 66:0.10152 67:0.18251 68:0.86337 69:0.301961 70:0.981443 71:0.364035 72:0.803924 73:0.566434 74:0.987194 75:0.418182 76:0.998245 77:0.0322581 78:0.977053 81:0.037037 82:0.652473 83:0.403922 84:0.146645 85:0.285171 86:0.127646 87:0.175 88:0.904052 89:0.2 90:0.0276788 91:0.288462 92:0.219966 93:0.247232 94:0.64426 95:0.311644 96:0.0820201 97:0.365188 98:0.718137 99:0.446352 100:0.913034 101:0.624138 102:0.051695 103:0.388462 104:0.115728 105:0.0756579 106:0.161149 107:0.0588235 108:0.391228 109:0.309091 110:0.838286 111:0.260664 112:0.222253 113:0.357759 114:0.727819 115:0.446809 116:0.848087 117:0.0418605 118:0.549869 121:0.308017 122:0.109169 123:0.434629 124:0.0887522 125:0.314176 126:0.0868108 127:0.0746888 128:0.660413 129:0.129496 130:0.862497 131:0.0282258 132:0.199787 133:0.283186 134:0.111807 135:0.188498 136:0.670957 137:0.0643777 138:0.0457865 139:0.11245 140:0.22601 141:0.139623 142:0.714189 143:0.109756 144:0.451128 145:0.092 146:0.98616 147:0.252101 148:0.172371 149:0.443478 150:0.658427 151:0.385246 152:0.059404 153:0.0486726 154:0.734719 155:0.77451 156:0.777286 157:0.615385 158:0.00357106 161:0.410646 162:0.255599 163:0.186312 164:0.210928 165:0.352941 166:0.564874 167:0.0926641 168:0.363346 169:0.253807 170:0.774498 171:0.278169 172:0.301727 173:0.347032 174:0.561565 175:0.199203 176:0.521318 177:0.103846 178:0.959419 179:0.319797 180:0.0416934 181:0.198795 182:0.6533 183:0.444444 184:0.0795539 185:0.16609 186:0.48799 187:0.208835 188:0.590783 189:0.290456 190:0.141815 191:0.311741 192:0.615716 193:0.188976 194:0.435358 195:0.202381 196:0.803024 197:0.626374 198:0.770067 201:0.581882 202:0.122426 203:0.2 204:0.872221 205:0.39779 206:0.0503148 207:0.211823 208:0.291515 209:0.284375 210:0.695272 211:0.144681 212:0.183635 213:0.0707965 214:0.893773 215:0.276667 216:0.129275 217:0.184783 218:0.346562 219:0.494297 220:0.606899 221:0.361789 222:0.193899 223:0.405983 224:0.713313 225:0.266667 226:0.0109949 227:0.3 228:0.220944 229:0.225641 230:0.732815 231:0.205021 232:0.643754 233:0.426829 234:0.130801 235:0.190299 236:0.737238 237:0.533981 238:0.761184 241:0.210909 242:0.28706 243:0.174468 244:0.500571 245:0.36 246:0.640157 247:0.0858896 248:0.168926 249:0.193833 250:0.778295 251:0.191824 252:0.0886559 253:0.11041 254:0.142237 255:0.0669456 256:0.555124 257:0.202899 258:0.697503 259:0.262673 260:0.155746 261:0.136531 262:0.300093 263:0.0737705 264:0.610595 265:0.195556 266:0.739609 267:0.230366 268:0.236282 269:0.275194 270:0.776709 271:0.287081 272:0.201821 273:0.0726496 274:0.0960775 275:0.159259 276:0.665266 277:0.655963 278:0.756058 281:0.226337 282:0.401293 283:0.0637255 284:0.941203 285:0.0189394 286:0.0222735 287:0.134783 288:0.108923 289:0.0204778 290:1 291:0.101227 292:0.493714 293:0.115207 294:0.962282 295:0.152866 296:0.52781 297:0.154589 298:0.97598 299:0.0566038 300:0.077433 301:0.19 302:0.329647 303:0.135231 304:0.493001 305:0.21371 306:0.866258 307:0.209059 308:0.162054 309:0.311688 310:0.674948 311:0.323944 312:0.140847 313:0.118721 314:0.734909 315:0.0772727 316:0.900858 317:0.539792 318:0.760866 321:0.452381 322:0.19356 323:0.17004 324:0.549097 325:0.187023 326:0.0599314 327:0.207547 328:0.486864 329:0.168168 330:0.617219 331:0.339056 332:0.128101 333:0.398148 334:0.682439 335:0.296552 336:0.14707 337:0.188406 338:0.611632 339:0.168367 340:0.87106 341:0.244898 342:0.0176796 343:0.3083 344:0.193489 345:0.2875 346:0.617662 347:0.107884 348:0.52995 349:0.110638 350:0.0587969 351:0.102128 352:0.439678 353:0.0363636 354:0.688408 355:0.102564 356:0.946509 357:0.542857 358:0.749104 361:0.223529 362:0.419959 363:0.288538 364:0.248172 365:0.280632 366:0.715753 367:0.192192 369:0.264574 370:0.179399 371:0.142857 372:0.801681 373:0.102881 374:0.0212575 375:0.0414938 376:0.925513 377:0.174468 378:0.386576 379:0.164706 380:0.452391 381:0.147059 382:0.676828 383:0.0833333 384:0.00663086 385:0.157895 386:0.884533 387:0.216981 388:0.292078 389:0.18932 390:0.703266 391:0.104089 392:0.260463 393:0.123762 394:0.3672 395:0.120805 396:0.656437 397:0.432099 398:0.731869 401:0.353414 402:0.35776 403:0.292793 404:0.207053 405:0.0304878 406:0.307582 407:0.2375 408:0.609869 409:0.21 410:0.211925 411:0.135266 412:0.577485 413:0.220077 414:0.527109 415:0.230769 416:0.771229 417:0.218107 418:0.0437906 419:0.196078 420:0.154013 421:0.342541 422:0.477812 423:0.189427 424:0.473572 425:0.320856 426:0.730583 427:0.320442 428:0.142963 429:0.150259 430:0.754974 431:0.0555556 432:0.092305 433:0.0942623 434:0.120708 435:0.144068 436:0.600507 437:0.794521 438:0.645837 441:0.557769 442:0.24169 443:0.198198 444:0.361716 445:0.153846 446:0.750917 447:0.0708333 448:0.321095 449:0.0646552 450:0.0817122 451:0.166667 452:0.74169 453:0.185315 454:0.206829 455:0.144186 456:0.51652 457:0.052381 458:0.913264 459:0.252964 460:0.632376 461:0.374384 462:0.0510315 463:0.174603 464:0.219574 465:0.108787 466:0.619953 467:0.0660377 468:0.180015 469:0.0634328 470:0.848216 471:0.0608974 472:0.399932 473:0.0950704 474:0.695188 475:0.354839 476:0.784336 477:0.340426 478:0.865495 481:0.369919 482:0.230352 483:0.553648 484:0.364725 485:0.285156 486:0.581566 487:0.28436 488:0.0950874 489:0.133621 490:0.529986 491:0.095082 492:0.722729 493:0.10917 494:0.0157797 495:0.215596 496:0.146855 497:0.262745 498:0.668736 499:0.320513 500:0.175771 501:0.237736 502:0.612303 503:0.172414 504:0.0760537 505:0.0497925 506:0.0646466 507:0.0950413 508:0.110561 509:0.138514 510:0.692932 511:0.11245 512:0.0952461 513:0.028 514:0.196589 515:0.396721 516:0.567484 517:0.827586 518:0.608568 521:0.0156863 522:0.36056 523:0.562212 524:0.24122 525:0.626728 526:0.392505 527:0.247458 528:0.598105 529:0.0857143 530:0.30722 532:0.37076 533:0.0666667 534:0.422929 535:0.0839695 536:0.775656 537:0.0352941 538:0.110774 539:0.0486891 540:0.688022 541:0.179487 542:0.210123 543:0.132075 544:0.528035 545:0.0547445 546:0.227546 547:0.123239 548:0.559176 549:0.018315 550:0.62014 551:0.0530612 552:0.517916 553:0.432432 554:0.636386 555:0.490991 556:0.629981 557:0.0173611 558:0.232671 561:0.0420561 562:0.18028 563:0.0341463 564:0.412659 565:0.568282 566:0.240915 567:0.45 568:0.48413 569:0.430622 570:0.445818 571:0.235537 572:0.531559 573:0.139785 574:0.105536 575:0.137168 576:0.597697 577:0.195745 578:0.979696 579:0.0651341 580:0.00245203 581:0.0722022 582:0.97601 583:0.173077 584:0.0823713 585:0.0894942 586:0.654055 587:0.14902 588:0.0476828 589:0.0474308 590:0.733601 591:0.25 592:0.693007 593:0.636364 594:0.614967 595:0.047619 596:0.614877 597:0.0168067 598:0.0938227 601:0.00429185 602:0.874199 603:0.00961538 604:0.674289 605:0.142241 606:0.21986 607:0.2 608:0.364101 609:0.237903 610:0.200408 611:0.391089 612:0.166483 613:0.141631 614:0.642471 615:0.199275 616:0.193446 617:0.223077 618:0.605073 619:0.036 620:0.432349 621:0.116981 622:0.107961 623:0.190661 624:0.592415 625:0.109091 626:0.259348 627:0.131206 628:0.605085 629:0.15493 630:0.623057 631:0.789668 632:0.62428 633:0.00952381 634:0.744225 635:0.0257732 636:0.147109 637:0.0111111 638:0.624253 641:0.0230769 642:0.649575 643:0.00429185 644:0.363361 645:0.025974 646:0.0631596 647:0.346154 648:0.244243 649:0.488889 650:0.36612 651:0.655502 652:0.479945 653:0.815534 654:0.488057 655:0.115079 656:0.547055 657:0.0830189 658:0.491882 659:0.15812 660:0.248186 661:0.305648 662:0.573845 663:0.058296 664:0.114848 665:0.0596491 666:0.0343004 667:0.421687 668:0.527586 669:0.627119 670:0.652467 671:0.00390625 672:0.872985 673:0.0101523 674:0.498165 675:0.00611621 676:0.491941 677:0.0116959 678:0.48755 681:0.010582 682:0.620845 683:0.0348837 684:0.192369 685:0.0204082 686:0.498099 687:0.0326087 688:0.689457 689:0.0801688 690:0.201166 691:0.0772532 692:0.687793 693:0.522491 694:0.250999 695:0.283988 696:0.503397 697:0.238095 698:0.430463 699:0.212598 700:0.65239 701:0.409283 702:0.0807943 703:0.0661765 704:0.337229 705:0.555921 706:0.615041 707:0.236434 708:0.576834 709:0.278261 710:0.617299 711:0.0130293 712:0.707436 714:0.493181 716:0.473014 718:0.483783 721:0.0625 722:0.047961 723:0.0185185 724:1 725:0.00990099 726:0.234856 727:0.028777 728:1 729:0.0466321 730:0.19894 731:0.0627178 732:0.62449 733:0.25523 734:0.195195 735:0.331776 736:0.400639 737:0.426778 738:0.421341 739:0.564655 740:0.40955 741:0.529412 742:0.545307 743:0.707224 744:0.584419 745:0.346491 746:0.581752 747:0.102881 748:0.639974 749:0.00357143 750:1 751:0.0277778 752:0.599764 753:0.013245 754:1 755:0.0106952 756:1 757:0.0097561 758:1 
0.027855607435583688 1:0.0808081 2:0.566152 3:0.0138249 4:0.800453 5:0.24569 6:0.496359 7:0.350711 8:0.523845 9:0.23913 10:0.598933 11:0.188482 12:0.342476 13:0.230047 14:0.452121 15:0.405063 16:0.487857 17:0.0254237 18:0.675703 19:0.0357143 20:0.165867 21:0.0507614 22:0.600868 23:0.361991 24:0.513146 25:0.396552 26:0.572592 27:0.0502092 28:0.287477 29:0.194915 30:0.402706 31:0.259259 32:0.459203 33:0.472727 34:0.502306 35:0.0452489 36:0.405003 37:0.047619 38:0.565992 41:0.048913 42:0.059353 43:0.559406 44:0.57346 45:0.0658915 46:0.776616 47:0.229839 48:0.0349401 49:0.07173 50:0.576677 51:0.027451 52:0.0636564 53:0.27572 54:0.585191 55:0.543379 56:0.155633 57:0.405405 58:0.497333 59:0.109804 60:0.527636 61:0.545802 62:0.591443 63:0.315556 64:0.977541 65:0.160784 66:0.303004 67:0.140684 68:0.603758 69:0.0823529 70:0.0684558 71:0.166667 72:0.795694 73:0.391608 74:0.151102 75:0.531818 76:0.484406 77:0.0829493 78:0.428772 81:0.544974 82:0.699764 83:0.282353 84:0.0801977 85:0.178707 86:0.364391 87:0.528571 88:0.555256 89:0.348148 90:0.468888 91:0.384615 92:0.638602 93:0.369004 94:0.32768 95:0.335616 96:0.592523 97:0.242321 98:0.325727 99:0.446352 100:0.687143 101:0.468966 102:0.153973 103:0.561538 104:0.609818 105:0.194079 106:0.435049 107:0.27451 108:0.422369 109:0.395455 110:0.497787 111:0.50237 112:0.4742 113:0.517241 114:0.626131 115:0.655319 116:0.120025 117:0.418605 118:0.466653 121:0.240506 122:0.501099 123:0.339223 124:0.591007 125:0.287356 126:0.799486 127:0.116183 128:0.960932 129:0.205036 130:0.200638 131:0.290323 132:0.850429 133:0.362832 134:0.0605841 135:0.284345 136:0.989232 137:0.270386 138:0.322197 139:0.11245 140:0.377317 141:0.433962 142:0.60971 143:0.170732 144:0.826676 145:0.612 146:0.0267026 147:0.117647 148:0.936184 149:0.182609 150:0.934383 151:0.147541 152:0.247568 153:0.517699 154:0.187585 155:0.637255 156:0.625997 157:0.475113 158:0.241316 161:0.13308 162:0.639604 163:0.38403 164:0.0714113 165:0.561086 166:0.590574 167:0.0733591 168:0.808337 169:0.649746 170:0.105369 171:0.0492958 172:0.377363 173:0.223744 174:0.384572 175:0.593625 176:0.647808 177:0.346154 178:0.120487 179:0.243655 180:0.749592 181:0.243976 182:0.0654787 183:0.375479 184:0.300029 185:0.698962 186:0.577699 187:0.124498 188:0.00548213 189:0.26556 190:0.829319 191:0.623482 192:0.0838458 193:0.350394 194:0.542457 195:0.0436508 196:0.514121 197:0.67033 198:0.13593 201:0.299652 202:0.195079 203:0.616667 204:0.754467 205:0.314917 206:0.131442 207:0.433498 208:0.153428 209:0.096875 210:0.692744 211:0.476596 212:0.518726 213:0.314159 214:0.523017 215:0.19 216:0.421916 217:0.51087 218:0.493295 219:0.288973 220:0.443617 221:0.378049 222:0.637734 223:0.239316 224:0.702764 225:0.511111 226:0.204989 227:0.236842 228:0.490228 229:0.235897 230:0.263038 231:0.589958 232:0.724845 233:0.284553 234:0.120503 235:0.33209 236:0.231298 237:0.291262 238:0.599383 241:0.298182 242:0.146684 243:0.587234 244:0.652845 245:0.305 246:0.151794 247:0.266871 248:0.465884 249:0.581498 250:0.782269 251:0.0943396 252:0.142158 253:0.11041 255:0.1841 256:0.936669 257:0.0797101 258:0.268452 259:0.24424 260:0.120335 261:0.214022 262:0.578419 263:0.131148 264:0.950057 265:0.2 266:0.329661 267:0.21466 268:0.278259 269:0.120155 270:0.274439 271:0.382775 272:0.672391 273:0.183761 274:0.449525 275:0.159259 276:0.121825 277:0.389908 278:0.334651 281:0.271605 282:0.839773 283:0.0441176 284:0.933028 285:0.276515 286:0.817262 287:0.565217 288:0.243705 289:0.47099 290:0.754067 291:0.279141 292:0.0695387 293:0.152074 294:0.453019 295:0.197452 296:0.713069 297:0.386473 298:0.138553 299:0.259434 300:0.681868 301:0.29 302:0.181647 303:0.302491 304:0.630318 305:0.278226 306:0.140573 307:0.240418 308:0.382421 309:0.186147 310:0.997637 311:0.347418 312:0.745235 313:0.388128 314:0.245571 315:0.263636 316:0.862785 317:0.453287 318:0.152745 321:0.395238 322:0.743592 323:0.0931174 324:0.137681 325:0.39313 326:0.820038 327:0.716981 328:0.158593 329:0.471471 330:0.561279 331:0.32618 332:0.786651 333:0.125 334:0.287713 335:0.12069 336:0.476149 337:0.115942 338:0.565187 339:0.0612245 340:0.566034 341:0.106122 342:0.727039 343:0.209486 344:0.102273 345:0.179167 346:0.756859 347:0.618257 348:0.189543 349:0.234043 350:0.654975 351:0.425532 352:0.63333 353:0.698182 354:0.10974 355:0.235043 356:0.55664 357:0.357143 358:0.112827 361:0.254902 362:0.759586 363:0.312253 364:0.0855227 365:0.335968 366:0.633358 367:0.255255 368:0.746908 369:0.457399 370:0.198748 371:0.5 372:0.804357 373:0.0246914 374:0.973608 375:0.174274 376:0.0551247 377:0.0468085 378:0.491513 379:0.0313725 380:0.0531352 381:0.105882 382:0.271387 383:0.0175439 384:0.675641 385:0.148325 386:0.492175 387:0.542453 388:0.0912838 389:0.398058 390:0.742542 391:0.513011 392:0.265212 393:0.420792 394:0.652959 395:0.315436 396:0.175228 397:0.0246914 398:0.31219 401:0.0441767 402:0.747722 403:0.324324 404:0.750224 405:0.128049 406:0.973602 407:0.275 408:0.829624 409:0.72 410:0.12784 411:0.908213 412:0.616803 413:0.3861 414:0.0456217 415:0.168269 416:0.697798 417:0.226337 418:0.0483716 419:0.0980392 420:0.54993 421:0.132597 422:0.131464 423:0.180617 424:0.639961 425:0.764706 426:0.172355 427:0.585635 428:0.548963 429:0.642487 430:0.633266 431:0.546784 432:0.0930959 433:0.122951 434:0.457898 435:0.322034 436:0.102673 437:0.0273973 438:0.0410481 441:0.0557769 442:0.620845 443:0.0960961 444:0.793166 445:0.194872 446:0.926748 447:0.1 448:0.451495 449:0.551724 450:0.722077 451:0.431818 452:0.160065 453:0.269231 454:0.69311 455:0.386047 456:0.0495605 457:0.447619 458:0.600083 459:0.130435 460:0.300106 461:0.142857 462:0.852187 463:0.305556 464:0.126643 465:0.221757 466:0.874754 467:0.113208 468:0.884187 469:0.58209 470:0.184477 471:0.333333 472:0.629977 473:0.40493 474:0.148407 475:0.0107527 476:0.585378 477:0.0035461 478:0.214857 481:0.0569106 482:0.0999802 483:0.0386266 484:0.590303 485:0.292969 486:0.758199 487:0.317536 488:0.0123782 489:0.24569 490:0.693258 491:0.327869 492:0.0344125 493:0.31441 494:0.414114 495:0.655963 496:0.667945 497:0.666667 499:0.311966 500:0.153433 501:0.2 502:0.470356 503:0.418103 504:0.0769366 505:0.514523 506:0.561982 507:0.140496 508:0.121592 509:0.216216 510:0.023191 511:0.269076 512:0.157977 513:0.144 514:0.114957 515:0.00983607 516:0.0384852 517:0.012931 518:0.0127141 521:0.0392157 522:0.661653 523:0.0414747 524:0.210131 525:0.0599078 526:0.741892 527:0.271186 528:0.774763 529:0.404082 530:0.109357 531:0.537634 532:0.687726 533:0.380392 534:0.0426684 535:0.450382 536:0.201421 537:0.592157 538:0.648899 539:0.456929 540:0.956102 541:0.888889 542:0.118531 543:0.698113 544:0.647404 545:0.492701 546:0.0807748 547:0.28169 548:0.134381 549:0.135531 550:0.574023 551:0.310204 552:0.11028 553:0.0101351 554:0.21957 555:0.00900901 556:0.417808 557:0.0104167 558:0.744225 561:0.0233645 562:0.938042 563:0.0439024 564:0.0895002 566:0.483783 567:0.0791667 568:0.669883 569:0.320574 570:0.787713 571:0.210744 572:0.00904341 573:0.146953 574:0.65305 575:0.185841 576:0.992552 577:0.374468 578:0.29733 579:0.241379 580:0.50668 581:0.447653 582:0.664701 583:0.233974 584:0.273817 585:0.11284 586:0.060367 587:0.109804 588:0.576197 589:0.371542 590:0.117039 591:0.00746269 592:0.742634 593:0.00865801 594:0.0623339 595:0.0136054 596:0.101381 597:0.0336134 598:0.561333 601:0.0128755 602:0.496798 604:0.497037 605:0.0387931 606:0.690662 607:0.0585366 608:0.119255 609:0.129032 610:0.731123 611:0.356436 612:0.81595 613:0.330472 614:0.056709 615:0.278986 616:0.684812 617:0.511538 618:0.0595416 619:0.336 620:0.502835 621:0.301887 622:0.636047 623:0.715953 624:0.0995309 625:0.316364 626:0.571068 627:0.393617 628:0.115302 629:0.0176056 630:0.241001 631:0.00369004 632:1 633:0.00634921 634:0.104784 635:0.056701 636:0.744953 637:0.0833333 638:0.123256 641:0.0307692 642:0.107577 643:0.0128755 644:0.745345 645:0.012987 646:0.241391 647:0.00961538 648:0.675635 649:0.0133333 650:0.444586 651:0.114833 652:0.748138 653:0.364078 654:0.798607 655:0.392857 656:0.146496 657:0.656604 658:0.680558 659:0.529915 660:0.0363559 661:0.607973 662:0.124319 663:0.748879 664:0.610761 665:0.575439 666:0.116782 667:0.0240964 668:0.771115 669:0.0237288 670:0.137905 671:0.00390625 672:0.110897 674:0.498165 676:0.491941 678:0.48755 681:0.00529101 682:0.49446 683:0.0174419 684:0.747997 685:0.00510204 686:0.121673 687:0.0217391 688:0.81833 689:0.021097 690:0.107334 691:0.00858369 692:0.562287 693:0.128028 694:0.762525 695:0.181269 696:0.844517 697:0.242424 698:0.105829 699:0.15748 700:0.338353 701:0.658228 702:0.636708 703:0.702206 704:0.122196 705:0.0131579 706:0.246067 707:0.0232558 708:0.549502 709:0.0173913 710:0.417143 712:0.493815 714:0.493181 716:0.473014 718:0.483783 721:0.0375 722:0.4414 723:0.0123457 724:0.672203 725:0.00990099 726:0.362381 727:0.0143885 728:0.744225 729:0.0103627 730:0.87241 731:0.0139373 732:0.248978 733:0.0251046 734:0.67309 735:0.186916 736:0.748093 737:0.192469 738:0.885291 739:0.202586 740:0.797696 741:0.570934 742:0.122553 743:0.00380228 744:0.746717 745:0.0131579 746:0.586298 747:0.0246914 748:1 749:0.0285714 750:0.12282 751:0.0555556 752:0.496664 754:0.497898 756:0.494261 758:0.486503 
0.0069263442947486821 1:0.171717 2:0.920624 3:0.129032 4:0.25854 5:0.0387931 6:0.444778 7:0.109005 8:0.0826555 9:0.147826 10:0.488388 11:0.439791 12:0.489678 13:0.450704 14:0.519842 15:0.240506 16:0.564689 17:0.114407 18:0.0332947 19:0.116071 20:0.870465 21:0.101523 22:0.00408705 23:0.371041 24:0.086273 25:0.211207 26:0.473713 27:0.435146 28:0.523516 29:0.34322 30:0.476948 31:0.333333 32:0.529528 33:0.131818 34:0.816284 35:0.0859729 36:0.975017 37:0.26455 38:0.967918 41:0.179348 42:0.61968 43:0.20297 44:0.0468832 45:0.186047 46:0.108761 47:0.46371 48:0.553116 49:0.464135 50:0.569903 51:0.223529 52:0.519045 53:0.205761 54:0.397689 55:0.415525 56:0.391525 57:0.576577 58:0.502841 59:0.101961 60:0.611723 61:0.282443 62:0.119829 63:0.72 64:0.573684 65:0.376471 66:0.577829 67:0.121673 68:0.470043 69:0.192157 70:0.429314 71:0.399123 72:0.369184 73:0.465035 74:0.521602 75:0.122727 76:0.268589 77:0.276498 78:0.665003 81:0.190476 82:0.1826 83:0.0980392 84:0.163878 85:0.596958 86:0.625084 87:0.182143 88:0.611741 89:0.0222222 90:0.855393 91:0.0480769 92:0.16855 93:0.00369004 94:0.749332 95:0.0273973 96:0.478278 97:0.358362 98:0.251846 99:0.515021 100:0.420352 101:0.696552 102:0.628663 103:0.1 104:0.609984 105:0.0296053 106:0.372877 107:0.0588235 108:0.596283 109:0.0318182 110:0.435128 111:0.028436 112:0.548446 113:0.461207 114:0.252626 115:0.438298 116:0.495024 117:0.176744 118:0.877529 121:0.14346 122:0.177368 123:0.353357 124:0.757915 125:0.199234 126:0.643313 127:0.0539419 128:0.114848 129:0.028777 130:0.57291 131:0.0201613 132:0.370342 133:0.0353982 134:0.620362 135:0.0223642 136:0.181358 137:0.0300429 138:0.47443 139:0.0963855 140:0.236464 141:0.154717 142:0.61694 143:0.0162602 144:0.823352 145:0.024 146:0.105109 147:0.0210084 148:0.624321 149:0.026087 150:0.104725 151:0.0163934 152:0.498379 153:0.0353982 154:0.286696 155:0.656863 156:0.25289 157:0.321267 158:0.562344 161:0.125475 162:0.191921 163:0.570342 164:0.689155 165:0.00904977 166:1 167:0.0501931 168:0.61524 169:0.00507614 170:0.498326 171:0.00704225 172:0.925587 173:0.0228311 174:0.0799764 175:0.0119522 176:0.840213 177:0.0346154 178:0.211149 179:0.0456853 180:0.624387 181:0.0120482 182:0.209925 183:0.0191571 184:0.530626 185:0.0207612 186:0.641157 187:0.0481928 188:0.063406 189:0.0290456 190:0.622463 191:0.00809717 192:0.248804 193:0.00787402 194:0.373828 195:0.301587 196:0.232823 197:0.362637 198:0.338762 201:0.114983 202:0.783569 203:0.345833 204:0.729917 205:0.0828729 206:0.646211 207:0.0541872 208:1 209:0.021875 210:0.0603997 211:0.012766 212:0.399603 214:0.491037 215:0.0133333 216:0.578419 217:0.0108696 218:1 219:0.00380228 220:0.123062 221:0.0121951 222:0.591673 223:0.0042735 224:0.497649 225:0.0444444 226:0.183256 227:0.0789474 228:0.623001 230:0.494786 231:0.0083682 232:1 233:0.0528455 234:0.167387 235:0.123134 236:0.301884 237:0.446602 238:0.272189 241:0.185455 242:0.75059 243:0.348936 244:0.740522 245:0.04 246:0.203301 247:0.0276074 248:0.564068 249:0.0396476 250:0.624442 251:0.0157233 252:0.162755 253:0.022082 254:0.619827 255:0.0251046 256:0.0963472 257:0.00362319 258:0.748931 259:0.0138249 260:0.654585 261:0.0110701 262:1 263:0.0286885 264:0.105549 265:0.0311111 266:0.620391 267:0.0052356 268:1 269:0.00775194 270:0.248951 271:0.0191388 272:0.247358 273:0.0299145 274:0.609431 275:0.1 276:0.223785 277:0.495413 278:0.22296 281:0.230453 282:0.731069 283:0.411765 284:0.821013 285:0.0189394 286:0.896617 287:0.00869565 288:0.675609 289:0.0102389 290:0.142468 291:0.00920245 292:0.65542 293:0.0322581 294:0.119614 295:0.0159236 296:0.529735 297:0.0144928 298:0.623629 299:0.0330189 300:0.0421754 301:0.015 302:0.340142 303:0.0177936 304:0.719849 305:0.00403226 306:0.2479 308:0.873565 309:0.00865801 310:0.238244 311:0.00469484 312:0.624229 313:0.0228311 314:0.154832 315:0.181818 316:0.23083 317:0.373702 318:0.196415 321:0.0904762 322:0.618128 323:0.473684 324:0.811933 325:0.0305344 326:0.837984 327:0.00471698 328:0.367721 329:0.00600601 330:0.569515 331:0.0171674 332:0.171058 333:0.0324074 334:0.623594 335:0.00344828 336:0.24169 337:0.0338164 338:0.189669 339:0.0408163 340:0.649778 341:0.0163265 342:0.27659 343:0.027668 344:0.620696 345:0.0166667 346:0.0717386 347:0.0165975 348:0.925232 350:0.499062 351:0.0340426 352:0.0554841 353:0.0218182 354:0.196126 355:0.25641 356:0.257585 357:0.438095 358:0.152435 361:0.180392 362:0.241932 363:0.600791 364:0.710603 365:0.264822 366:0.966657 367:0.033033 368:1 369:0.0224215 370:0.0940681 371:0.0190476 372:0.622778 373:0.0164609 374:1 375:0.00829876 376:0.148454 377:0.012766 378:0.491513 379:0.0235294 380:0.925899 381:0.0176471 382:1 383:0.0438596 384:0.0589124 385:0.0191388 386:0.423149 387:0.0377358 388:0.623574 389:0.038835 390:0.187731 391:0.0297398 392:0.55657 393:0.0049505 394:0.486503 395:0.389262 396:0.217096 397:0.148148 398:0.041964 401:0.148594 402:0.387753 403:0.22973 404:0.76988 405:0.304878 406:0.88121 407:0.05 408:0.883932 409:0.02 410:0.822785 411:0.0289855 412:0.0993699 413:0.015444 414:0.570376 415:0.00961538 416:0.621994 417:0.0452675 418:0.138105 419:0.0392157 420:0.601284 421:0.038674 422:0.308756 423:0.0572687 424:0.624058 425:0.0160428 426:1 427:0.038674 428:0.0587688 429:0.0207254 430:0.624214 431:0.0263158 432:0.0628959 433:0.0655738 434:0.180952 435:0.737288 436:0.131539 437:0.232877 438:0.636362 441:0.239044 442:0.209401 443:0.0990991 444:0.40094 445:0.687179 446:0.723726 447:0.408333 448:0.979003 449:0.0258621 450:0.97354 451:0.0227273 452:0.617938 453:0.034965 454:1 455:0.027907 456:0.200295 457:0.0428571 458:0.609514 459:0.00395257 460:0.874535 461:0.00985222 462:1 463:0.0119048 464:0.241391 465:0.0167364 466:0.322461 467:0.0424528 468:0.624466 469:0.0485075 470:0.113708 471:0.0288462 472:0.478731 473:0.461268 474:0.174098 475:0.103943 476:0.961543 477:0.0425532 478:0.655089 481:0.0731707 482:0.281226 483:0.128755 484:0.329774 485:0.117188 486:0.591706 487:0.521327 488:0.799014 489:0.357759 490:0.977127 491:0.0622951 492:0.0774214 493:0.0393013 494:0.627914 495:0.00917431 496:0.624085 497:0.0235294 498:0.0449533 499:0.0042735 500:0.247882 501:0.0150943 502:0.622955 503:0.0344828 504:0.0184787 505:0.00414938 506:0.611479 507:0.0371901 508:0.194657 509:0.0304054 510:0.778908 511:0.309237 512:0.154913 513:0.54 514:0.10658 515:0.2 516:0.614412 517:0.206897 518:0.680037 521:0.0313725 522:0.232671 523:0.0829493 524:0.245158 525:0.193548 526:0.260361 527:0.210169 528:0.688262 529:0.42449 530:0.866785 531:0.207885 532:0.959449 533:0.0235294 534:0.925788 535:0.0267176 536:0.127889 537:0.0235294 538:0.6065 539:0.00749064 540:0.620696 541:0.0384615 542:0.154371 543:0.0264151 544:0.709453 545:0.0109489 546:0.238304 547:0.028169 548:0.182614 549:0.124542 550:0.127064 551:0.722449 552:0.119048 553:0.216216 554:0.64816 555:0.0630631 556:0.723426 557:0.135417 558:0.616336 561:0.11215 562:0.433942 563:0.102439 564:0.0294575 565:0.127753 566:0.276776 567:0.2125 568:0.37658 569:0.464115 570:0.674677 571:0.442149 572:0.891117 573:0.290323 574:0.992095 575:0.0265487 576:0.905775 577:0.00425532 578:0.925859 579:0.0306513 580:0.0924399 581:0.0108303 582:0.441974 583:0.025641 584:0.620362 585:0.0622568 586:0.0593519 587:0.164706 588:0.103727 589:0.719368 590:0.105436 591:0.164179 592:0.582625 593:0.203463 594:0.57454 595:0.153061 596:0.661061 597:0.103641 598:0.186615 601:0.218884 602:0.220275 603:0.158654 604:0.599107 605:0.0948276 606:0.493928 607:0.146341 608:0.2477 609:0.153226 610:0.255618 611:0.39604 612:0.661079 613:0.420601 614:0.850163 615:0.373188 616:0.987659 617:0.0461538 618:0.0497336 619:0.02 620:0.663345 621:0.0113208 622:0.925362 623:0.0622568 624:0.183539 625:0.170909 626:0.0665577 627:0.617021 628:0.129772 629:0.183099 630:0.666819 631:0.154982 632:0.623753 633:0.0126984 634:0.872112 635:0.0360825 636:0.632149 637:0.205556 638:0.775139 641:0.123077 642:0.235065 643:0.124464 644:0.578301 645:0.168831 646:0.114957 647:0.149038 648:0.322594 649:0.222222 650:0.492978 651:0.15311 652:0.194377 653:0.242718 654:0.619438 655:0.416667 656:0.79965 657:0.430189 658:0.984664 659:0.0384615 660:0.0324695 661:0.0166113 662:1 663:0.488789 664:0.0738837 665:0.522807 666:0.1048 667:0.0843373 668:0.584194 669:0.254237 670:0.616891 671:0.0117188 672:0.23791 673:0.0761421 674:0.623624 675:0.0458716 676:0.439907 677:0.222222 678:0.362403 681:0.100529 682:0.572811 683:0.19186 684:0.158926 685:0.153061 686:0.57452 687:0.0543478 688:0.860204 689:0.257384 690:0.248136 691:0.133047 692:0.573942 693:0.124567 694:0.204529 695:0.0634441 696:0.665343 697:0.506494 698:0.775007 699:0.57874 700:0.997825 701:0.649789 702:0.0984034 703:0.275735 704:0.163689 705:0.151316 706:0.61335 707:0.302326 708:0.60909 709:0.0869565 710:0.0238074 711:0.0456026 712:0.588557 713:0.0486322 714:0.807976 715:0.0810811 716:0.926219 717:0.103774 718:0.0966202 721:0.525 722:0.088851 723:0.117284 724:0.861965 725:0.178218 726:0.0752822 727:0.143885 728:0.768469 729:0.202073 730:0.217861 731:0.0801394 732:0.319806 733:0.171548 734:0.439804 735:0.205607 736:0.456021 737:0.112971 738:0.419005 739:0.155172 740:0.618298 741:0.0588235 742:0.0529914 743:0.178707 744:0.520619 745:0.29386 746:0.650927 747:0.176955 748:0.0939254 749:0.1 750:0.703417 751:0.0777778 752:0.111538 753:0.231788 754:0.516084 755:0.106952 756:0.5689 757:0.0731707 758:0.358129 
