svm_type c_svc
kernel_type rbf
gamma 0.0078125
nr_class 2
total_sv 150
rho 0.91082957859990232
label 1 -1
nr_sv 64 86
SV
0.81655002793514764 1:0.0352941 2:0.129412 3:0.819608 5:0.054902 6:0.72549 7:0.129412 8:0.176471 9:0.803922 10:0.133333 11:0.145098 12:0.764706 13:0.227451 14:0.184314 15:0.826772 16:0.392157 17:0.337255 18:0.987952 19:0.254902 20:0.219608 21:0.862745 22:0.0901961 23:0.0862745 24:0.72549 25:0.0980392 26:0.145098 27:0.772549 28:0.054902 29:0.137255 30:0.760784 31:0.0117647 32:0.117647 33:0.737255 34:0.105882 35:0.207843 36:0.811765 37:0.113725 38:0.180392 39:0.768627 40:0.0980392 41:0.12549 42:0.717647 43:0.203922 44:0.176471 45:0.819608 46:0.152941 47:0.117647 48:0.733333 49:0.176471 50:0.180392 51:0.705882 52:0.160784 53:0.180392 54:0.698039 55:0.156863 56:0.160784 57:0.74902 58:0.027451 59:0.0313725 60:0.65098 61:0.027451 62:0.109804 63:0.796078 64:0.0705882 65:0.145098 66:0.792157 67:0.12549 68:0.165354 69:0.760784 70:0.113725 71:0.129412 72:0.690196 73:0.14902 74:0.121569 75:0.690196 76:0.329412 77:0.286275 78:0.858824 79:0.376471 80:0.34902 81:0.917647 82:0.156863 83:0.156863 84:0.729412 85:0.141176 86:0.184314 87:0.776471 88:0.0745098 89:0.145098 90:0.745098 91:0.0313725 92:0.117647 93:0.72549 94:0.137255 95:0.219608 96:0.811765 97:0.113725 98:0.180392 99:0.729412 100:0.0509804 101:0.0784314 102:0.622047 103:0.156863 104:0.137255 105:0.705882 106:0.14902 107:0.117647 108:0.667984 109:0.117647 110:0.121569 111:0.623529 112:0.156863 113:0.172549 114:0.688976 115:0.180392 116:0.180392 117:0.760784 118:0.188235 119:0.184314 120:0.796078 121:0.118577 122:0.192157 123:0.857708 124:0.133333 125:0.192157 126:0.802372 127:0.0980392 128:0.14902 129:0.658824 130:0.196078 131:0.219608 132:0.662745 133:0.207843 134:0.207843 135:0.623529 136:0.298039 137:0.282353 138:0.694118 139:0.407843 140:0.407843 141:0.831373 142:0.142292 143:0.160784 144:0.611765 145:0.0862745 146:0.12549 147:0.639216 148:0.137255 149:0.188235 150:0.737255 151:0.0862745 152:0.145098 153:0.717647 154:0.0705882 155:0.137255 156:0.686275 157:0.0901961 158:0.14902 159:0.631373 160:0.211765 161:0.243137 162:0.686275 163:0.367589 164:0.368627 165:0.8 166:0.277778 167:0.27451 168:0.704724 169:0.223529 170:0.219608 171:0.67451 172:0.203922 173:0.2 174:0.701961 175:0.0784314 176:0.0666667 177:0.639216 178:0.156863 179:0.141176 180:0.74902 181:0.113725 182:0.160784 183:0.764706 184:0.0745098 185:0.121569 186:0.654902 187:0.196078 188:0.247059 189:0.654902 190:0.521569 191:0.564706 192:0.878431 193:0.643137 194:0.666667 195:0.929412 196:0.686275 197:0.694118 198:0.945098 199:0.768627 200:0.776471 201:1 202:0.623529 203:0.639216 204:0.956863 205:0.333333 206:0.360784 207:0.764706 208:0.254902 209:0.294118 210:0.752941 211:0.129412 212:0.168627 213:0.654902 214:0.184314 215:0.231373 216:0.694118 217:0.388235 218:0.435294 219:0.811765 220:0.635294 221:0.670588 222:0.984314 223:0.792157 224:0.807843 225:1 226:0.686275 227:0.686275 228:0.984314 229:0.619608 230:0.623529 231:0.980392 232:0.486275 233:0.486275 234:0.909449 235:0.168627 236:0.156863 237:0.65098 238:0.121569 239:0.105882 240:0.639216 241:0.12549 242:0.168627 243:0.664 244:0.196078 245:0.243137 246:0.666667 247:0.545098 248:0.6 249:0.882353 250:0.823529 251:0.874016 252:1 253:0.905882 254:0.937255 255:1 256:0.933333 257:0.960784 258:1 259:0.909804 260:0.937255 261:1 262:0.898039 263:0.921569 264:1 265:0.733333 266:0.756863 267:1 268:0.337255 269:0.372549 270:0.686275 271:0.137255 272:0.168627 273:0.517647 274:0.439216 275:0.482353 276:0.803922 277:0.764706 278:0.807843 279:1 280:0.85098 281:0.886275 282:1 283:0.917647 284:0.937255 285:1 286:0.92549 287:0.941176 288:1 289:0.890196 290:0.917647 291:1 292:0.772549 293:0.8 294:1 295:0.462745 296:0.478431 297:0.827451 298:0.215686 299:0.227451 300:0.611765 301:0.133333 302:0.168627 303:0.574803 304:0.447059 305:0.486275 306:0.827451 307:0.843137 308:0.898039 309:1 310:0.909804 311:0.960784 312:1 313:0.92549 314:0.960784 315:0.976471 316:0.980392 317:1 318:0.996078 319:0.933333 320:0.952941 321:0.956863 322:0.929412 323:0.952941 324:0.996078 325:0.941176 326:0.960784 327:1 328:0.65098 329:0.67451 330:0.858824 331:0.509804 332:0.537255 333:0.752941 334:0.745098 335:0.772549 336:0.964706 337:0.929412 338:0.972549 339:1 340:0.913725 341:0.941176 342:1 343:0.941176 344:0.956863 345:0.976471 346:0.964706 347:0.988235 348:1 349:0.909804 350:0.94902 351:1 352:0.870588 353:0.917647 354:1 355:0.737255 356:0.776471 357:0.988235 358:0.376471 359:0.411765 360:0.658824 361:0.121569 362:0.160784 363:0.490196 364:0.615686 365:0.65098 366:0.917647 367:0.894118 368:0.929412 369:1 370:0.901961 371:0.937255 372:0.992157 373:0.94902 374:0.968627 375:0.964706 376:0.996078 377:1 378:0.972549 379:0.996078 380:1 381:0.960784 382:0.980392 383:0.988235 384:0.964706 385:0.952941 386:0.964706 387:0.996063 388:0.956863 389:0.976471 390:1 391:0.92549 392:0.941176 393:1 394:0.929412 395:0.952941 396:1 397:0.945098 398:0.972549 399:0.984314 400:0.968627 401:0.984314 402:0.964706 403:1 404:1 405:0.984314 406:0.976471 407:0.984314 408:0.96063 409:0.945098 410:1 411:0.972549 412:0.905882 413:0.980392 414:0.992157 415:0.913725 416:0.968627 417:1 418:0.501961 419:0.552941 420:0.678431 421:0.196078 422:0.211765 423:0.529412 424:0.72549 425:0.74902 426:1 427:0.858824 428:0.890196 429:1 430:0.952941 431:0.972549 432:1 433:1 434:0.996078 435:1 436:0.945098 437:0.937255 438:0.905882 439:1 440:1 441:0.948819 442:1 443:1 444:0.956863 445:1 446:1 447:0.976471 448:1 449:1 450:1 451:0.972549 452:0.972549 453:0.996078 454:0.976471 455:0.984314 456:0.988235 457:0.984314 458:0.996078 459:0.960784 460:0.988235 461:0.988235 462:0.941176 463:1 464:0.996078 465:0.960474 466:0.992157 467:0.988235 468:0.94902 469:0.960784 470:1 471:0.968627 472:0.878431 473:0.956863 474:0.937255 475:0.905882 476:0.960784 477:1 478:0.458824 479:0.509804 480:0.611765 481:0.152941 482:0.14902 483:0.515748 484:0.552941 485:0.556863 486:0.870588 487:0.882353 488:0.898039 489:1 490:0.937255 491:0.94902 492:1 493:0.984314 494:0.976471 495:1 496:1 497:0.984314 498:0.988235 499:0.956863 500:0.933333 501:0.905882 502:1 503:0.980392 504:0.937255 505:1 506:0.988235 507:0.960784 508:1 509:0.988235 510:0.976471 511:1 512:0.996078 513:1 514:1 515:0.992157 516:0.996078 517:1 518:1 519:0.972549 520:0.996078 521:0.976471 522:0.941176 523:1 524:0.996078 525:0.980392 526:1 527:0.980392 528:0.984314 529:0.968627 530:0.996078 531:1 532:0.870588 533:0.921569 534:0.976285 535:0.858824 536:0.894118 537:1 538:0.462745 539:0.498039 540:0.670588 541:0.211765 542:0.188235 543:0.623529 544:0.317647 545:0.313725 546:0.682353 547:0.678431 548:0.678431 549:0.929412 550:0.878431 551:0.890196 552:1 553:0.941176 554:0.937255 555:1 556:1 557:0.992157 558:1 559:0.996078 560:0.980392 561:0.960784 562:1 563:0.996078 564:0.960784 565:1 566:0.992157 567:0.964706 568:1 569:0.980392 570:0.968627 571:1 572:0.968627 573:0.980392 574:1 575:0.988235 576:1 577:1 578:1 579:0.984314 580:0.980392 581:0.94902 582:0.921569 583:0.996078 584:0.956863 585:0.956863 586:1 587:0.976471 588:1 589:0.909804 590:0.929412 591:1 592:0.917647 593:0.945098 594:1 595:0.568627 596:0.584314 597:0.815686 598:0.2 599:0.211765 600:0.478431 601:0.156863 602:0.137255 603:0.643137 604:0.137255 605:0.133333 606:0.564706 607:0.470588 608:0.490196 609:0.784314 610:0.862745 611:0.886275 612:1 613:0.956863 614:0.972549 615:1 616:0.960784 617:0.976471 618:0.996078 619:1 620:1 621:0.976471 622:0.992157 623:0.984314 624:0.945098 625:1 626:0.980392 627:0.968627 628:1 629:0.992157 630:1 631:1 632:0.972549 633:1 634:0.972549 635:0.941176 636:0.968627 637:1 638:0.992157 639:0.988235 640:1 641:0.984314 642:0.964706 643:1 644:0.984314 645:0.980392 646:0.952941 647:0.945098 648:0.992157 649:0.898039 650:0.905882 651:1 652:0.780392 653:0.796078 654:1 655:0.266667 656:0.270588 657:0.607843 658:0.160784 659:0.160784 660:0.521912 661:0.282353 662:0.270588 663:0.839216 664:0.262745 665:0.270588 666:0.760784 667:0.223529 668:0.254902 669:0.603922 670:0.568627 671:0.607843 672:0.843137 673:0.894118 674:0.929412 675:1 676:0.905882 677:0.937255 678:1 679:0.964706 680:0.984314 681:0.996078 682:1 683:1 684:0.988235 685:0.996078 686:0.976471 687:0.980315 688:0.996078 689:0.972549 690:0.992157 691:0.988235 692:0.956863 693:1 694:0.976471 695:0.945098 696:0.984314 697:1 698:1 699:1 700:0.996078 701:0.996078 702:0.996078 703:0.988235 704:0.992157 705:1 706:0.905882 707:0.905882 708:1 709:0.823529 710:0.827451 711:1 712:0.427451 713:0.435294 714:0.780392 715:0.172549 716:0.172549 717:0.588235 718:0.384314 719:0.384314 720:0.831373 721:0.34902 722:0.368627 723:0.968254 724:0.301961 725:0.32549 726:0.862205 727:0.054902 728:0.0980392 729:0.505882 730:0.258824 731:0.309804 732:0.615686 733:0.717647 734:0.764706 735:0.992157 736:0.878431 737:0.913725 738:1 739:0.929412 740:0.956863 741:1 742:0.937255 743:0.960784 744:0.988235 745:0.972549 746:0.984314 747:1 748:0.952941 749:0.94902 750:0.964706 751:0.980392 752:0.972549 753:0.996078 754:0.984314 755:0.984314 756:1 757:0.937255 758:0.94902 759:0.964706 760:0.894118 761:0.905882 762:0.937255 763:0.94902 764:0.952941 765:1 766:0.921569 767:0.929412 768:1 769:0.572549 770:0.592157 771:0.886275 772:0.145098 773:0.160784 774:0.560784 775:0.196078 776:0.2 777:0.666667 778:0.356863 779:0.360784 780:0.862745 781:0.160784 782:0.192157 783:0.823529 784:0.0470588 785:0.0862745 786:0.666667 787:0.0901961 788:0.137255 789:0.623529 790:0.203922 791:0.254902 792:0.662745 793:0.368627 794:0.407843 795:0.74902 796:0.670588 797:0.701961 798:0.964706 799:0.905882 800:0.929412 801:1 802:0.933333 803:0.952941 804:1 805:0.956863 806:0.972549 807:1 808:0.968627 809:0.988235 810:1 811:0.984314 812:0.996078 813:1 814:0.945098 815:0.960784 816:0.980392 817:0.937255 818:0.956863 819:0.992157 820:0.933333 821:0.952941 822:1 823:0.866667 824:0.87451 825:1 826:0.639216 827:0.647059 828:0.901961 829:0.278431 830:0.294118 831:0.666667 832:0.101961 833:0.117647 834:0.580392 835:0.176471 836:0.188235 837:0.717647 838:0.0666667 839:0.0705882 840:0.635294 841:0.0784314 842:0.12549 843:0.776471 845:0.0117647 846:0.639216 847:0.109804 848:0.160784 849:0.733333 850:0.137255 851:0.172549 852:0.698039 853:0.0705882 854:0.0862745 855:0.576471 856:0.321569 857:0.329412 858:0.752941 859:0.67451 860:0.682353 861:0.988235 862:0.886275 863:0.898039 864:1 865:0.917647 866:0.941176 867:1 868:0.952941 869:0.984314 870:1 871:0.941176 872:0.968627 873:0.980392 874:0.917647 875:0.94902 876:0.976471 877:0.952941 878:0.980392 879:1 880:0.87451 881:0.890196 882:1 883:0.588235 884:0.576471 885:0.858824 886:0.211765 887:0.2 888:0.588235 889:0.137255 890:0.14902 891:0.6 892:0.141176 893:0.160784 894:0.678431 895:0.101961 896:0.117647 897:0.701961 898:0.0117647 899:0.0235294 900:0.643137 901:0.117647 902:0.168627 903:0.803922 904:0.133333 905:0.180392 906:0.807843 907:0.0784314 908:0.117647 909:0.721569 910:0.0705882 911:0.0980392 912:0.690196 913:0.160784 914:0.164706 915:0.752941 916:0.14902 917:0.14902 918:0.682353 919:0.235294 920:0.239216 921:0.670588 922:0.564706 923:0.576471 924:0.893701 925:0.866667 926:0.898039 927:1 928:0.886275 929:0.92549 930:1 931:0.894118 932:0.941176 933:1 934:0.909804 935:0.952941 936:1 937:0.792157 938:0.831373 939:1 940:0.439216 941:0.454902 942:0.733333 943:0.215686 944:0.203922 945:0.607843 946:0.172549 947:0.160784 948:0.643137 949:0.164706 950:0.180392 951:0.698039 952:0.156863 953:0.180392 954:0.741176 955:0.0470588 956:0.0588235 957:0.678431 958:0.219608 959:0.227451 960:0.870588 961:0.0666667 962:0.117647 963:0.690196 964:0.129412 965:0.168627 966:0.74902 967:0.105882 968:0.137255 969:0.737255 970:0.0705882 971:0.0901961 972:0.698039 973:0.141176 974:0.152941 975:0.772549 976:0.145098 977:0.156863 978:0.752941 979:0.101961 980:0.113725 981:0.654902 982:0.172549 983:0.203922 984:0.678431 985:0.54902 986:0.596078 987:0.992126 988:0.654902 989:0.709804 990:1 991:0.803922 992:0.870588 993:1 994:0.662745 995:0.72549 996:1 997:0.368627 998:0.415686 999:0.792157 1000:0.14902 1001:0.184314 1002:0.619608 1003:0.0901961 1004:0.0980392 1005:0.607843 1006:0.219608 1007:0.227451 1008:0.782609 1009:0.0784314 1010:0.0941176 1011:0.67451 1012:0.0509804 1013:0.0705882 1014:0.666667 1015:0.2 1016:0.219608 1017:0.827451 1018:0.0705882 1019:0.0901961 1020:0.705882 1021:0.121569 1022:0.160784 1023:0.713725 1024:0.345098 1025:0.384314 1026:0.941176 1027:0.215686 1028:0.239216 1029:0.839216 1030:0.0745098 1031:0.0901961 1032:0.713725 1033:0.054902 1034:0.0627451 1035:0.705882 1036:0.101961 1037:0.113725 1038:0.74902 1039:0.27451 1040:0.294118 1041:0.894118 1042:0.278431 1043:0.313725 1044:0.866667 1045:0.0705882 1046:0.12549 1047:0.619608 1048:0.337255 1049:0.407843 1050:0.858824 1051:0.45098 1052:0.529412 1053:0.956863 1054:0.192157 1055:0.266667 1056:0.701961 1057:0.121569 1058:0.172549 1059:0.65098 1060:0.294118 1061:0.329412 1062:0.85098 1063:0.223529 1064:0.243137 1065:0.811024 1066:0.0352941 1067:0.054902 1068:0.65098 1069:0.0980392 1070:0.121569 1071:0.721569 1072:0.117647 1073:0.137255 1074:0.745098 1075:0.282353 1076:0.301961 1077:0.909804 1078:0.223529 1079:0.243137 1080:0.85098 1081:0.121569 1082:0.168627 1083:0.72549 1084:0.333333 1085:0.376471 1086:0.941176 1087:0.192157 1088:0.211765 1089:0.819608 1090:0.156863 1091:0.168627 1092:0.803922 1093:0.12549 1094:0.133333 1095:0.780392 1096:0.0862745 1097:0.0941176 1098:0.737255 1099:0.286275 1100:0.305882 1101:0.913725 1102:0.254902 1103:0.290196 1104:0.854902 1105:0.0509804 1106:0.105882 1107:0.615686 1108:0.129412 1109:0.196078 1110:0.666667 1111:0.180392 1112:0.25098 1113:0.694118 1114:0.0941176 1115:0.164706 1116:0.615686 1117:0.160784 1118:0.215686 1119:0.708661 1120:0.321569 1121:0.360784 1122:0.897638 1123:0.243137 1124:0.270588 1125:0.845238 1126:0.105882 1127:0.12549 1128:0.72549 1129:0.176471 1130:0.196078 1131:0.803922 1132:0.172549 1133:0.192157 1134:0.8 1135:0.25098 1136:0.270588 1137:0.878431 1138:0.223529 1139:0.243137 1140:0.85098 1141:0.113725 1142:0.160784 1143:0.717647 1144:0.156863 1145:0.196078 1146:0.772549 1147:0.105882 1148:0.12549 1149:0.733333 1150:0.243137 1151:0.254902 1152:0.890196 1153:0.25098 1154:0.254902 1155:0.913725 1156:0.0980392 1157:0.105882 1158:0.752941 1159:0.145098 1160:0.164706 1161:0.780392 1162:0.145098 1163:0.180392 1164:0.745098 1165:0.176471 1166:0.227451 1167:0.745098 1168:0.0627451 1169:0.129412 1170:0.599206 1171:0.0666667 1172:0.137255 1173:0.588235 1174:0.12549 1175:0.192157 1176:0.65098 1177:0.176471 1178:0.227451 1179:0.727273 1180:0.168627 1181:0.207843 1182:0.74902 1183:0.109804 1184:0.133333 1185:0.717647 1186:0.141176 1187:0.156863 1188:0.764706 1189:0.254902 1190:0.27451 1191:0.882353 1192:0.188235 1193:0.207843 1194:0.815686 1195:0.145098 1196:0.164706 1197:0.772549 1198:0.121569 1199:0.141176 1200:0.74902 
1.8978727593522873 1:0.839216 2:0.784314 3:0.854902 4:0.807843 5:0.768627 6:0.835294 7:0.72549 8:0.705882 9:0.764706 10:0.776471 11:0.792157 12:0.835294 13:0.690196 14:0.741176 15:0.771654 16:0.619608 17:0.701961 18:0.702811 19:0.494118 20:0.576471 21:0.584314 22:0.572549 23:0.654902 24:0.658824 25:0.631373 26:0.713725 27:0.705882 28:0.643137 29:0.705882 30:0.701961 31:0.603922 32:0.639216 33:0.65098 34:0.541176 35:0.568627 36:0.580392 37:0.513725 38:0.521569 39:0.552941 40:0.0941176 41:0.101961 42:0.133333 43:0.184314 44:0.184314 45:0.231373 46:0.654902 47:0.678431 48:0.705882 49:0.627451 50:0.694118 51:0.678431 52:0.568627 53:0.662745 54:0.623529 55:0.537255 56:0.631373 57:0.584314 58:0.545098 59:0.639216 60:0.592157 61:0.776471 62:0.74902 63:0.760784 64:0.831373 65:0.807843 66:0.827451 67:0.772549 68:0.771654 69:0.796078 70:0.72549 71:0.756863 72:0.784314 73:0.745098 74:0.807843 75:0.831373 76:0.458824 77:0.545098 78:0.564706 79:0.517647 80:0.603922 81:0.623529 82:0.678431 83:0.768627 84:0.776471 85:0.611765 86:0.694118 87:0.701961 88:0.670588 89:0.741176 90:0.745098 91:0.615686 92:0.662745 93:0.662745 94:0.592157 95:0.635294 96:0.627451 97:0.517647 98:0.54902 99:0.54902 100:0.168627 101:0.2 102:0.19685 103:0.294118 104:0.313725 105:0.317647 106:0.454902 107:0.494118 108:0.490119 109:0.533333 110:0.6 111:0.588235 112:0.588235 113:0.67451 114:0.653543 115:0.635294 116:0.72549 117:0.694118 118:0.647059 119:0.737255 120:0.705882 121:0.766798 122:0.784314 123:0.683794 124:0.839216 125:0.866667 126:0.782609 127:0.780392 128:0.819608 129:0.768627 130:0.713725 131:0.772549 132:0.756863 133:0.623529 134:0.705882 135:0.713725 136:0.372549 137:0.47451 138:0.501961 139:0.580392 140:0.678431 141:0.717647 142:0.656126 143:0.756863 144:0.796078 145:0.698039 146:0.792157 147:0.815686 148:0.709804 149:0.803922 150:0.803922 151:0.670588 152:0.74902 153:0.729412 154:0.682353 155:0.74902 156:0.705882 157:0.337255 158:0.407843 159:0.356863 161:0.0627451 163:0.391304 164:0.466667 165:0.4 166:0.607143 167:0.682353 168:0.629921 169:0.560784 170:0.635294 171:0.623529 172:0.615686 173:0.690196 174:0.701961 175:0.627451 176:0.705882 177:0.709804 178:0.603922 179:0.686275 180:0.678431 181:0.788235 182:0.839216 183:0.690196 184:0.796078 185:0.854902 186:0.733333 187:0.737255 188:0.796078 189:0.741176 190:0.721569 191:0.792157 192:0.796078 193:0.388235 194:0.466667 195:0.537255 196:0.458824 197:0.541176 198:0.662745 199:0.670588 200:0.756863 201:0.898039 202:0.580392 203:0.666667 204:0.807843 205:0.65098 206:0.733333 207:0.854902 208:0.623529 209:0.717647 210:0.796078 211:0.662745 212:0.741176 213:0.784314 214:0.615686 215:0.698039 216:0.701961 217:0.180392 218:0.266667 219:0.247059 220:0.0431373 221:0.137255 222:0.0901961 223:0.513725 224:0.611765 225:0.556863 226:0.643137 227:0.733333 228:0.701961 229:0.662745 230:0.737255 231:0.756863 232:0.666667 233:0.729412 234:0.775591 235:0.65098 236:0.717647 237:0.752941 238:0.635294 239:0.705882 240:0.733333 241:0.776471 242:0.843137 243:0.704 244:0.737255 245:0.807843 246:0.717647 247:0.717647 248:0.780392 249:0.776471 250:0.619608 251:0.677165 252:0.780392 253:0.290196 254:0.345098 255:0.54902 256:0.439216 257:0.498039 258:0.768627 259:0.611765 260:0.658824 261:0.980392 262:0.54902 263:0.603922 264:0.92549 265:0.266667 266:0.32549 267:0.611765 268:0.466667 269:0.52549 270:0.768627 271:0.67451 272:0.737255 273:0.921569 274:0.392157 275:0.466667 276:0.596078 278:0.0431373 279:0.129412 280:0.203922 281:0.294118 282:0.356863 283:0.615686 284:0.717647 285:0.764706 286:0.639216 287:0.729412 288:0.788235 289:0.623529 290:0.678431 291:0.764706 292:0.619608 293:0.666667 294:0.760784 295:0.639216 296:0.694118 297:0.768627 298:0.662745 299:0.717647 300:0.788235 301:0.772549 302:0.843137 303:0.751969 304:0.74902 305:0.815686 306:0.780392 307:0.701961 308:0.756863 309:0.831373 310:0.415686 311:0.458824 312:0.654902 313:0.301961 314:0.329412 315:0.662745 316:0.215686 317:0.239216 318:0.658824 319:0.321569 320:0.341176 321:0.819608 322:0.427451 323:0.454902 324:0.937255 325:0.0470588 326:0.0745098 327:0.52549 328:0.207843 329:0.239216 330:0.635294 331:0.466667 332:0.509804 333:0.839216 334:0.270588 335:0.329412 336:0.6 337:0.0392157 338:0.101961 339:0.333333 340:0.368627 341:0.443137 342:0.643137 343:0.529412 344:0.607843 345:0.796078 346:0.584314 347:0.647059 348:0.827451 349:0.627451 350:0.670588 351:0.81746 352:0.643137 353:0.678431 354:0.807843 355:0.588235 356:0.627451 357:0.745098 358:0.513725 359:0.556863 360:0.666667 361:0.760784 362:0.819608 363:0.803922 364:0.764706 365:0.823529 366:0.858824 367:0.564706 368:0.6 369:0.768627 370:0.278431 371:0.301961 372:0.603922 373:0.235294 374:0.247059 375:0.698039 376:0.0588235 377:0.0627451 378:0.619608 379:0.113725 380:0.109804 381:0.721569 382:0.215686 383:0.207843 384:0.835294 385:0.164706 386:0.156863 387:0.755906 388:0.0352941 389:0.0392157 390:0.588235 391:0.145098 392:0.164706 393:0.647059 394:0.278431 395:0.305882 396:0.741176 397:0.411765 398:0.439216 399:0.843137 400:0.576471 401:0.611765 402:0.996078 403:0.266667 404:0.301961 405:0.682353 406:0.215686 407:0.247059 408:0.570866 409:0.568627 410:0.584314 411:0.811765 412:0.729412 413:0.745098 414:0.905882 415:0.635294 416:0.658824 417:0.803922 418:0.439216 419:0.462745 420:0.6 421:0.72549 422:0.784314 423:0.792157 424:0.741176 425:0.796078 426:0.866667 427:0.372549 428:0.415686 429:0.611765 430:0.254902 431:0.282353 432:0.615686 433:0.133333 434:0.141176 435:0.627451 436:0.133333 437:0.129412 438:0.717647 439:0.137255 440:0.129412 441:0.779528 442:0.0666667 443:0.0588235 444:0.737255 445:0.196078 446:0.188235 447:0.839216 448:0.172549 449:0.168627 450:0.780392 451:0.2 452:0.203922 453:0.768627 454:0.258824 455:0.270588 456:0.796078 457:0.368627 458:0.376471 459:0.886275 460:0.439216 461:0.45098 462:0.952941 463:0.0784314 464:0.0901961 465:0.588933 466:0.101961 467:0.113725 468:0.541176 469:0.215686 470:0.227451 471:0.494118 472:0.627451 473:0.639216 474:0.815686 475:0.654902 476:0.670588 477:0.831373 478:0.443137 479:0.462745 480:0.615686 481:0.745098 482:0.815686 483:0.811024 484:0.65098 485:0.717647 486:0.768627 487:0.309804 488:0.372549 489:0.533597 490:0.184314 491:0.235294 492:0.52549 493:0.0745098 494:0.113725 495:0.537255 496:0.180392 497:0.207843 498:0.729412 499:0.0509804 500:0.0705882 501:0.666667 502:0.0117647 503:0.0235294 504:0.643137 505:0.0196078 506:0.027451 507:0.635294 508:0.152941 509:0.156863 510:0.752941 511:0.231373 512:0.235294 513:0.8 514:0.184314 515:0.196078 516:0.737255 517:0.12549 518:0.133333 519:0.67451 520:0.117647 521:0.12549 522:0.666667 523:0.109804 524:0.113725 525:0.670588 526:0.109804 527:0.105882 528:0.576471 529:0.12549 530:0.133333 531:0.411765 532:0.498039 533:0.509804 534:0.683794 535:0.588235 536:0.603922 537:0.764706 538:0.372549 539:0.392157 540:0.545098 541:0.690196 542:0.756863 543:0.745098 544:0.556863 545:0.623529 546:0.658824 547:0.345098 548:0.411765 549:0.541176 550:0.537255 551:0.6 552:0.831373 553:0.0784314 554:0.133333 555:0.482353 556:0.0745098 557:0.121569 558:0.560784 559:0.0666667 560:0.105882 561:0.619608 562:0.0235294 563:0.0627451 564:0.603922 566:0.0235294 567:0.584314 568:0.0784314 569:0.0941176 570:0.65098 571:0.121569 572:0.133333 573:0.67451 574:0.0901961 575:0.101961 576:0.629921 577:0.0627451 578:0.0627451 579:0.603922 580:0.0627451 581:0.0588235 582:0.607843 583:0.0470588 584:0.0352941 585:0.603922 586:0.0431373 587:0.0352941 588:0.505882 589:0.0470588 590:0.0470588 591:0.321569 592:0.478431 593:0.494118 594:0.654902 595:0.494118 596:0.517647 597:0.662745 598:0.411765 599:0.435294 600:0.572549 601:0.717647 602:0.776471 603:0.760784 604:0.372549 605:0.435294 606:0.458824 607:0.498039 608:0.568627 609:0.658824 610:0.643137 611:0.717647 612:0.886275 613:0.0470588 614:0.121569 615:0.388235 616:0.0313725 617:0.101961 618:0.45098 619:0.00784314 620:0.0705882 621:0.486275 622:0.0235294 623:0.0745098 624:0.529412 625:0.00784314 626:0.0392157 627:0.52549 628:0.0235294 629:0.0470588 630:0.545098 631:0.0313725 632:0.0431373 633:0.545098 634:0.027451 635:0.0313725 636:0.533333 637:0.0352941 638:0.0313725 639:0.533333 640:0.0470588 641:0.027451 642:0.541176 643:0.0235294 644:0.0117647 645:0.533333 646:0.0156863 647:0.0156863 648:0.439216 649:0.0980392 650:0.101961 651:0.338583 652:0.521569 653:0.537255 654:0.67451 655:0.368627 656:0.388235 657:0.509804 658:0.462745 659:0.486275 660:0.593625 661:0.521569 662:0.568627 663:0.568627 664:0.32549 665:0.380392 666:0.403922 667:0.67451 668:0.737255 669:0.803922 670:0.584314 671:0.658824 672:0.788235 673:0.168627 674:0.254902 675:0.458824 676:0.00392157 677:0.0901961 678:0.368627 679:0.0117647 680:0.0862745 681:0.427451 683:0.0392157 684:0.439216 685:0.00784314 686:0.0392157 687:0.480315 688:0.00392157 689:0.0196078 690:0.482353 691:0.0156863 692:0.0117647 693:0.482353 694:0.027451 695:0.0196078 696:0.490196 697:0.0431373 698:0.0313725 699:0.486275 700:0.0392157 701:0.027451 702:0.478431 703:0.027451 704:0.0196078 705:0.462745 706:0.0352941 707:0.0392157 708:0.392157 709:0.286275 710:0.309804 711:0.494118 712:0.584314 713:0.611765 714:0.709804 715:0.27451 716:0.305882 717:0.396078 718:0.509804 719:0.545098 720:0.623529 721:0.207843 722:0.239216 723:0.257937 724:0.52549 725:0.568627 726:0.598425 727:0.698039 728:0.756863 729:0.819608 730:0.65098 731:0.72549 732:0.831373 733:0.431373 734:0.505882 735:0.67451 736:0.0196078 737:0.0980392 738:0.32549 739:0.0588235 740:0.121569 741:0.423529 743:0.00784314 744:0.376471 745:0.00784314 746:0.0196078 747:0.443137 748:0.00784314 749:0.00784314 750:0.454902 751:0.027451 752:0.00784314 753:0.458824 754:0.0470588 755:0.0196078 756:0.454902 757:0.0470588 758:0.0196078 759:0.427451 760:0.0235294 761:0.0117647 762:0.372549 763:0.0156863 764:0.0196078 765:0.326693 766:0.027451 767:0.0470588 768:0.286275 769:0.356863 770:0.396078 771:0.513725 772:0.513725 773:0.556863 774:0.611765 775:0.262745 776:0.309804 777:0.349206 778:0.560784 779:0.607843 780:0.647059 781:0.34902 782:0.360784 783:0.392157 784:0.717647 785:0.74902 786:0.776471 787:0.662745 788:0.709804 789:0.756863 790:0.662745 791:0.729412 792:0.803922 793:0.517647 794:0.596078 795:0.717647 796:0.235294 797:0.313725 798:0.498039 800:0.0588235 801:0.321569 803:0.0156863 804:0.345098 805:0.00784314 806:0.0156863 807:0.407843 808:0.0313725 809:0.0156863 810:0.431373 811:0.054902 812:0.0235294 813:0.443137 814:0.054902 815:0.0235294 816:0.415686 817:0.0509804 818:0.027451 819:0.34902 820:0.0313725 821:0.027451 822:0.277778 823:0.0156863 824:0.0431373 825:0.235294 826:0.027451 827:0.0705882 828:0.196078 829:0.227451 830:0.278431 831:0.333333 832:0.313725 833:0.368627 834:0.392157 835:0.345098 836:0.403922 837:0.415686 838:0.592157 839:0.65098 840:0.658824 841:0.686275 842:0.701961 843:0.705882 844:0.764706 845:0.796078 846:0.796078 847:0.690196 848:0.741176 849:0.74902 850:0.592157 851:0.666667 852:0.694118 853:0.537255 854:0.623529 855:0.694118 856:0.521569 857:0.6 858:0.737255 859:0.101961 860:0.160784 861:0.380392 862:0.0156863 863:0.0509804 864:0.341176 865:0.00784314 866:0.0117647 867:0.364706 868:0.0313725 869:0.0156863 870:0.389764 871:0.0509804 872:0.0196078 873:0.392157 874:0.0509804 875:0.027451 876:0.34902 877:0.0705882 878:0.0627451 879:0.294118 880:0.0823529 881:0.105882 882:0.243137 883:0.0823529 884:0.133333 885:0.188235 886:0.0666667 887:0.137255 888:0.141176 889:0.137255 890:0.2 891:0.196078 892:0.192157 893:0.258824 894:0.247059 895:0.54902 896:0.615686 897:0.6 898:0.615686 899:0.682353 900:0.666667 901:0.752941 902:0.772549 903:0.764706 904:0.760784 905:0.796078 906:0.784314 907:0.74902 908:0.8 909:0.792157 910:0.635294 911:0.705882 912:0.709804 913:0.670588 914:0.752941 915:0.784314 916:0.639216 917:0.709804 918:0.8 919:0.419608 920:0.478431 921:0.631373 922:0.0627451 923:0.101961 924:0.311024 926:0.0117647 927:0.278431 928:0.0156863 929:0.0117647 930:0.294118 931:0.0156863 932:0.00784314 933:0.282353 934:0.0235294 935:0.027451 936:0.254902 937:0.0705882 938:0.0941176 939:0.239216 940:0.12549 941:0.176471 942:0.239216 943:0.133333 944:0.207843 945:0.196078 946:0.105882 947:0.192157 948:0.145098 949:0.180392 950:0.25098 951:0.223529 952:0.215686 953:0.282353 954:0.266667 955:0.752941 956:0.823529 957:0.796078 958:0.654902 959:0.72549 960:0.698039 961:0.745098 962:0.792157 963:0.768627 964:0.694118 965:0.737255 966:0.72549 967:0.756863 968:0.807843 969:0.8 970:0.701961 971:0.752941 972:0.760784 973:0.717647 974:0.772549 975:0.796078 976:0.654902 977:0.709804 978:0.756863 979:0.501961 980:0.556863 981:0.631373 982:0.145098 983:0.188235 984:0.294118 985:0.0117647 986:0.0509804 987:0.165354 989:0.00392157 990:0.133333 991:0.0392157 992:0.0784314 993:0.196078 994:0.0588235 995:0.105882 996:0.2 997:0.054902 998:0.113725 999:0.176471 1000:0.0470588 1001:0.117647 1002:0.145098 1003:0.0627451 1004:0.145098 1005:0.137255 1006:0.219608 1007:0.305882 1008:0.280632 1009:0.176471 1010:0.25098 1011:0.239216 1012:0.368627 1013:0.443137 1014:0.431373 1015:0.6 1016:0.67451 1017:0.662745 1018:0.67451 1019:0.74902 1020:0.737255 1021:0.721569 1022:0.776471 1023:0.752941 1024:0.682353 1025:0.737255 1026:0.721569 1027:0.733333 1028:0.784314 1029:0.776471 1030:0.686275 1031:0.733333 1032:0.741176 1033:0.701961 1034:0.74902 1035:0.764706 1036:0.666667 1037:0.709804 1038:0.741176 1039:0.478431 1040:0.52549 1041:0.564706 1042:0.0901961 1043:0.137255 1044:0.184314 1047:0.0392157 1048:0.0431373 1049:0.0980392 1050:0.145098 1051:0.188235 1052:0.254902 1053:0.290196 1054:0.172549 1055:0.243137 1056:0.270588 1057:0.152941 1058:0.231373 1059:0.25098 1060:0.172549 1061:0.254902 1062:0.258824 1063:0.137255 1064:0.219608 1065:0.220472 1066:0.188235 1067:0.27451 1068:0.266667 1069:0.0980392 1070:0.168627 1071:0.164706 1072:0.360784 1073:0.431373 1074:0.427451 1075:0.6 1076:0.670588 1077:0.666667 1078:0.67451 1079:0.745098 1080:0.741176 1081:0.694118 1082:0.74902 1083:0.72549 1084:0.670588 1085:0.72549 1086:0.709804 1087:0.701961 1088:0.752941 1089:0.745098 1090:0.658824 1091:0.705882 1092:0.713725 1093:0.662745 1094:0.709804 1095:0.72549 1096:0.670588 1097:0.713725 1098:0.745098 1099:0.439216 1100:0.486275 1101:0.52549 1102:0.00784314 1103:0.054902 1104:0.0941176 1106:0.0117647 1107:0.0588235 1108:0.235294 1109:0.290196 1110:0.337255 1111:0.447059 1112:0.513725 1113:0.54902 1114:0.360784 1115:0.431373 1116:0.458824 1117:0.313725 1118:0.392157 1119:0.409449 1120:0.368627 1121:0.45098 1122:0.452756 1123:0.282353 1124:0.364706 1125:0.361111 1126:0.211765 1127:0.298039 1128:0.290196 1129:0.137255 1130:0.207843 1131:0.203922 1132:0.454902 1133:0.52549 1134:0.521569 1135:0.619608 1136:0.690196 1137:0.686275 1138:0.631373 1139:0.701961 1140:0.698039 1141:0.658824 1142:0.713725 1143:0.690196 1144:0.666667 1145:0.721569 1146:0.705882 1147:0.682353 1148:0.733333 1149:0.72549 1150:0.643137 1151:0.690196 1152:0.698039 1153:0.635294 1154:0.682353 1155:0.698039 1156:0.682353 1157:0.729412 1158:0.752941 1159:0.423529 1160:0.470588 1161:0.509804 1163:0.0117647 1164:0.0509804 1165:0.027451 1166:0.0823529 1167:0.129412 1168:0.4 1169:0.458824 1170:0.488095 1171:0.615686 1172:0.682353 1173:0.717647 1174:0.470588 1175:0.545098 1176:0.564706 1177:0.407843 1178:0.486275 1179:0.501976 1180:0.486275 1181:0.568627 1182:0.572549 1183:0.396078 1184:0.478431 1185:0.482353 1186:0.270588 1187:0.356863 1188:0.34902 1189:0.227451 1190:0.298039 1191:0.294118 1192:0.572549 1193:0.643137 1194:0.639216 1195:0.639216 1196:0.709804 1197:0.705882 1198:0.576471 1199:0.647059 1200:0.643137 
1.0078178192772644 1:0.0627451 3:0.74902 4:0.0235294 6:0.639216 8:0.027451 9:0.447059 11:0.0588235 12:0.360784 14:0.0431373 15:0.346457 18:0.281124 21:0.294118 22:0.00784314 24:0.298039 27:0.203922 30:0.192157 33:0.203922 34:0.00784314 36:0.286275 37:0.0470588 38:0.0156863 39:0.435294 40:0.0784314 41:0.0352941 42:0.584314 43:0.164706 44:0.101961 45:0.776471 46:0.270588 47:0.223529 48:0.921569 49:0.337255 50:0.32549 51:0.937255 52:0.113725 53:0.121569 54:0.701961 55:0.00392157 57:0.6 58:0.0117647 60:0.615686 61:0.121569 62:0.0588235 63:0.807843 64:0.0470588 65:0.0196078 66:0.666667 69:0.45098 72:0.352941 75:0.360784 78:0.384314 81:0.403922 84:0.364706 85:0.0431373 87:0.337255 88:0.0235294 90:0.282353 93:0.25098 96:0.286275 97:0.0117647 99:0.4 100:0.0352941 101:0.0156863 102:0.519685 103:0.101961 104:0.0627451 105:0.690196 106:0.188235 107:0.152941 108:0.818182 109:0.164706 110:0.160784 111:0.780392 112:0.0117647 113:0.0196078 114:0.622047 115:0.00392157 117:0.623529 118:0.0823529 119:0.0627451 120:0.701961 121:0.288538 122:0.239216 123:0.976285 124:0.152941 125:0.133333 126:0.794466 127:0.0313725 128:0.0588235 129:0.580392 131:0.0156863 132:0.490196 133:0.0117647 134:0.0313725 135:0.537255 136:0.133333 137:0.121569 138:0.670588 139:0.196078 140:0.145098 141:0.741176 142:0.130435 143:0.0745098 144:0.654902 145:0.101961 146:0.0431373 147:0.545098 148:0.0627451 149:0.0196078 150:0.45098 151:0.0117647 153:0.352941 156:0.321569 159:0.34902 162:0.423529 163:0.0118577 164:0.0235294 165:0.54902 166:0.047619 167:0.0627451 168:0.65748 170:0.0117647 171:0.635294 174:0.615686 175:0.0156863 176:0.0156863 177:0.67451 178:0.0941176 179:0.0901961 180:0.756863 181:0.27451 182:0.235294 183:0.956863 184:0.12549 185:0.109804 186:0.788235 187:0.0352941 188:0.0470588 189:0.643137 191:0.027451 192:0.603922 193:0.0470588 194:0.0470588 195:0.67451 196:0.207843 197:0.184314 198:0.854902 199:0.290196 200:0.239216 201:0.952941 202:0.219608 203:0.145098 204:0.847059 205:0.141176 206:0.0745098 207:0.713725 208:0.0941176 209:0.0470588 210:0.603922 211:0.0470588 212:0.0235294 213:0.482353 216:0.392157 219:0.345098 222:0.372549 225:0.470588 228:0.541176 231:0.6 232:0.0235294 233:0.0392157 234:0.712598 235:0.0470588 236:0.0509804 237:0.733333 238:0.0196078 239:0.0196078 240:0.694118 241:0.105882 242:0.0823529 243:0.78 244:0.00784314 246:0.678431 249:0.647059 250:0.00784314 251:0.00787402 252:0.694118 253:0.054902 254:0.0431373 255:0.772549 256:0.180392 257:0.160784 258:0.917647 259:0.258824 260:0.219608 261:0.988235 262:0.2 263:0.14902 264:0.901961 265:0.172549 266:0.117647 267:0.843137 268:0.121569 269:0.0823529 270:0.737255 271:0.0745098 272:0.0470588 273:0.615686 276:0.482353 279:0.380392 281:0.00784314 282:0.415686 284:0.027451 285:0.501961 288:0.529412 289:0.027451 290:0.0431373 291:0.690196 292:0.207843 293:0.219608 294:0.905882 295:0.172549 296:0.176471 297:0.858824 299:0.00392157 300:0.666667 301:0.0470588 302:0.0313725 303:0.677165 306:0.639216 309:0.686275 310:0.0470588 311:0.0313725 312:0.772549 313:0.0862745 314:0.0745098 315:0.854902 316:0.188235 317:0.176471 318:0.956863 319:0.262745 320:0.258824 321:1 322:0.266667 323:0.25098 324:0.992157 325:0.235294 326:0.207843 327:0.94902 328:0.160784 329:0.12549 330:0.835294 331:0.0862745 332:0.0509804 333:0.717647 334:0.0156863 336:0.588235 338:0.0117647 339:0.501961 340:0.101961 341:0.12549 342:0.592157 343:0.145098 344:0.164706 345:0.670588 346:0.0509804 347:0.0627451 348:0.631373 349:0.0666667 350:0.0666667 351:0.730159 352:0.254902 353:0.254902 354:0.952941 355:0.207843 356:0.207843 357:0.87451 358:0.00784314 359:0.0156863 360:0.658824 361:0.0156863 362:0.0117647 363:0.560784 366:0.588235 367:0.00784314 369:0.678431 370:0.0509804 371:0.0313725 372:0.780392 373:0.113725 374:0.109804 375:0.878431 376:0.203922 377:0.219608 378:0.960784 379:0.298039 380:0.337255 381:1 382:0.360784 383:0.396078 384:1 385:0.321569 386:0.333333 387:1 388:0.211765 389:0.196078 390:0.913725 391:0.121569 392:0.0784314 393:0.807843 394:0.0705882 395:0.0313725 396:0.721569 397:0.14902 398:0.129412 399:0.729412 400:0.341176 401:0.329412 402:0.898039 403:0.392157 404:0.376471 405:0.960784 406:0.223529 407:0.207843 408:0.830709 409:0.054902 410:0.0470588 411:0.729412 412:0.117647 413:0.109804 414:0.792157 415:0.0705882 416:0.0666667 417:0.705882 420:0.576471 423:0.435294 424:0.0117647 425:0.0117647 426:0.521569 427:0.0352941 428:0.0117647 429:0.658824 430:0.0862745 431:0.0588235 432:0.792157 433:0.168627 434:0.164706 435:0.921569 436:0.254902 437:0.282353 438:0.992157 439:0.333333 440:0.4 441:1 442:0.419608 443:0.486275 444:1 445:0.388235 446:0.423529 447:1 448:0.254902 449:0.254902 450:0.952941 451:0.152941 452:0.113725 453:0.858824 454:0.145098 455:0.0941176 456:0.823529 457:0.290196 458:0.25098 459:0.901961 460:0.545098 461:0.517647 462:1 463:0.580392 464:0.54902 465:1 466:0.364706 467:0.333333 468:0.988235 469:0.160784 470:0.137255 471:0.831373 472:0.0588235 473:0.0392157 474:0.72549 477:0.603922 480:0.572549 482:0.00784314 483:0.314961 486:0.376471 487:0.0784314 488:0.054902 489:0.628458 490:0.145098 491:0.117647 492:0.803922 493:0.180392 494:0.172549 495:0.894118 496:0.298039 497:0.321569 498:1 499:0.388235 500:0.454902 501:1 502:0.431373 503:0.509804 504:1 505:0.396078 506:0.447059 507:1 508:0.286275 509:0.301961 510:0.94902 511:0.188235 512:0.160784 513:0.870588 514:0.188235 515:0.145098 516:0.85098 517:0.305882 518:0.270588 519:0.913725 520:0.454902 521:0.419608 522:1 523:0.466667 524:0.423529 525:1 526:0.360784 527:0.317647 528:0.984314 529:0.207843 530:0.168627 531:0.890196 532:0.0901961 533:0.0666667 534:0.758893 535:0.0117647 536:0.0117647 537:0.615686 540:0.54902 543:0.227451 546:0.301961 547:0.0784314 548:0.054902 549:0.568627 550:0.145098 551:0.113725 552:0.745098 553:0.188235 554:0.164706 555:0.866667 556:0.298039 557:0.309804 558:0.996078 559:0.376471 560:0.431373 561:1 562:0.419608 563:0.486275 564:1 565:0.423529 566:0.478431 567:1 568:0.317647 569:0.345098 570:0.929412 571:0.254902 572:0.243137 573:0.882353 574:0.286275 575:0.258824 576:0.901575 577:0.376471 578:0.356863 579:0.956863 580:0.458824 581:0.427451 582:1 583:0.447059 584:0.403922 585:1 586:0.360784 587:0.309804 588:0.996078 589:0.235294 590:0.2 591:0.933333 592:0.109804 593:0.0941176 594:0.796078 595:0.0117647 596:0.0156863 597:0.611765 600:0.521569 603:0.203922 606:0.27451 607:0.0745098 608:0.0431373 609:0.501961 610:0.113725 611:0.0784314 612:0.666667 613:0.160784 614:0.121569 615:0.811765 616:0.278431 617:0.262745 618:0.964706 619:0.364706 620:0.384314 621:1 622:0.415686 623:0.458824 624:1 625:0.458824 626:0.505882 627:1 628:0.380392 629:0.415686 630:0.937255 631:0.368627 632:0.380392 633:0.921569 634:0.423529 635:0.431373 636:0.972549 637:0.47451 638:0.47451 639:1 640:0.47451 641:0.466667 642:1 643:0.431373 644:0.4 645:1 646:0.356863 647:0.309804 648:1 649:0.223529 650:0.180392 651:0.933071 652:0.12549 653:0.105882 654:0.823529 655:0.0235294 656:0.027451 657:0.615686 660:0.494024 661:0.0117647 662:0.0117647 663:0.223529 664:0.00392157 666:0.270588 667:0.0470588 668:0.027451 669:0.439216 670:0.054902 671:0.0235294 672:0.560784 673:0.105882 674:0.0627451 675:0.729412 676:0.231373 677:0.2 678:0.894118 679:0.333333 680:0.329412 681:0.972549 682:0.415686 683:0.439216 684:1 685:0.470588 686:0.505882 687:1 688:0.443137 689:0.482353 690:0.968627 691:0.462745 692:0.494118 693:0.980392 694:0.505882 695:0.529412 696:1 697:0.509804 698:0.52549 699:1 700:0.47451 701:0.47451 702:1 703:0.4 704:0.376471 705:1 706:0.317647 707:0.27451 708:0.980392 709:0.145098 710:0.105882 711:0.85098 712:0.105882 713:0.0823529 714:0.776471 715:0.027451 716:0.0392157 717:0.584314 720:0.462745 721:0.0156863 723:0.22619 724:0.00392157 726:0.26378 727:0.0235294 728:0.00784314 729:0.380392 730:0.0235294 732:0.478431 733:0.0745098 734:0.027451 735:0.654902 736:0.184314 737:0.141176 738:0.831373 739:0.286275 740:0.266667 741:0.929412 742:0.407843 743:0.415686 744:1 745:0.466667 746:0.490196 747:1 748:0.478431 749:0.517647 750:1 751:0.505882 752:0.533333 753:1 754:0.494118 755:0.513725 756:1 757:0.454902 758:0.470588 759:1 760:0.415686 761:0.423529 762:1 763:0.32549 764:0.317647 765:0.996016 766:0.219608 767:0.192157 768:0.901961 769:0.105882 770:0.0588235 771:0.772549 772:0.0784314 773:0.054902 774:0.686275 775:0.0117647 776:0.027451 777:0.488095 780:0.372549 783:0.203922 786:0.235294 787:0.00392157 789:0.317647 792:0.415686 793:0.0588235 794:0.0156863 795:0.603922 796:0.141176 797:0.0980392 798:0.764706 799:0.235294 800:0.2 801:0.882353 802:0.388235 803:0.376471 804:1 805:0.462745 806:0.478431 807:1 808:0.466667 809:0.490196 810:1 811:0.458824 812:0.47451 813:1 814:0.407843 815:0.411765 816:1 817:0.341176 818:0.352941 819:0.976471 820:0.317647 821:0.317647 822:0.984127 823:0.227451 824:0.235294 825:0.933333 826:0.129412 827:0.117647 828:0.819608 829:0.113725 830:0.0705882 831:0.737255 832:0.0705882 833:0.0352941 834:0.6 836:0.00392157 837:0.388235 840:0.27451 843:0.188235 846:0.207843 848:0.00784314 849:0.262745 852:0.34902 853:0.0313725 854:0.00392157 855:0.541176 856:0.0901961 857:0.0509804 858:0.701961 859:0.188235 860:0.14902 861:0.831373 862:0.380392 863:0.34902 864:1 865:0.403922 866:0.4 867:1 868:0.356863 869:0.352941 870:0.964567 871:0.313725 872:0.294118 873:0.956863 874:0.247059 875:0.231373 876:0.933333 877:0.188235 878:0.172549 879:0.913725 880:0.152941 881:0.156863 882:0.894118 883:0.0980392 884:0.121569 885:0.839216 886:0.0470588 887:0.054902 888:0.729412 889:0.0901961 890:0.0431373 891:0.647059 892:0.0392157 894:0.470588 897:0.27451 900:0.180392 901:0.0156863 902:0.0509804 903:0.219608 905:0.0313725 906:0.227451 908:0.0117647 909:0.262745 912:0.329412 913:0.00392157 915:0.486275 916:0.0588235 917:0.027451 918:0.631373 919:0.168627 920:0.12549 921:0.792157 922:0.396078 923:0.345098 924:1 925:0.32549 926:0.298039 927:0.941176 928:0.231373 929:0.207843 930:0.839216 931:0.160784 932:0.12549 933:0.792157 934:0.129412 935:0.0941176 936:0.776471 937:0.0862745 938:0.0588235 939:0.745098 940:0.0509804 941:0.0509804 942:0.709804 943:0.027451 944:0.0470588 945:0.662745 946:0.0235294 947:0.0352941 948:0.580392 949:0.0392157 950:0.00392157 951:0.47451 952:0.00392157 954:0.317647 957:0.184314 960:0.12549 962:0.0392157 963:0.192157 964:0.0117647 965:0.0666667 966:0.27451 967:0.00784314 968:0.0196078 969:0.352941 970:0.0313725 971:0.0235294 972:0.439216 975:0.435294 976:0.0235294 978:0.52549 979:0.129412 980:0.0745098 981:0.694118 982:0.254902 983:0.188235 984:0.843137 985:0.192157 986:0.129412 987:0.759843 988:0.133333 989:0.0823529 990:0.678431 991:0.0980392 992:0.054902 993:0.603922 994:0.0588235 995:0.027451 996:0.537255 997:0.0392157 998:0.0235294 999:0.490196 1000:0.0196078 1001:0.0196078 1002:0.443137 1005:0.360784 1008:0.304348 1009:0.00392157 1011:0.262745 1014:0.176471 1017:0.129412 1020:0.121569 1022:0.0588235 1023:0.25098 1025:0.0196078 1026:0.270588 1029:0.364706 1030:0.0117647 1032:0.439216 1035:0.403922 1036:0.0509804 1037:0.0392157 1038:0.494118 1039:0.0941176 1040:0.0509804 1041:0.6 1042:0.129412 1043:0.0745098 1044:0.654902 1045:0.0901961 1046:0.0313725 1047:0.6 1048:0.0509804 1050:0.517647 1051:0.0235294 1053:0.439216 1056:0.364706 1059:0.32549 1062:0.298039 1065:0.251969 1066:0.00392157 1067:0.00784314 1068:0.227451 1069:0.027451 1070:0.0235294 1071:0.196078 1074:0.12549 1077:0.101961 1080:0.113725 1081:0.0117647 1082:0.0470588 1083:0.313725 1085:0.00784314 1086:0.32549 1087:0.0941176 1088:0.0862745 1089:0.501961 1090:0.0862745 1091:0.0745098 1092:0.505882 1095:0.360784 1096:0.0196078 1097:0.0235294 1098:0.407843 1099:0.027451 1100:0.0117647 1101:0.454902 1102:0.0235294 1104:0.466667 1105:0.0235294 1107:0.435294 1110:0.388235 1113:0.337255 1116:0.294118 1119:0.279528 1122:0.287402 1125:0.269841 1126:0.0313725 1127:0.027451 1128:0.270588 1129:0.0392157 1130:0.0313725 1131:0.211765 1133:0.00392157 1134:0.137255 1137:0.117647 1138:0.00784314 1139:0.00392157 1140:0.129412 1142:0.00784314 1143:0.309804 1144:0.0156863 1145:0.0235294 1146:0.368627 1147:0.25098 1148:0.239216 1149:0.670588 1150:0.192157 1151:0.180392 1152:0.611765 1155:0.337255 1158:0.341176 1161:0.384314 1164:0.392157 1167:0.360784 1170:0.309524 1173:0.305882 1176:0.282353 1179:0.272727 1182:0.290196 1185:0.278431 1186:0.0196078 1187:0.0117647 1188:0.270588 1189:0.0470588 1190:0.0392157 1191:0.219608 1192:0.0117647 1193:0.0156863 1194:0.14902 1195:0.0117647 1196:0.00784314 1197:0.141176 1198:0.027451 1199:0.0235294 1200:0.14902 
1.6268117409815326 1:0.733333 2:0.8 3:1 4:0.678431 5:0.772549 6:1 7:0.8 8:0.945098 9:1 10:0.756863 11:0.929412 12:0.901961 13:0.807843 14:0.980392 15:0.889764 16:0.811765 17:0.960784 18:0.871486 19:0.843137 20:0.941176 21:0.92549 22:0.87451 23:0.937255 24:0.960784 25:0.929412 26:0.964706 27:0.980392 28:0.917647 29:0.94902 30:0.945098 31:0.921569 32:0.964706 33:0.92549 34:0.839216 35:0.905882 36:0.85098 37:0.886275 38:0.968627 39:0.937255 40:0.866667 41:0.972549 42:0.960784 43:0.862745 44:0.976471 45:0.996078 46:0.85098 47:0.956863 48:0.996078 49:0.866667 50:0.941176 51:0.992157 52:0.890196 53:0.952941 54:1 55:0.698039 56:0.772549 57:0.792157 58:0.901961 59:0.976471 60:0.988235 61:0.345098 62:0.368627 63:0.835294 64:0.223529 65:0.282353 66:0.647059 67:0.466667 68:0.590551 69:0.760784 70:0.827451 71:0.988235 72:1 73:0.776471 74:0.933333 75:0.92549 76:0.858824 77:0.992157 78:0.992157 79:0.854902 80:0.941176 81:1 82:0.882353 83:0.937255 84:1 85:0.823529 86:0.87451 87:0.929412 88:0.87451 89:0.921569 90:0.945098 91:0.933333 92:0.988235 93:0.980392 94:0.913725 95:0.984314 96:0.980392 97:0.854902 98:0.933333 99:0.976471 100:0.866667 101:0.964706 102:1 103:0.843137 104:0.956863 105:1 106:0.815686 107:0.929412 108:0.98419 109:0.858824 110:0.945098 111:0.992157 112:0.890196 113:0.964706 114:0.992126 115:0.705882 116:0.780392 117:0.792157 118:0.898039 119:0.984314 120:0.976471 121:0.142292 122:0.0980392 123:0.810277 124:0.113725 125:0.105882 126:0.687747 127:0.309804 128:0.392157 129:0.713725 130:0.72549 131:0.854902 132:1 133:0.764706 134:0.898039 135:1 136:0.792157 137:0.898039 138:1 139:0.686275 140:0.74902 141:1 142:0.758893 143:0.811765 144:1 145:0.886275 146:0.960784 147:1 148:0.843137 149:0.929412 150:1 151:0.839216 152:0.929412 153:0.992157 154:0.882353 155:0.964706 156:1 157:0.752941 158:0.819608 159:1 160:0.741176 161:0.823529 162:1 163:0.743083 164:0.862745 165:1 166:0.845238 167:0.976471 168:1 169:0.858824 170:0.956863 171:0.996078 172:0.901961 173:0.992157 174:1 175:0.713725 176:0.803922 177:0.788235 178:0.894118 179:1 180:0.964706 181:0.109804 182:0.0352941 183:0.831373 184:0.14902 185:0.121569 186:0.776471 187:0.427451 188:0.501961 189:0.882353 190:0.705882 191:0.827451 192:1 193:0.745098 194:0.858824 195:1 196:0.454902 197:0.537255 198:0.870588 199:0.282353 200:0.333333 201:0.764706 202:0.298039 203:0.34902 204:0.764706 205:0.588235 206:0.670588 207:0.937255 208:0.768627 209:0.866667 210:1 211:0.8 212:0.894118 213:1 214:0.619608 215:0.701961 216:0.968627 217:0.345098 218:0.384314 219:0.780392 220:0.262745 221:0.317647 222:0.717647 223:0.419608 224:0.517647 225:0.807843 226:0.752941 227:0.866667 228:1 229:0.847059 230:0.945098 231:1 232:0.917647 233:1 234:1 235:0.721569 236:0.819608 237:0.803922 238:0.898039 239:1 240:0.976471 241:0.137255 242:0.0941176 243:0.796 244:0.184314 245:0.192157 246:0.772549 247:0.603922 248:0.705882 249:1 250:0.760784 251:0.893701 252:1 253:0.494118 254:0.596078 255:0.964706 256:0.0823529 257:0.152941 258:0.635294 259:0.0823529 260:0.109804 261:0.72549 262:0.0392157 263:0.0784314 264:0.682353 265:0.129412 266:0.207843 267:0.666667 268:0.584314 269:0.682353 270:1 271:0.662745 272:0.741176 273:1 274:0.239216 275:0.294118 276:0.803922 277:0.0470588 278:0.0588235 279:0.694118 280:0.0313725 281:0.0431373 282:0.678431 283:0.145098 284:0.196078 285:0.713725 286:0.356863 287:0.431373 288:0.788235 289:0.815686 290:0.894118 291:1 292:0.905882 293:0.992157 294:1 295:0.709804 296:0.807843 297:0.823529 298:0.882353 299:0.984314 300:0.984314 301:0.12549 302:0.137255 303:0.661417 304:0.470588 305:0.521569 306:0.952941 307:0.752941 308:0.87451 309:1 310:0.686275 311:0.827451 312:1 313:0.219608 314:0.309804 315:0.737255 316:0.0235294 317:0.0745098 318:0.670588 319:0.0745098 320:0.0862745 321:0.839216 322:0.0823529 323:0.109804 324:0.866667 325:0.0117647 326:0.0823529 327:0.713725 328:0.345098 329:0.439216 330:1 331:0.364706 332:0.431373 333:1 334:0.0470588 335:0.0823529 336:0.792157 337:0.0862745 338:0.0784314 339:0.886275 340:0.0980392 341:0.0862745 342:0.886275 343:0.0745098 344:0.0901961 345:0.792157 346:0.133333 347:0.172549 348:0.686275 349:0.776471 350:0.831373 351:1 352:0.898039 353:0.968627 354:1 355:0.709804 356:0.788235 357:0.831373 358:0.878431 359:0.964706 360:0.988235 361:0.254902 362:0.34902 363:0.584314 364:0.729412 365:0.847059 366:1 367:0.803922 368:0.960784 369:1 370:0.658824 371:0.803922 372:1 373:0.172549 374:0.254902 375:0.705882 376:0.0901961 377:0.12549 378:0.784314 379:0.00784314 380:0.0235294 381:0.843137 382:0.0196078 383:0.0313725 384:0.901961 386:0.0470588 387:0.838583 388:0.109804 389:0.172549 390:0.956863 391:0.12549 392:0.168627 393:1 394:0.0352941 395:0.054902 396:0.929412 397:0.0588235 398:0.0431373 399:0.956863 400:0.0392157 401:0.00784314 402:0.913725 403:0.0509804 404:0.0196078 405:0.878431 406:0.203922 407:0.2 408:0.84252 409:0.764706 410:0.796078 411:1 412:0.901961 413:0.960784 414:1 415:0.721569 416:0.788235 417:0.839216 418:0.890196 419:0.964706 420:0.996078 421:0.733333 422:0.858824 423:0.933333 424:0.819608 425:0.952941 426:1 427:0.776471 428:0.933333 429:0.980392 430:0.737255 431:0.87451 432:1 433:0.192157 434:0.266667 435:0.717647 436:0.0588235 437:0.0862745 438:0.764706 439:0.0470588 440:0.0509804 441:0.905512 442:0.027451 443:0.0392157 444:0.960784 445:0.0156863 446:0.0588235 447:0.952941 449:0.0352941 450:0.929412 453:0.929412 454:0.0235294 455:0.0313725 456:0.980392 457:0.0117647 459:0.941176 460:0.0784314 461:0.0392157 462:0.964706 463:0.0862745 464:0.0431373 465:0.913043 466:0.196078 467:0.168627 468:0.823529 469:0.776471 470:0.792157 471:1 472:0.921569 473:0.964706 474:1 475:0.745098 476:0.796078 477:0.85098 478:0.913725 479:0.968627 480:1 481:0.85098 482:0.968627 483:0.988189 484:0.823529 485:0.945098 486:0.980392 487:0.8 488:0.933333 489:0.98419 490:0.815686 491:0.92549 492:1 493:0.32549 494:0.380392 495:0.823529 496:0.0901961 497:0.101961 498:0.764706 499:0.0352941 500:0.0196078 501:0.878431 502:0.0156863 503:0.0117647 504:0.952941 506:0.0196078 507:0.94902 509:0.0431373 510:0.968627 512:0.0156863 513:0.94902 514:0.0313725 515:0.0431373 516:0.976471 517:0.027451 518:0.0196078 519:0.921569 520:0.0627451 521:0.0352941 522:0.878431 523:0.113725 524:0.0862745 525:0.835294 526:0.380392 527:0.368627 528:0.913725 529:0.858824 530:0.87451 531:1 532:0.929412 533:0.972549 534:1 535:0.745098 536:0.792157 537:0.839216 538:0.92549 539:0.972549 540:1 541:0.831373 542:0.941176 543:0.945098 544:0.8 545:0.913725 546:0.929412 547:0.772549 548:0.878431 549:0.933333 550:0.823529 551:0.905882 552:1 553:0.584314 554:0.623529 555:1 556:0.0784314 557:0.0862745 558:0.694118 559:0.0901961 560:0.0627451 561:0.890196 562:0.0392157 563:0.0196078 564:0.956863 565:0.00392157 566:0.0156863 567:0.952941 568:0.0196078 569:0.0588235 570:0.992157 572:0.0196078 573:0.94902 575:0.00784314 576:0.917323 577:0.0627451 578:0.054902 579:0.917647 580:0.113725 581:0.0980392 582:0.862745 583:0.0784314 584:0.0745098 585:0.662745 586:0.627451 587:0.65098 588:1 589:0.882353 590:0.921569 591:1 592:0.913725 593:0.960784 594:0.976471 595:0.74902 596:0.796078 597:0.811765 598:0.913725 599:0.960784 600:0.984314 601:0.843137 602:0.941176 603:0.956863 604:0.756863 605:0.854902 606:0.870588 607:0.776471 608:0.862745 609:0.905882 610:0.847059 611:0.921569 612:1 613:0.811765 614:0.85098 615:1 616:0.258824 617:0.266667 618:0.776471 619:0.105882 620:0.0745098 621:0.839216 622:0.0745098 623:0.0352941 624:0.941176 625:0.00784314 626:0.00784314 627:0.933333 628:0.0156863 629:0.027451 630:0.960784 632:0.0117647 633:0.92549 636:0.878431 637:0.0901961 638:0.0666667 639:0.901961 640:0.129412 641:0.113725 642:0.792157 643:0.282353 644:0.317647 645:0.701961 646:0.858824 647:0.921569 648:1 649:0.917647 650:0.984314 651:0.996063 652:0.905882 653:0.972549 654:0.921569 655:0.788235 656:0.85098 657:0.823529 658:0.917647 659:0.976471 660:0.960159 661:0.878431 662:0.968627 663:0.976471 664:0.717647 665:0.807843 666:0.815686 667:0.803922 668:0.894118 669:0.901961 670:0.882353 671:0.960784 672:1 673:0.847059 674:0.901961 675:1 676:0.607843 677:0.627451 678:1 679:0.160784 680:0.137255 681:0.784314 682:0.0745098 683:0.0431373 684:0.854902 685:0.0509804 686:0.0431373 687:0.929134 688:0.0196078 689:0.0156863 690:0.933333 691:0.027451 692:0.027451 693:0.929412 694:0.0509804 695:0.0470588 696:0.901961 697:0.0784314 698:0.0470588 699:0.835294 700:0.156863 701:0.14902 702:0.733333 703:0.67451 704:0.733333 705:0.976471 706:0.894118 707:0.984314 708:1 709:0.909804 710:1 711:0.941176 712:0.890196 713:0.980392 714:0.894118 715:0.858824 716:0.937255 717:0.890196 718:0.937255 719:1 720:0.980392 721:0.866667 722:0.972549 723:0.956349 724:0.717647 725:0.819608 726:0.795276 727:0.815686 728:0.909804 729:0.878431 730:0.890196 731:0.972549 732:0.976471 733:0.815686 734:0.890196 735:0.972549 736:0.85098 737:0.894118 738:1 739:0.384314 740:0.396078 741:0.87451 742:0.0941176 743:0.0901961 744:0.756863 745:0.0862745 746:0.0784314 747:0.886275 748:0.0431373 749:0.0352941 750:0.921569 751:0.0627451 752:0.0509804 753:0.952941 754:0.0823529 755:0.0627451 756:0.905882 757:0.0823529 758:0.054902 759:0.764706 760:0.380392 761:0.384314 762:0.862745 763:0.890196 764:0.956863 765:1 766:0.862745 767:0.960784 768:0.921569 769:0.878431 770:0.992157 771:0.894118 772:0.886275 773:1 774:0.901961 775:0.917647 776:1 777:0.972222 778:0.898039 779:0.984314 780:0.976471 781:0.831373 782:0.945098 783:0.933333 784:0.745098 785:0.85098 786:0.835294 787:0.803922 788:0.898039 789:0.866667 790:0.87451 791:0.964706 792:0.945098 793:0.85098 794:0.933333 795:0.941176 796:0.882353 797:0.952941 798:1 799:0.701961 800:0.760784 801:1 802:0.262745 803:0.294118 804:0.780392 805:0.0705882 806:0.0745098 807:0.780392 808:0.0313725 809:0.0235294 810:0.858824 811:0.0431373 812:0.0235294 813:0.898039 814:0.0627451 815:0.0470588 816:0.843137 817:0.192157 818:0.196078 819:0.792157 820:0.698039 821:0.72549 822:1 823:0.858824 824:0.92549 825:1 826:0.894118 827:0.988235 828:0.941176 829:0.882353 830:0.984314 831:0.929412 832:0.894118 833:1 834:0.964706 835:0.890196 836:0.976471 837:1 838:0.709804 839:0.784314 840:0.866667 841:0.827451 842:0.937255 843:0.964706 844:0.733333 845:0.835294 846:0.862745 847:0.807843 848:0.894118 849:0.913725 850:0.890196 851:0.972549 852:0.976471 853:0.870588 854:0.960784 855:0.945098 856:0.854902 857:0.952941 858:0.968627 859:0.862745 860:0.972549 861:1 862:0.556863 863:0.65098 864:0.933333 865:0.160784 866:0.203922 867:0.768627 868:0.0313725 869:0.0392157 870:0.779528 871:0.0470588 872:0.027451 873:0.847059 874:0.113725 875:0.117647 876:0.831373 877:0.470588 878:0.513725 879:0.960784 880:0.854902 881:0.917647 882:1 883:0.843137 884:0.909804 885:0.984314 886:0.917647 887:0.992157 888:1 889:0.87451 890:0.956863 891:1 892:0.854902 893:0.92549 894:1 895:0.756863 896:0.807843 897:1 898:0.384314 899:0.423529 900:0.67451 901:0.847059 902:0.94902 903:0.996078 904:0.698039 905:0.792157 906:0.839216 907:0.831373 908:0.913725 909:0.945098 910:0.913725 911:0.996078 912:1 913:0.847059 914:0.937255 915:0.917647 916:0.85098 917:0.960784 918:0.937255 919:0.843137 920:0.964706 921:0.976471 922:0.835294 923:0.941176 924:1 925:0.384314 926:0.439216 927:0.839216 928:0.121569 929:0.137255 930:0.698039 931:0.141176 932:0.141176 933:0.768627 934:0.27451 935:0.286275 936:0.831373 937:0.772549 938:0.823529 939:1 940:0.835294 941:0.909804 942:1 943:0.917647 944:0.980392 945:1 946:0.882353 947:0.945098 948:1 949:0.839216 950:0.913725 951:1 952:0.776471 953:0.835294 954:1 955:0.592157 956:0.615686 957:0.996078 958:0.0980392 959:0.101961 960:0.54902 961:0.866667 962:0.952941 963:0.996078 964:0.741176 965:0.831373 966:0.862745 967:0.796078 968:0.894118 969:0.909804 970:0.882353 971:0.976471 972:0.976471 973:0.878431 974:0.972549 975:0.964706 976:0.878431 977:0.980392 978:0.980392 979:0.858824 980:0.960784 981:0.988235 982:0.858824 983:0.937255 984:1 985:0.780392 986:0.831373 987:1 988:0.270588 989:0.294118 990:0.572549 991:0.184314 992:0.2 993:0.509804 994:0.682353 995:0.701961 996:0.972549 997:0.854902 998:0.898039 999:1 1000:0.913725 1001:0.972549 1002:1 1003:0.882353 1004:0.94902 1005:1 1006:0.847059 1007:0.929412 1008:1 1009:0.815686 1010:0.905882 1011:1 1012:0.666667 1013:0.729412 1014:1 1015:0.219608 1016:0.219608 1017:0.784314 1018:0.0941176 1019:0.0666667 1020:0.729412 1021:0.87451 1022:0.956863 1023:0.988235 1024:0.74902 1025:0.835294 1026:0.854902 1027:0.796078 1028:0.894118 1029:0.901961 1030:0.87451 1031:0.980392 1032:0.968627 1033:0.870588 1034:0.976471 1035:0.964706 1036:0.878431 1037:0.976471 1038:0.984314 1039:0.878431 1040:0.960784 1041:0.992157 1042:0.886275 1043:0.94902 1044:1 1045:0.894118 1046:0.937255 1047:1 1048:0.592157 1049:0.619608 1050:0.74902 1051:0.556863 1052:0.580392 1053:0.717647 1054:0.858824 1055:0.886275 1056:1 1057:0.886275 1058:0.929412 1059:1 1060:0.894118 1061:0.956863 1062:1 1063:0.886275 1064:0.960784 1065:0.992126 1066:0.878431 1067:0.972549 1068:1 1069:0.815686 1070:0.917647 1071:1 1072:0.52549 1073:0.6 1074:0.956863 1075:0.105882 1076:0.105882 1077:0.709804 1078:0.117647 1079:0.0862745 1080:0.811765 1081:0.878431 1082:0.964706 1083:0.988235 1084:0.752941 1085:0.843137 1086:0.85098 1087:0.796078 1088:0.898039 1089:0.898039 1090:0.870588 1091:0.976471 1092:0.960784 1093:0.866667 1094:0.972549 1095:0.956863 1096:0.87451 1097:0.980392 1098:0.968627 1099:0.878431 1100:0.964706 1101:0.984314 1102:0.886275 1103:0.952941 1104:1 1105:0.913725 1106:0.960784 1107:1 1108:0.827451 1109:0.858824 1110:0.972549 1111:0.835294 1112:0.866667 1113:0.984314 1114:0.929412 1115:0.960784 1116:1 1117:0.882353 1118:0.933333 1119:1 1120:0.87451 1121:0.937255 1122:1 1123:0.898039 1124:0.972549 1125:1 1126:0.894118 1127:1 1128:1 1129:0.792157 1130:0.909804 1131:1 1132:0.427451 1133:0.517647 1134:0.784314 1135:0.0666667 1136:0.0862745 1137:0.603922 1138:0.211765 1139:0.2 1140:0.839216 1141:0.882353 1142:0.968627 1143:0.988235 1144:0.752941 1145:0.843137 1146:0.85098 1147:0.796078 1148:0.901961 1149:0.890196 1150:0.870588 1151:0.976471 1152:0.960784 1153:0.866667 1154:0.976471 1155:0.952941 1156:0.87451 1157:0.980392 1158:0.964706 1159:0.878431 1160:0.964706 1161:0.984314 1162:0.890196 1163:0.960784 1164:1 1165:0.878431 1166:0.929412 1167:1 1168:0.901961 1169:0.937255 1170:1 1171:0.901961 1172:0.933333 1173:1 1174:0.894118 1175:0.929412 1176:1 1177:0.886275 1178:0.937255 1179:1 1180:0.894118 1181:0.960784 1182:1 1183:0.901961 1184:0.980392 1185:1 1186:0.87451 1187:0.988235 1188:1 1189:0.866667 1190:0.992157 1191:1 1192:0.556863 1193:0.662745 1194:0.882353 1195:0.25098 1196:0.282353 1197:0.74902 1198:0.439216 1199:0.435294 1200:1 
0.54818472294160359 1:0.976471 2:0.996078 3:1 4:0.933333 5:1 6:1 7:0.854902 8:1 9:1 10:0.745098 11:1 12:1 13:0.631373 14:0.996078 15:1 16:0.529412 17:0.960784 18:0.951807 19:0.537255 20:0.972549 21:0.956863 22:0.643137 23:1 24:0.992157 25:0.788235 26:1 27:0.988235 28:0.886275 29:1 30:0.992157 31:0.894118 32:0.976471 33:0.964706 34:0.87451 35:1 36:0.992157 37:0.713725 38:1 39:0.988235 40:0.592157 41:1 42:0.984314 43:0.486275 44:0.980392 45:0.956863 46:0.501961 47:0.964706 48:0.945098 49:0.67451 50:1 51:0.992157 52:0.819608 53:1 54:1 55:0.909804 56:0.996078 57:1 58:0.94902 59:0.992157 60:1 61:0.94902 62:0.996078 63:0.996078 64:0.890196 65:0.992157 66:0.992157 67:0.776471 68:1 69:0.996078 70:0.54902 71:0.87451 72:0.878431 73:0.341176 74:0.780392 75:0.780392 76:0.298039 77:0.796078 78:0.788235 79:0.32549 80:0.819608 81:0.8 82:0.411765 83:0.827451 84:0.803922 85:0.72549 86:0.988235 87:0.976471 88:0.847059 89:1 90:1 91:0.831373 92:0.968627 93:0.952941 94:0.823529 95:1 96:1 97:0.596078 98:0.94902 99:0.92549 100:0.309804 101:0.776471 102:0.744094 103:0.278431 104:0.811765 105:0.788235 106:0.329412 107:0.835294 108:0.814229 109:0.478431 110:0.866667 111:0.858824 112:0.721569 113:0.988235 114:0.984252 115:0.831373 116:0.980392 117:0.988235 118:0.92549 119:1 120:1 121:0.905138 122:0.992157 123:0.98419 124:0.819608 125:0.996078 126:0.98419 127:0.560784 128:0.921569 129:0.901961 130:0.364706 131:0.858824 132:0.839216 133:0.286275 134:0.870588 135:0.854902 136:0.266667 137:0.890196 138:0.87451 139:0.282353 140:0.882353 141:0.870588 142:0.332016 143:0.85098 144:0.839216 145:0.458824 146:0.823529 147:0.819608 148:0.733333 149:1 150:1 151:0.756863 152:1 153:1 154:0.568627 155:0.898039 156:0.882353 157:0.32549 158:0.788235 159:0.768627 160:0.32549 161:0.882353 162:0.854902 163:0.280632 164:0.882353 165:0.862745 166:0.27381 167:0.866667 168:0.850394 169:0.305882 170:0.831373 171:0.807843 172:0.454902 173:0.866667 174:0.854902 175:0.776471 176:1 177:1 178:0.835294 179:0.988235 180:0.996078 181:0.85098 182:1 183:0.988235 184:0.745098 185:1 186:0.984314 187:0.419608 188:0.87451 189:0.847059 190:0.262745 191:0.835294 192:0.815686 193:0.231373 194:0.843137 195:0.839216 196:0.243137 197:0.843137 198:0.854902 199:0.32549 200:0.858824 201:0.882353 202:0.427451 203:0.870588 204:0.909804 205:0.454902 206:0.796078 207:0.835294 208:0.619608 209:0.913725 210:0.94902 211:0.658824 212:0.972549 213:1 214:0.482353 215:0.839216 216:0.858824 217:0.482353 218:0.890196 219:0.909804 220:0.419608 221:0.890196 222:0.909804 223:0.313725 224:0.847059 225:0.870588 226:0.262745 227:0.839216 228:0.847059 229:0.270588 230:0.87451 231:0.854902 232:0.27451 233:0.8 234:0.775591 235:0.627451 236:0.952941 237:0.956863 238:0.741176 239:0.980392 240:0.988235 241:0.784314 242:1 243:1 244:0.564706 245:0.894118 246:0.87451 247:0.294118 248:0.811765 249:0.784314 250:0.305882 251:0.889764 252:0.878431 253:0.337255 254:0.858824 255:0.890196 256:0.376471 257:0.8 258:0.866667 259:0.2 260:0.478431 261:0.584314 262:0.172549 263:0.384314 264:0.501961 265:0.494118 266:0.701961 267:0.807843 268:0.607843 269:0.85098 270:0.945098 271:0.603922 272:0.913725 273:0.988235 274:0.454902 275:0.752941 276:0.827451 277:0.266667 278:0.462745 279:0.552941 280:0.168627 281:0.380392 282:0.478431 283:0.384314 284:0.721569 285:0.807843 286:0.372549 287:0.85098 288:0.905882 289:0.258824 290:0.882353 291:0.87451 292:0.247059 293:0.854902 294:0.827451 295:0.384314 296:0.811765 297:0.803922 298:0.705882 299:1 300:1 301:0.705882 302:1 303:0.984252 304:0.537255 305:0.929412 306:0.905882 307:0.290196 308:0.847059 309:0.827451 310:0.27451 311:0.835294 312:0.847059 313:0.423529 314:0.811765 315:0.890196 316:0.0313725 317:0.270588 318:0.396078 319:0.145098 320:0.219608 321:0.388235 322:0.176471 323:0.2 324:0.384314 325:0.0941176 326:0.168627 327:0.345098 328:0.552941 329:0.686275 330:0.854902 331:0.654902 332:0.862745 333:1 334:0.0666667 335:0.239216 336:0.384314 337:0.172549 338:0.2 339:0.368627 340:0.258824 341:0.282353 342:0.45098 343:0.0784314 344:0.219608 345:0.376471 346:0.415686 347:0.74902 348:0.85098 349:0.282353 350:0.870588 351:0.892857 352:0.235294 353:0.870588 354:0.85098 355:0.333333 356:0.811765 357:0.811765 358:0.615686 359:1 360:1 361:0.615686 362:0.980392 363:0.952941 364:0.407843 365:0.847059 366:0.819608 367:0.309804 368:0.878431 369:0.870588 370:0.380392 371:0.882353 372:0.92549 373:0.313725 374:0.52549 375:0.654902 376:0.223529 377:0.25098 378:0.443137 379:0.341176 380:0.270588 381:0.501961 382:0.686275 383:0.584314 384:0.835294 385:0.505882 386:0.439216 387:0.685039 388:0.372549 389:0.341176 390:0.580392 391:0.45098 392:0.458824 393:0.686275 394:0.419608 395:0.407843 396:0.627451 397:0.643137 398:0.545098 399:0.780392 400:0.435294 401:0.337255 402:0.564706 403:0.239216 404:0.203922 405:0.423529 406:0.305882 407:0.462745 408:0.625984 409:0.376471 410:0.866667 411:0.921569 412:0.235294 413:0.839216 414:0.835294 415:0.364706 416:0.858824 417:0.862745 418:0.52549 419:0.960784 420:0.968627 421:0.654902 422:1 423:1 424:0.368627 425:0.8 426:0.792157 427:0.286275 428:0.858824 429:0.858824 430:0.415686 431:0.87451 432:0.933333 433:0.211765 434:0.321569 435:0.482353 436:0.282353 437:0.184314 438:0.419608 439:0.701961 440:0.537255 441:0.814961 442:0.74902 443:0.568627 444:0.866667 445:0.760784 446:0.611765 447:0.909804 448:0.568627 449:0.447059 450:0.741176 451:0.478431 452:0.372549 453:0.658824 454:0.74902 455:0.631373 456:0.909804 457:0.717647 458:0.560784 459:0.839216 460:0.729412 461:0.568627 462:0.835294 463:0.372549 464:0.231373 465:0.486166 466:0.156863 467:0.215686 468:0.407843 469:0.4 470:0.839216 471:0.909804 472:0.262745 473:0.85098 474:0.854902 475:0.298039 476:0.788235 477:0.803922 478:0.52549 479:0.976471 480:0.988235 481:0.670588 482:0.996078 483:1 484:0.4 485:0.803922 486:0.811765 487:0.32549 488:0.878431 489:0.889328 490:0.407843 491:0.847059 492:0.917647 493:0.156863 494:0.231373 495:0.407843 496:0.439216 497:0.298039 498:0.556863 499:0.8 500:0.607843 501:0.905882 502:0.72549 503:0.521569 504:0.847059 505:0.690196 506:0.52549 507:0.858824 508:0.67451 509:0.533333 510:0.862745 511:0.631373 512:0.501961 513:0.819608 514:0.701961 515:0.556863 516:0.870588 517:0.709804 518:0.537255 519:0.839216 520:0.737255 521:0.556863 522:0.854902 523:0.552941 524:0.396078 525:0.678431 526:0.133333 527:0.176471 528:0.380392 529:0.360784 530:0.780392 531:0.862745 532:0.278431 533:0.847059 534:0.853755 535:0.380392 536:0.85098 537:0.870588 538:0.52549 539:0.956863 540:0.972549 541:0.701961 542:0.992157 543:1 544:0.509804 545:0.87451 546:0.886275 547:0.262745 548:0.784314 549:0.8 550:0.486275 551:0.909804 552:0.980392 553:0.145098 554:0.219608 555:0.396078 556:0.482353 557:0.341176 558:0.6 559:0.776471 560:0.572549 561:0.878431 562:0.733333 563:0.517647 564:0.85098 565:0.74902 566:0.552941 567:0.898039 568:0.701961 569:0.533333 570:0.87451 571:0.701961 572:0.537255 573:0.878431 574:0.709804 575:0.54902 576:0.88189 577:0.670588 578:0.513725 579:0.819608 580:0.74902 581:0.596078 582:0.890196 583:0.572549 584:0.427451 585:0.709804 586:0.101961 587:0.152941 588:0.356863 589:0.364706 590:0.788235 591:0.858824 592:0.294118 593:0.858824 594:0.862745 595:0.345098 596:0.796078 597:0.807843 598:0.627451 599:1 600:1 601:0.729412 602:0.968627 603:0.976471 604:0.572549 605:0.890196 606:0.901961 607:0.380392 608:0.862745 609:0.878431 610:0.407843 611:0.815686 612:0.882353 613:0.254902 614:0.352941 615:0.517647 616:0.403922 617:0.305882 618:0.541176 619:0.784314 620:0.607843 621:0.894118 622:0.756863 623:0.537255 624:0.862745 625:0.74902 626:0.513725 627:0.858824 628:0.74902 629:0.529412 630:0.878431 631:0.760784 632:0.560784 633:0.905882 634:0.658824 635:0.494118 636:0.819608 637:0.705882 638:0.584314 639:0.878431 640:0.662745 641:0.560784 642:0.835294 643:0.54902 644:0.443137 645:0.701961 646:0.192157 647:0.282353 648:0.462745 649:0.380392 650:0.843137 651:0.889764 652:0.282353 653:0.85098 654:0.843137 655:0.392157 656:0.796078 657:0.807843 658:0.682353 659:1 660:1 661:0.764706 662:0.952941 663:0.960784 664:0.678431 665:0.94902 666:0.960784 667:0.407843 668:0.835294 669:0.843137 670:0.435294 671:0.843137 672:0.894118 673:0.380392 674:0.572549 675:0.698039 676:0.188235 677:0.203922 678:0.403922 679:0.678431 680:0.568627 681:0.827451 682:0.721569 683:0.529412 684:0.827451 685:0.741176 686:0.509804 687:0.838583 688:0.776471 689:0.552941 690:0.886275 691:0.698039 692:0.505882 693:0.835294 694:0.694118 695:0.541176 696:0.847059 697:0.662745 698:0.560784 699:0.835294 700:0.717647 701:0.666667 702:0.909804 703:0.196078 704:0.2 705:0.419608 706:0.270588 707:0.447059 708:0.596078 709:0.396078 710:0.862745 711:0.898039 712:0.305882 713:0.827451 714:0.815686 715:0.572549 716:0.913725 717:0.921569 718:0.729412 719:0.976471 720:0.992157 721:0.827451 722:0.960784 723:0.960317 724:0.788235 725:1 726:1 727:0.478431 728:0.839216 729:0.843137 730:0.415686 731:0.823529 732:0.85098 733:0.52549 734:0.862745 735:0.941176 736:0.0784314 737:0.282353 738:0.423529 739:0.368627 740:0.368627 741:0.580392 742:0.764706 743:0.635294 744:0.898039 745:0.729412 746:0.545098 747:0.843137 748:0.709804 749:0.52549 750:0.823529 751:0.709804 752:0.572549 753:0.862745 754:0.67451 755:0.564706 756:0.835294 757:0.729412 758:0.639216 759:0.882353 760:0.403922 761:0.403922 762:0.615686 763:0.0470588 764:0.211765 765:0.366534 766:0.443137 767:0.764706 768:0.862745 769:0.345098 770:0.803922 771:0.823529 772:0.4 773:0.831373 774:0.823529 775:0.74902 776:0.996078 777:1 778:0.827451 779:0.984314 780:1 781:0.858824 782:0.945098 783:0.937255 784:0.858824 785:1 786:1 787:0.756863 788:1 789:1 790:0.439216 791:0.780392 792:0.796078 793:0.431373 794:0.807843 795:0.858824 796:0.494118 797:0.807843 798:0.905882 799:0.14902 800:0.282353 801:0.45098 802:0.262745 803:0.270588 804:0.482353 805:0.694118 806:0.6 807:0.85098 808:0.67451 809:0.564706 810:0.823529 811:0.662745 812:0.584314 813:0.839216 814:0.686275 815:0.647059 816:0.882353 817:0.301961 818:0.313725 819:0.513725 820:0.0862745 821:0.203922 822:0.357143 823:0.447059 824:0.733333 825:0.85098 826:0.478431 827:0.862745 828:0.92549 829:0.427451 830:0.819608 831:0.835294 832:0.607843 833:0.929412 834:0.933333 835:0.831373 836:0.992157 837:1 838:0.921569 839:1 840:1 841:0.909804 842:0.976471 843:0.964706 844:0.921569 845:1 846:1 847:0.858824 848:0.992157 849:0.992157 850:0.776471 851:0.980392 852:1 853:0.529412 854:0.847059 855:0.878431 856:0.407843 857:0.752941 858:0.819608 859:0.52549 860:0.827451 861:0.933333 862:0.294118 863:0.494118 864:0.65098 865:0.12549 866:0.176471 867:0.380392 868:0.517647 869:0.498039 870:0.712598 871:0.596078 872:0.576471 873:0.792157 874:0.176471 875:0.239216 876:0.423529 877:0.188235 878:0.384314 879:0.52549 880:0.537255 881:0.839216 882:0.941176 883:0.411765 884:0.780392 885:0.854902 886:0.403922 887:0.764706 888:0.807843 889:0.658824 890:0.945098 891:0.960784 892:0.831373 893:1 894:1 895:0.901961 896:0.976471 897:0.996078 898:0.984314 899:0.996078 900:1 901:0.952941 902:0.996078 903:0.988235 904:0.92549 905:0.976471 906:0.968627 907:0.952941 908:1 909:1 910:0.886275 911:1 912:1 913:0.741176 914:0.976471 915:1 916:0.580392 917:0.890196 918:0.92549 919:0.462745 920:0.796078 921:0.858824 922:0.517647 923:0.815686 924:0.905512 925:0.509804 926:0.701961 927:0.827451 928:0.160784 929:0.309804 930:0.447059 931:0.0823529 932:0.223529 933:0.364706 934:0.407843 935:0.603922 936:0.721569 937:0.592157 938:0.890196 939:0.976471 940:0.435294 941:0.796078 942:0.847059 943:0.521569 944:0.870588 945:0.909804 946:0.701961 947:0.992157 948:1 949:0.807843 950:0.992157 951:1 952:0.894118 953:0.984314 954:0.992157 955:0.937255 956:0.952941 957:0.972549 958:0.976471 959:0.960784 960:0.980392 961:0.960784 962:0.992157 963:0.992157 964:0.945098 965:0.976471 966:0.976471 967:0.972549 968:1 969:1 970:0.937255 971:0.996078 972:1 973:0.835294 974:0.964706 975:0.976471 976:0.831373 977:1 978:1 979:0.737255 980:0.984314 981:1 982:0.517647 983:0.815686 984:0.839216 985:0.490196 986:0.835294 987:0.862205 988:0.396078 989:0.768627 990:0.803922 991:0.333333 992:0.721569 993:0.752941 994:0.478431 995:0.854902 996:0.878431 997:0.462745 998:0.784314 999:0.803922 1000:0.623529 1001:0.901961 1002:0.917647 1003:0.760784 1004:1 1005:1 1006:0.819608 1007:1 1008:1 1009:0.917647 1010:1 1011:1 1012:0.960784 1013:0.992157 1014:0.992157 1015:0.976471 1016:0.984314 1017:0.988235 1018:0.984314 1019:0.980392 1020:0.988235 1021:0.964706 1022:0.976471 1023:0.992157 1024:0.984314 1025:0.996078 1026:1 1027:0.984314 1028:0.980392 1029:0.996078 1030:0.956863 1031:0.968627 1032:0.984314 1033:0.94902 1034:0.996078 1035:1 1036:0.905882 1037:1 1038:1 1039:0.831373 1040:0.980392 1041:0.988235 1042:0.760784 1043:0.996078 1044:0.996078 1045:0.541176 1046:0.890196 1047:0.878431 1048:0.380392 1049:0.8 1050:0.788235 1051:0.4 1052:0.843137 1053:0.827451 1054:0.427451 1055:0.819608 1056:0.8 1057:0.737255 1058:1 1059:1 1060:0.807843 1061:0.988235 1062:0.992157 1063:0.858824 1064:0.992157 1065:0.992126 1066:0.901961 1067:0.988235 1068:0.980392 1069:0.964706 1070:0.996078 1071:0.996078 1072:0.988235 1073:0.988235 1074:0.988235 1075:0.988235 1076:0.988235 1077:0.988235 1078:0.992157 1079:0.992157 1080:0.992157 1081:0.976471 1082:0.964706 1083:0.972549 1084:1 1085:0.996078 1086:1 1087:1 1088:0.976471 1089:0.988235 1090:1 1091:0.972549 1092:0.984314 1093:1 1094:0.992157 1095:1 1096:0.956863 1097:0.976471 1098:0.988235 1099:0.905882 1100:0.960784 1101:0.984314 1102:0.890196 1103:1 1104:1 1105:0.752941 1106:0.968627 1107:0.980392 1108:0.662745 1109:0.945098 1110:0.945098 1111:0.498039 1112:0.796078 1113:0.792157 1114:0.768627 1115:1 1116:1 1117:0.870588 1118:0.996078 1119:1 1120:0.929412 1121:0.984314 1122:1 1123:0.917647 1124:0.933333 1125:0.952381 1126:0.988235 1127:0.996078 1128:1 1129:0.992157 1130:0.988235 1131:0.996078 1132:0.988235 1133:0.988235 1134:0.988235 1135:0.988235 1136:0.988235 1137:0.988235 1138:0.996078 1139:0.996078 1140:0.996078 1141:0.996078 1142:0.976471 1143:0.984314 1144:0.988235 1145:0.960784 1146:0.972549 1147:1 1148:0.988235 1149:1 1150:1 1151:0.984314 1152:1 1153:0.988235 1154:0.941176 1155:0.964706 1156:0.988235 1157:0.964706 1158:0.984314 1159:0.976471 1160:0.984314 1161:1 1162:0.870588 1163:0.945098 1164:0.964706 1165:0.862745 1166:1 1167:1 1168:0.784314 1169:0.992157 1170:1 1171:0.764706 1172:0.988235 1173:0.996078 1174:0.8 1175:0.976471 1176:0.988235 1177:0.909804 1178:0.972549 1179:1 1180:0.972549 1181:0.964706 1182:0.988235 1183:1 1184:0.956863 1185:0.988235 1186:0.988235 1187:0.952941 1188:0.964706 1189:1 1190:0.984314 1191:0.992157 1192:0.984314 1193:0.984314 1194:0.984314 1195:0.992157 1196:0.992157 1197:0.992157 1198:1 1199:1 1200:1 
0.48421119575660465 1:1 2:0.968627 3:0.976471 4:1 5:0.984314 6:0.980392 7:1 8:0.992157 9:0.984314 10:1 11:1 12:0.984314 13:1 14:1 15:0.976378 16:0.792157 17:0.780392 18:0.742972 19:0.976471 20:0.968627 21:0.937255 22:1 23:1 24:0.976471 25:1 26:1 27:0.980392 28:1 29:1 30:0.984314 31:1 32:0.996078 33:0.976471 34:1 35:1 36:0.976471 37:0.996078 38:1 39:0.964706 40:0.984314 41:1 42:0.960784 43:0.992157 44:1 45:0.968627 46:0.956863 47:0.992157 48:0.941176 49:0.968627 50:1 51:0.956863 52:0.980392 53:1 54:0.972549 55:0.988235 56:1 57:0.980392 58:0.988235 59:1 60:0.980392 61:1 62:0.988235 63:0.980392 64:1 65:0.960784 66:0.952941 67:0.972549 68:0.925197 69:0.909804 70:0.85098 71:0.803922 72:0.780392 73:0.976471 74:0.941176 75:0.905882 76:0.980392 77:0.945098 78:0.909804 79:1 80:0.976471 81:0.941176 82:0.929412 83:0.901961 84:0.866667 85:0.988235 86:0.964706 87:0.937255 88:1 89:1 90:0.976471 91:0.972549 92:0.964706 93:0.933333 94:0.996078 95:1 96:0.964706 97:0.509804 98:0.533333 99:0.490196 100:0.796078 101:0.831373 102:0.779528 103:0.980392 104:1 105:0.956863 106:0.929412 107:0.972549 108:0.909091 109:0.917647 110:0.956863 111:0.909804 112:0.952941 113:0.988235 114:0.948819 115:0.984314 116:1 117:0.976471 118:0.956863 119:0.988235 120:0.94902 121:0.98419 122:0.996078 123:0.960474 124:1 125:0.992157 126:0.960474 127:0.92549 128:0.898039 129:0.862745 130:0.701961 131:0.654902 132:0.615686 133:1 134:0.960784 135:0.917647 136:1 137:0.945098 138:0.901961 139:0.737255 140:0.647059 141:0.615686 142:0.837945 143:0.756863 144:0.72549 145:1 146:0.992157 147:0.964706 148:1 149:0.992157 150:0.956863 151:1 152:1 153:0.972549 154:0.792157 155:0.819608 156:0.768627 157:0.768627 158:0.811765 159:0.74902 160:0.811765 161:0.866667 162:0.796078 163:0.699605 164:0.756863 165:0.686275 166:0.948413 167:1 168:0.933071 169:0.894118 170:0.945098 171:0.890196 172:0.803922 173:0.85098 174:0.803922 175:0.843137 176:0.882353 177:0.835294 178:0.980392 179:1 180:0.972549 181:0.980392 182:0.996078 183:0.94902 184:0.94902 185:0.94902 186:0.901961 187:0.462745 188:0.431373 189:0.380392 190:0.635294 191:0.568627 192:0.517647 193:0.882353 194:0.780392 195:0.733333 196:0.843137 197:0.717647 198:0.666667 199:0.541176 200:0.415686 201:0.372549 202:0.8 203:0.690196 204:0.647059 205:0.74902 206:0.662745 207:0.619608 208:0.941176 209:0.894118 210:0.847059 211:1 212:0.996078 213:0.941176 214:0.529412 215:0.541176 216:0.482353 217:0.784314 218:0.823529 219:0.756863 220:0.882353 221:0.929412 222:0.85098 223:0.47451 224:0.521569 225:0.443137 226:0.32549 227:0.372549 228:0.294118 229:0.65098 230:0.713725 231:0.647059 232:0.815686 233:0.870588 234:0.822835 235:0.788235 236:0.835294 237:0.788235 238:0.937255 239:0.984314 240:0.937255 241:1 242:0.996078 243:0.936 244:0.647059 245:0.611765 246:0.556863 247:0.470588 248:0.407843 249:0.345098 250:0.529412 251:0.429134 252:0.368627 253:0.721569 254:0.592157 255:0.533333 256:0.615686 257:0.47451 258:0.411765 259:0.686275 260:0.541176 261:0.486275 262:0.843137 263:0.713725 264:0.654902 265:0.690196 266:0.584314 267:0.529412 268:0.917647 269:0.854902 270:0.792157 271:0.737255 272:0.701961 273:0.647059 274:0.65098 275:0.643137 276:0.572549 277:0.72549 278:0.72549 279:0.654902 280:0.537255 281:0.545098 282:0.466667 283:0.470588 284:0.482353 285:0.396078 286:0.721569 287:0.74902 288:0.666667 289:0.501961 290:0.556863 291:0.486275 292:0.839216 293:0.905882 294:0.85098 295:0.768627 296:0.827451 297:0.772549 298:0.815686 299:0.87451 300:0.819608 301:0.839216 302:0.776471 303:0.712598 304:0.266667 305:0.192157 306:0.133333 307:0.713725 308:0.611765 309:0.54902 310:0.854902 311:0.72549 312:0.662745 313:0.603922 314:0.454902 315:0.384314 316:0.670588 317:0.501961 318:0.435294 319:0.627451 320:0.458824 321:0.392157 322:0.827451 323:0.67451 324:0.615686 325:0.788235 326:0.654902 327:0.592157 328:0.709804 329:0.607843 330:0.545098 331:0.815686 332:0.733333 333:0.67451 334:0.698039 335:0.643137 336:0.572549 337:0.819608 338:0.780392 339:0.709804 340:0.690196 341:0.662745 342:0.584314 343:0.705882 344:0.690196 345:0.596078 346:0.956863 347:0.964706 348:0.878431 349:0.352941 350:0.4 351:0.321429 352:0.67451 353:0.737255 354:0.670588 355:0.847059 356:0.909804 357:0.843137 358:0.952941 359:1 360:0.94902 361:0.92549 362:0.792157 363:0.741176 364:0.686275 365:0.552941 366:0.501961 367:0.827451 368:0.682353 369:0.627451 370:0.658824 371:0.505882 372:0.447059 373:0.427451 374:0.258824 375:0.192157 376:0.760784 377:0.592157 378:0.517647 379:0.52549 380:0.345098 381:0.27451 382:0.792157 383:0.619608 384:0.552941 385:0.909804 386:0.733333 387:0.677165 388:0.890196 389:0.729412 390:0.670588 391:0.733333 392:0.596078 393:0.541176 394:0.945098 395:0.831373 396:0.772549 397:0.752941 398:0.654902 399:0.592157 400:0.776471 401:0.709804 402:0.635294 403:0.47451 404:0.423529 405:0.337255 406:0.556863 407:0.545098 408:0.46063 409:0.709804 410:0.745098 411:0.666667 412:0.592157 413:0.647059 414:0.576471 415:0.670588 416:0.72549 417:0.654902 418:0.952941 419:1 420:0.937255 421:1 422:0.909804 423:0.870588 424:0.576471 425:0.427451 426:0.380392 427:0.741176 428:0.596078 429:0.541176 430:0.435294 431:0.282353 432:0.223529 433:0.282353 434:0.113725 435:0.0470588 436:0.682353 437:0.501961 438:0.431373 439:0.615686 440:0.427451 441:0.354331 442:0.827451 443:0.627451 444:0.564706 445:0.901961 446:0.694118 447:0.643137 448:0.745098 449:0.541176 450:0.490196 451:0.65098 452:0.47451 453:0.423529 454:0.952941 455:0.8 456:0.745098 457:0.843137 458:0.721569 459:0.662745 460:0.811765 461:0.72549 462:0.654902 463:0.356863 464:0.301961 465:0.221344 466:0.556863 467:0.537255 468:0.454902 469:0.752941 470:0.768627 471:0.694118 472:0.776471 473:0.815686 474:0.74902 475:0.772549 476:0.811765 477:0.745098 478:0.960784 479:1 480:0.933333 481:1 482:0.996078 483:0.956693 484:0.568627 485:0.458824 486:0.415686 487:0.564706 488:0.439216 489:0.383399 490:0.498039 491:0.360784 492:0.305882 493:0.388235 494:0.231373 495:0.160784 496:0.623529 497:0.443137 498:0.376471 499:0.72549 500:0.521569 501:0.458824 502:0.788235 503:0.564706 504:0.505882 505:0.87451 506:0.639216 507:0.592157 508:0.52549 509:0.294118 510:0.254902 511:0.72549 512:0.517647 513:0.478431 514:0.976471 515:0.811765 516:0.760784 517:0.843137 518:0.729412 519:0.670588 520:0.545098 521:0.478431 522:0.403922 523:0.509804 524:0.47451 525:0.396078 526:0.666667 527:0.65098 528:0.576471 529:0.737255 530:0.745098 531:0.670588 532:0.654902 533:0.666667 534:0.600791 535:0.784314 536:0.796078 537:0.737255 538:0.988235 539:1 540:0.941176 541:1 542:0.972549 543:0.937255 544:0.462745 545:0.4 546:0.352941 547:0.607843 548:0.521569 549:0.47451 550:0.52549 551:0.411765 552:0.356863 553:0.458824 554:0.317647 555:0.254902 556:0.721569 557:0.552941 558:0.494118 559:0.701961 560:0.509804 561:0.454902 562:0.670588 563:0.462745 564:0.411765 565:0.67451 566:0.462745 567:0.419608 568:0.270588 569:0.0666667 570:0.0196078 571:0.92549 572:0.74902 573:0.705882 574:0.698039 575:0.560784 576:0.507874 577:0.780392 578:0.67451 579:0.619608 580:0.568627 581:0.498039 582:0.431373 583:0.721569 584:0.67451 585:0.603922 586:0.619608 587:0.596078 588:0.521569 589:0.560784 590:0.54902 591:0.490196 592:0.678431 593:0.67451 594:0.619608 595:0.898039 596:0.894118 597:0.839216 598:0.992157 599:0.988235 600:0.933333 601:1 602:1 603:0.972549 604:0.643137 605:0.623529 606:0.588235 607:0.662745 608:0.615686 609:0.568627 610:0.407843 611:0.333333 612:0.282353 613:0.682353 614:0.568627 615:0.513725 616:0.654902 617:0.517647 618:0.462745 619:0.627451 620:0.482353 621:0.427451 622:0.545098 623:0.392157 624:0.337255 625:0.454902 626:0.317647 627:0.262745 628:0.458824 629:0.333333 630:0.282353 631:0.556863 632:0.447059 633:0.403922 634:0.529412 635:0.435294 636:0.388235 637:0.541176 638:0.466667 639:0.415686 640:0.541176 641:0.466667 642:0.407843 643:0.498039 644:0.435294 645:0.372549 646:0.831373 647:0.780392 648:0.717647 649:0.560784 650:0.529412 651:0.476378 652:0.521569 653:0.505882 654:0.462745 655:0.929412 656:0.913725 657:0.870588 658:1 659:1 660:0.968127 661:0.960784 662:0.976471 663:0.952941 664:0.466667 665:0.470588 666:0.435294 667:0.509804 668:0.486275 669:0.443137 670:1 671:0.945098 672:0.898039 673:0.8 674:0.72549 675:0.67451 676:0.376471 677:0.286275 678:0.227451 679:0.658824 680:0.560784 681:0.498039 682:0.486275 683:0.396078 684:0.333333 685:0.388235 686:0.305882 687:0.244094 688:0.552941 689:0.490196 690:0.427451 691:0.698039 692:0.635294 693:0.584314 694:0.635294 695:0.572549 696:0.521569 697:0.768627 698:0.701961 699:0.65098 700:0.580392 701:0.498039 702:0.439216 703:0.537255 704:0.435294 705:0.380392 706:0.741176 707:0.654902 708:0.607843 709:0.376471 710:0.329412 711:0.290196 712:0.666667 713:0.639216 714:0.603922 715:1 716:0.992157 717:0.956863 718:1 719:1 720:0.972549 721:0.964706 722:0.980392 723:0.960317 724:0.968627 725:0.976471 726:0.952756 727:0.960784 728:0.952941 729:0.913725 730:0.682353 731:0.658824 732:0.615686 733:0.788235 734:0.745098 735:0.690196 736:0.588235 737:0.54902 738:0.482353 739:0.713725 740:0.67451 741:0.603922 742:0.611765 743:0.584314 744:0.509804 745:0.462745 746:0.435294 747:0.368627 748:0.8 749:0.784314 750:0.713725 751:0.678431 752:0.65098 753:0.592157 754:0.701961 755:0.658824 756:0.603922 757:0.764706 758:0.690196 759:0.631373 760:0.662745 761:0.556863 762:0.501961 763:0.380392 764:0.247059 765:0.183267 766:0.341176 767:0.223529 768:0.180392 769:0.498039 770:0.439216 771:0.403922 772:0.94902 773:0.92549 774:0.898039 775:1 776:0.996078 777:0.968254 778:0.992157 779:0.980392 780:0.94902 781:0.984314 782:0.988235 783:0.972549 784:1 785:1 786:0.984314 787:0.992157 788:0.984314 789:0.952941 790:0.713725 791:0.705882 792:0.662745 793:0.607843 794:0.596078 795:0.541176 796:0.627451 797:0.611765 798:0.541176 799:0.835294 800:0.819608 801:0.74902 802:0.698039 803:0.682353 804:0.607843 805:0.305882 806:0.290196 807:0.219608 808:0.380392 809:0.352941 810:0.286275 811:0.352941 812:0.317647 813:0.262745 814:0.627451 815:0.568627 816:0.505882 817:0.921569 818:0.831373 819:0.772549 820:0.737255 821:0.615686 822:0.551587 823:0.513725 824:0.368627 825:0.313725 826:0.368627 827:0.243137 828:0.192157 829:1 830:0.956863 831:0.92549 832:1 833:1 834:0.980392 835:1 836:0.996078 837:0.976471 838:1 839:1 840:0.984314 841:1 842:1 843:0.996078 844:1 845:1 846:0.988235 847:1 848:1 849:0.976471 850:0.929412 851:0.933333 852:0.894118 853:0.623529 854:0.623529 855:0.568627 856:0.458824 857:0.458824 858:0.388235 859:0.52549 860:0.509804 861:0.439216 862:0.458824 863:0.431373 864:0.356863 865:0.180392 866:0.133333 867:0.0627451 868:0.368627 869:0.305882 870:0.23622 871:0.67451 872:0.584314 873:0.52549 874:0.584314 875:0.478431 876:0.423529 877:0.631373 878:0.505882 879:0.454902 880:0.635294 881:0.505882 882:0.447059 883:0.529412 884:0.392157 885:0.337255 886:0.533333 887:0.427451 888:0.372549 889:1 890:1 891:0.972549 892:0.960784 893:0.956863 894:0.941176 895:1 896:1 897:0.988235 898:0.980392 899:0.976471 900:0.960784 901:0.972549 902:0.964706 903:0.960784 904:1 905:0.996078 906:0.992157 907:0.992157 908:1 909:0.976471 910:0.980392 911:0.992157 912:0.956863 913:0.764706 914:0.772549 915:0.72549 916:0.537255 917:0.541176 918:0.478431 919:0.639216 920:0.631373 921:0.560784 922:0.231373 923:0.203922 924:0.125984 925:0.321569 926:0.266667 927:0.196078 928:0.372549 929:0.301961 930:0.235294 931:0.541176 932:0.45098 933:0.388235 934:0.517647 935:0.415686 936:0.360784 937:0.501961 938:0.396078 939:0.341176 940:0.572549 941:0.466667 942:0.411765 943:0.67451 944:0.572549 945:0.517647 946:0.858824 947:0.780392 948:0.737255 949:1 950:0.988235 951:0.968627 952:1 953:1 954:0.988235 955:0.988235 956:0.992157 957:0.984314 958:0.996078 959:1 960:0.984314 961:1 962:0.996078 963:0.996078 964:1 965:0.996078 966:0.992157 967:0.972549 968:0.976471 969:0.960784 970:1 971:1 972:0.984314 973:0.980392 974:0.984314 975:0.945098 976:0.909804 977:0.909804 978:0.854902 979:0.541176 980:0.541176 981:0.478431 982:0.498039 983:0.482353 984:0.407843 985:0.419608 986:0.4 987:0.314961 988:0.454902 989:0.427451 990:0.34902 991:0.462745 992:0.415686 993:0.345098 994:0.486275 995:0.435294 996:0.372549 997:0.247059 998:0.203922 999:0.14902 1000:0.988235 1001:0.94902 1002:0.909804 1003:1 1004:0.980392 1005:0.952941 1006:1 1007:1 1008:0.98419 1009:1 1010:0.996078 1011:0.992157 1012:0.996078 1013:1 1014:0.992157 1015:0.996078 1016:0.996078 1017:0.996078 1018:0.996078 1019:1 1020:0.992157 1021:1 1022:0.992157 1023:0.992157 1024:1 1025:1 1026:1 1027:0.992157 1028:0.996078 1029:0.988235 1030:0.992157 1031:1 1032:0.976471 1033:0.992157 1034:0.996078 1035:0.960784 1036:0.984314 1037:0.992157 1038:0.945098 1039:0.627451 1040:0.627451 1041:0.564706 1042:0.682353 1043:0.686275 1044:0.607843 1045:0.576471 1046:0.564706 1047:0.482353 1048:0.505882 1049:0.494118 1050:0.411765 1051:0.4 1052:0.376471 1053:0.301961 1054:0.278431 1055:0.262745 1056:0.192157 1057:0.623529 1058:0.611765 1059:0.556863 1060:1 1061:1 1062:0.972549 1063:1 1064:1 1065:0.988189 1066:0.988235 1067:0.980392 1068:0.976471 1069:0.996078 1070:0.996078 1071:0.996078 1072:0.996078 1073:0.996078 1074:0.996078 1075:0.996078 1076:0.996078 1077:0.996078 1078:0.996078 1079:0.996078 1080:0.996078 1081:0.988235 1082:0.976471 1083:0.984314 1084:1 1085:1 1086:1 1087:0.988235 1088:0.992157 1089:0.984314 1090:0.992157 1091:0.996078 1092:0.980392 1093:1 1094:1 1095:0.976471 1096:0.980392 1097:0.984314 1098:0.945098 1099:0.972549 1100:0.972549 1101:0.909804 1102:0.521569 1103:0.52549 1104:0.447059 1105:0.501961 1106:0.490196 1107:0.407843 1108:0.666667 1109:0.654902 1110:0.572549 1111:0.803922 1112:0.788235 1113:0.713725 1114:0.764706 1115:0.74902 1116:0.678431 1117:1 1118:1 1119:0.956693 1120:0.988235 1121:0.980392 1122:0.948819 1123:0.996078 1124:0.984314 1125:0.968254 1126:1 1127:0.996078 1128:0.992157 1129:1 1130:1 1131:1 1132:1 1133:1 1134:1 1135:1 1136:1 1137:1 1138:1 1139:1 1140:1 1141:1 1142:0.996078 1143:1 1144:0.980392 1145:0.972549 1146:0.972549 1147:0.996078 1148:0.996078 1149:0.996078 1150:0.988235 1151:0.992157 1152:0.976471 1153:0.992157 1154:0.992157 1155:0.968627 1156:1 1157:1 1158:0.964706 1159:0.980392 1160:0.980392 1161:0.917647 1162:1 1163:1 1164:0.945098 1165:1 1166:0.992157 1167:0.917647 1168:1 1169:1 1170:0.93254 1171:1 1172:1 1173:0.929412 1174:1 1175:1 1176:0.929412 1177:1 1178:1 1179:0.964427 1180:1 1181:1 1182:0.968627 1183:1 1184:1 1185:0.988235 1186:1 1187:1 1188:0.996078 1189:1 1190:1 1191:1 1192:1 1193:1 1194:1 1195:1 1196:1 1197:1 1198:1 1199:1 1200:1 
