svm_type c_svc
kernel_type linear
nr_class 2
total_sv 101
rho -0.066247895979826596
label 1 -1
nr_sv 39 62
SV
0.21078565906873176 1:1 2:1 3:0.988235 4:0.996078 5:1 6:0.964706 7:1 8:1 9:0.968627 10:1 11:1 12:0.968627 13:1 14:1 15:0.988189 16:1 17:0.988235 18:0.995984 19:1 20:0.968627 21:1 22:1 23:0.988235 24:1 25:1 26:0.992157 27:0.976471 28:1 29:1 30:0.976471 31:1 32:1 33:0.980392 34:1 35:0.992157 36:0.988235 37:1 38:0.980392 39:1 40:1 41:0.976471 42:1 43:1 44:0.984314 45:1 46:0.992157 47:0.984314 48:1 49:0.984314 50:0.980392 51:0.996078 52:1 53:1 54:1 55:0.980392 56:0.984314 57:0.968627 58:1 59:1 60:0.984314 61:1 62:0.992157 63:0.988235 64:1 65:1 66:0.996078 67:0.976471 68:0.968504 69:0.968627 70:0.976471 71:0.960784 72:0.984314 73:1 74:0.972549 75:1 76:0.992157 77:0.937255 78:1 79:0.996078 80:0.937255 81:1 82:0.988235 83:0.933333 84:1 85:1 86:0.968627 87:1 88:1 89:0.972549 90:1 91:1 92:0.976471 93:1 94:0.988235 95:0.956863 96:1 97:0.972549 98:0.92549 99:1 100:0.996078 101:0.952941 102:1 103:0.972549 104:0.929412 105:1 106:0.980392 107:0.94902 108:1 109:0.988235 110:0.952941 111:1 112:0.964706 113:0.94902 114:0.996063 115:1 116:0.992157 117:1 118:0.996078 119:0.992157 120:1 121:1 122:0.988235 123:1 124:0.984314 125:0.952941 126:0.996047 127:1 128:0.960784 129:1 130:0.909804 131:0.831373 132:1 133:0.670588 134:0.556863 135:0.827451 136:0.643137 137:0.517647 138:0.827451 139:0.643137 140:0.513725 141:0.831373 142:0.758893 143:0.643137 144:0.929412 145:0.878431 146:0.784314 147:0.996078 148:0.984314 149:0.905882 150:1 151:0.996078 152:0.92549 153:1 154:0.988235 155:0.917647 156:1 157:0.843137 158:0.760784 159:0.952941 160:0.721569 161:0.631373 162:0.847059 163:0.683794 164:0.588235 165:0.823529 166:0.654762 167:0.572549 168:0.799213 169:0.831373 170:0.74902 171:0.941176 172:0.996078 173:0.937255 174:1 175:0.984314 176:0.933333 177:1 178:0.988235 179:0.956863 180:1 181:1 182:0.972549 183:1 184:0.988235 185:0.933333 186:1 187:0.752941 188:0.666667 189:0.870588 190:0.490196 191:0.368627 192:0.662745 193:0.580392 194:0.431373 195:0.807843 196:0.686275 197:0.52549 198:0.937255 199:0.639216 200:0.470588 201:0.87451 202:0.564706 203:0.419608 204:0.788235 205:0.552941 206:0.419608 207:0.721569 208:0.635294 209:0.52549 210:0.784314 211:0.709804 212:0.596078 213:0.843137 214:0.588235 215:0.482353 216:0.729412 217:0.521569 218:0.403922 219:0.682353 220:0.596078 221:0.478431 222:0.776471 223:0.615686 224:0.486275 225:0.803922 226:0.647059 227:0.521569 228:0.831373 229:0.505882 230:0.388235 231:0.666667 232:0.619608 233:0.521569 234:0.748031 235:0.972549 236:0.894118 237:1 238:1 239:0.94902 240:1 241:1 242:0.929412 243:1 244:0.890196 245:0.803922 246:0.996078 247:0.458824 248:0.341176 249:0.627451 250:0.72549 251:0.574803 252:0.929412 253:0.780392 254:0.611765 255:1 256:0.752941 257:0.580392 258:1 259:0.788235 260:0.615686 261:1 262:0.784314 263:0.627451 264:1 265:0.74902 266:0.592157 267:0.937255 268:0.647059 269:0.505882 270:0.835294 271:0.584314 272:0.431373 273:0.764706 274:0.686275 275:0.541176 276:0.878431 277:0.792157 278:0.643137 279:0.996078 280:0.752941 281:0.607843 282:0.968627 283:0.788235 284:0.635294 285:0.996078 286:0.764706 287:0.615686 288:0.968627 289:0.780392 290:0.639216 291:0.968627 292:0.529412 293:0.4 294:0.690196 295:0.67451 296:0.572549 297:0.784314 298:0.960784 299:0.870588 300:1 301:1 302:0.905882 303:1 304:0.556863 305:0.447059 306:0.678431 307:0.690196 308:0.54902 309:0.870588 310:0.756863 311:0.596078 312:0.976471 313:0.796078 314:0.619608 315:1 316:0.74902 317:0.576471 318:0.972549 319:0.74902 320:0.588235 321:0.945098 322:0.74902 323:0.596078 324:0.933333 325:0.776471 326:0.615686 327:0.94902 328:0.756863 329:0.603922 330:0.937255 331:0.792157 332:0.635294 333:0.980392 334:0.752941 335:0.592157 336:0.952941 337:0.74902 338:0.588235 339:0.94902 340:0.764706 341:0.607843 342:0.980392 343:0.74902 344:0.584314 345:0.956863 346:0.768627 347:0.603922 348:0.976471 349:0.788235 350:0.623529 351:0.996032 352:0.760784 353:0.603922 354:0.94902 355:0.545098 356:0.4 357:0.690196 358:0.917647 359:0.792157 360:1 361:0.976471 362:0.878431 363:1 364:0.603922 365:0.490196 366:0.709804 367:0.74902 368:0.603922 369:0.917647 370:0.717647 371:0.552941 372:0.92549 373:0.784314 374:0.611765 375:0.984314 376:0.768627 377:0.603922 378:0.94902 379:0.823529 380:0.678431 381:0.968627 382:0.780392 383:0.647059 384:0.901961 385:0.819608 386:0.67451 387:0.940945 388:0.843137 389:0.701961 390:0.976471 391:0.796078 392:0.647059 393:0.945098 394:0.85098 395:0.698039 396:1 397:0.811765 398:0.654902 399:0.976471 400:0.811765 401:0.658824 402:0.992157 403:0.784314 404:0.619608 405:0.964706 406:0.760784 407:0.588235 408:0.96063 409:0.741176 410:0.556863 411:0.960784 412:0.807843 413:0.619608 414:1 415:0.623529 416:0.443137 417:0.819608 418:0.741176 419:0.572549 420:0.929412 421:0.984314 422:0.890196 423:1 424:0.552941 425:0.443137 426:0.65098 427:0.74902 428:0.607843 429:0.909804 430:0.784314 431:0.623529 432:0.980392 433:0.764706 434:0.596078 435:0.952941 436:0.776471 437:0.619608 438:0.941176 439:0.811765 440:0.67451 441:0.925197 442:0.807843 443:0.678431 444:0.901961 445:0.811765 446:0.678431 447:0.913725 448:0.831373 449:0.694118 450:0.945098 451:0.772549 452:0.631373 453:0.905882 454:0.823529 455:0.678431 456:0.968627 457:0.741176 458:0.596078 459:0.886275 460:0.811765 461:0.662745 462:0.960784 463:0.74902 464:0.596078 465:0.909091 466:0.780392 467:0.615686 468:0.960784 469:0.792157 470:0.607843 471:0.996078 472:0.764706 473:0.572549 474:0.980392 475:0.619608 476:0.435294 477:0.819608 478:0.792157 479:0.615686 480:0.980392 481:0.984314 482:0.901961 483:1 484:0.615686 485:0.513725 486:0.694118 487:0.67451 488:0.537255 489:0.826087 490:0.776471 491:0.619608 492:0.964706 493:0.796078 494:0.627451 495:0.984314 496:0.772549 497:0.615686 498:0.937255 499:0.741176 500:0.6 501:0.858824 502:0.788235 503:0.658824 504:0.882353 505:0.776471 506:0.643137 507:0.878431 508:0.756863 509:0.623529 510:0.862745 511:0.760784 512:0.615686 513:0.882353 514:0.737255 515:0.592157 516:0.866667 517:0.756863 518:0.611765 519:0.886275 520:0.756863 521:0.611765 522:0.886275 523:0.768627 524:0.623529 525:0.905882 526:0.760784 527:0.611765 528:0.909804 529:0.784314 530:0.619608 531:0.945098 532:0.741176 533:0.576471 534:0.901186 535:0.580392 536:0.427451 537:0.72549 538:0.854902 539:0.701961 540:0.996078 541:0.996078 542:0.917647 543:1 544:0.721569 545:0.627451 546:0.792157 547:0.592157 548:0.458824 549:0.733333 550:0.815686 551:0.662745 552:0.996078 553:0.752941 554:0.588235 555:0.933333 556:0.784314 557:0.627451 558:0.94902 559:0.819608 560:0.678431 561:0.937255 562:0.776471 563:0.643137 564:0.878431 565:0.8 566:0.666667 567:0.901961 568:0.792157 569:0.658824 570:0.898039 571:0.768627 572:0.627451 573:0.886275 574:0.839216 575:0.694118 576:0.96063 577:0.8 578:0.654902 579:0.921569 580:0.815686 581:0.670588 582:0.937255 583:0.792157 584:0.65098 585:0.92549 586:0.788235 587:0.643137 588:0.92549 589:0.788235 590:0.643137 591:0.933333 592:0.756863 593:0.615686 594:0.890196 595:0.580392 596:0.447059 597:0.686275 598:0.972549 599:0.847059 600:1 601:1 602:0.952941 603:1 604:0.941176 605:0.854902 606:1 607:0.545098 608:0.419608 609:0.67451 610:0.784314 611:0.643137 612:0.945098 613:0.843137 614:0.682353 615:1 616:0.870588 617:0.717647 618:1 619:0.807843 620:0.662745 621:0.929412 622:0.796078 623:0.662745 624:0.901961 625:0.870588 626:0.737255 627:0.972549 628:0.788235 629:0.654902 630:0.890196 631:0.835294 632:0.698039 633:0.94902 634:0.8 635:0.654902 636:0.921569 637:0.815686 638:0.670588 639:0.945098 640:0.815686 641:0.666667 642:0.94902 643:0.847059 644:0.701961 645:0.992157 646:0.819608 647:0.67451 648:0.964706 649:0.835294 650:0.690196 651:0.980315 652:0.584314 653:0.458824 654:0.713725 655:0.72549 656:0.611765 657:0.807843 658:1 659:0.917647 660:1 661:1 662:0.952941 663:1 664:1 665:0.941176 666:1 667:0.686275 668:0.584314 669:0.792157 670:0.588235 671:0.454902 672:0.729412 673:0.756863 674:0.611765 675:0.92549 676:0.745098 677:0.592157 678:0.905882 679:0.807843 680:0.662745 681:0.945098 682:0.768627 683:0.627451 684:0.886275 685:0.768627 686:0.635294 687:0.870079 688:0.756863 689:0.627451 690:0.85098 691:0.772549 692:0.639216 693:0.87451 694:0.784314 695:0.647059 696:0.898039 697:0.752941 698:0.603922 699:0.886275 700:0.776471 701:0.623529 702:0.921569 703:0.768627 704:0.615686 705:0.929412 706:0.8 707:0.647059 708:0.960784 709:0.713725 710:0.580392 711:0.858824 712:0.556863 713:0.447059 714:0.678431 715:0.945098 716:0.862745 717:1 718:1 719:0.937255 720:1 721:1 722:0.988235 723:1 724:1 725:0.964706 726:1 727:0.984314 728:0.913725 729:1 730:0.54902 731:0.443137 732:0.662745 733:0.65098 734:0.521569 735:0.815686 736:0.792157 737:0.639216 738:0.972549 739:0.74902 740:0.596078 741:0.909804 742:0.796078 743:0.65098 744:0.933333 745:0.745098 746:0.619608 747:0.843137 748:0.803922 749:0.690196 750:0.886275 751:0.772549 752:0.658824 753:0.854902 754:0.768627 755:0.643137 756:0.866667 757:0.788235 758:0.647059 759:0.921569 760:0.784314 761:0.631373 762:0.945098 763:0.741176 764:0.576471 765:0.920319 766:0.768627 767:0.615686 768:0.94902 769:0.509804 770:0.388235 771:0.65098 772:0.807843 773:0.721569 774:0.913725 775:1 776:0.941176 777:1 778:1 779:0.964706 780:1 781:1 782:1 783:0.976471 784:0.984314 785:0.960784 786:0.964706 787:0.992157 788:0.945098 789:1 790:0.917647 791:0.839216 792:1 793:0.509804 794:0.388235 795:0.65098 796:0.729412 797:0.588235 798:0.909804 799:0.756863 800:0.6 801:0.945098 802:0.792157 803:0.635294 804:0.956863 805:0.839216 806:0.701961 807:0.964706 808:0.827451 809:0.698039 810:0.937255 811:0.807843 812:0.682353 813:0.913725 814:0.831373 815:0.698039 816:0.94902 817:0.788235 818:0.643137 819:0.933333 820:0.764706 821:0.611765 822:0.924603 823:0.862745 824:0.698039 825:1 826:0.537255 827:0.396078 828:0.698039 829:0.67451 830:0.584314 831:0.788235 832:0.980392 833:0.92549 834:1 835:0.976471 836:0.933333 837:1 838:1 839:0.980392 840:1 841:1 842:1 843:0.94902 844:1 845:1 846:0.972549 847:1 848:0.992157 849:1 850:0.972549 851:0.917647 852:1 853:0.827451 854:0.72549 855:0.933333 856:0.47451 857:0.345098 858:0.639216 859:0.780392 860:0.619608 861:0.980392 862:0.815686 863:0.647059 864:1 865:0.768627 866:0.607843 867:0.964706 868:0.760784 869:0.607843 870:0.940945 871:0.831373 872:0.67451 873:0.996078 874:0.741176 875:0.588235 876:0.901961 877:0.764706 878:0.615686 879:0.937255 880:0.819608 881:0.678431 882:0.980392 883:0.521569 884:0.388235 885:0.666667 886:0.627451 887:0.52549 888:0.737255 889:0.984314 890:0.929412 891:1 892:0.992157 893:0.976471 894:1 895:1 896:0.984314 897:1 898:1 899:1 900:1 901:1 902:1 903:0.968627 904:0.988235 905:0.984314 906:0.945098 907:1 908:1 909:0.988235 910:1 911:0.968627 912:1 913:0.980392 914:0.909804 915:1 916:0.796078 917:0.694118 918:0.929412 919:0.47451 920:0.333333 921:0.662745 922:0.729412 923:0.572549 924:0.944882 925:0.776471 926:0.615686 927:0.996078 928:0.74902 929:0.580392 930:0.960784 931:0.74902 932:0.584314 933:0.956863 934:0.772549 935:0.615686 936:0.960784 937:0.792157 938:0.643137 939:0.964706 940:0.572549 941:0.45098 942:0.721569 943:0.584314 944:0.482353 945:0.694118 946:0.984314 947:0.917647 948:1 949:0.988235 950:0.964706 951:1 952:1 953:1 954:0.996078 955:1 956:1 957:0.988235 958:0.992157 959:0.996078 960:0.980392 961:1 962:1 963:0.996078 964:0.996078 965:0.988235 966:0.984314 967:1 968:1 969:0.996078 970:1 971:0.988235 972:1 973:0.984314 974:0.960784 975:1 976:0.984314 977:0.929412 978:1 979:0.796078 980:0.701961 981:0.929412 982:0.482353 983:0.364706 984:0.658824 985:0.65098 986:0.509804 987:0.862205 988:0.792157 989:0.631373 990:1 991:0.74902 992:0.588235 993:0.968627 994:0.729412 995:0.584314 996:0.921569 997:0.552941 998:0.427451 999:0.705882 1000:0.6 1001:0.505882 1002:0.717647 1003:1 1004:0.941176 1005:1 1006:0.972549 1007:0.941176 1008:1 1009:1 1010:0.984314 1011:1 1012:0.996078 1013:0.996078 1014:0.996078 1015:1 1016:1 1017:0.996078 1018:1 1019:1 1020:0.996078 1021:0.996078 1022:0.984314 1023:0.992157 1024:1 1025:0.992157 1026:0.992157 1027:1 1028:1 1029:0.988235 1030:1 1031:1 1032:0.996078 1033:0.972549 1034:0.980392 1035:0.984314 1036:0.992157 1037:0.984314 1038:1 1039:0.980392 1040:0.929412 1041:1 1042:0.854902 1043:0.780392 1044:0.980392 1045:0.545098 1046:0.427451 1047:0.705882 1048:0.556863 1049:0.431373 1050:0.741176 1051:0.564706 1052:0.423529 1053:0.745098 1054:0.509804 1055:0.380392 1056:0.670588 1057:0.741176 1058:0.643137 1059:0.862745 1060:1 1061:0.937255 1062:1 1063:0.972549 1064:0.933333 1065:1 1066:0.992157 1067:0.976471 1068:1 1069:0.988235 1070:0.984314 1071:0.992157 1072:0.992157 1073:0.992157 1074:0.992157 1075:1 1076:1 1077:1 1078:1 1079:1 1080:1 1081:1 1082:1 1083:1 1084:1 1085:1 1086:0.996078 1087:1 1088:1 1089:0.976471 1090:0.992157 1091:1 1092:0.964706 1093:0.968627 1094:0.992157 1095:0.94902 1096:0.984314 1097:1 1098:0.976471 1099:1 1100:0.992157 1101:1 1102:1 1103:0.964706 1104:1 1105:0.976471 1106:0.905882 1107:1 1108:0.760784 1109:0.67451 1110:0.862745 1111:0.752941 1112:0.65098 1113:0.858824 1114:0.956863 1115:0.862745 1116:1 1117:0.972549 1118:0.901961 1119:1 1120:0.941176 1121:0.890196 1122:0.984252 1123:1 1124:0.976471 1125:1 1126:0.941176 1127:0.929412 1128:0.937255 1129:0.952941 1130:0.952941 1131:0.952941 1132:0.956863 1133:0.956863 1134:0.956863 1135:0.964706 1136:0.964706 1137:0.964706 1138:0.968627 1139:0.968627 1140:0.968627 1141:1 1142:1 1143:1 1144:1 1145:0.996078 1146:0.980392 1147:0.992157 1148:1 1149:0.964706 1150:1 1151:1 1152:0.956863 1153:0.992157 1154:1 1155:0.956863 1156:0.992157 1157:1 1158:0.960784 1159:0.996078 1160:0.996078 1161:0.972549 1162:0.996078 1163:0.980392 1164:1 1165:0.988235 1166:0.937255 1167:1 1168:1 1169:0.956863 1170:1 1171:0.976471 1172:0.894118 1173:1 1174:1 1175:0.929412 1176:1 1177:1 1178:0.960784 1179:1 1180:1 1181:0.964706 1182:1 1183:1 1184:0.984314 1185:1 1186:0.984314 1187:0.976471 1188:0.976471 1189:0.996078 1190:0.996078 1191:0.996078 1192:1 1193:1 1194:1 1195:1 1196:1 1197:1 1198:1 1199:1 1200:1 
0.032316881925050993 1:0.0352941 2:0.129412 3:0.819608 5:0.054902 6:0.72549 7:0.129412 8:0.176471 9:0.803922 10:0.133333 11:0.145098 12:0.764706 13:0.227451 14:0.184314 15:0.826772 16:0.392157 17:0.337255 18:0.987952 19:0.254902 20:0.219608 21:0.862745 22:0.0901961 23:0.0862745 24:0.72549 25:0.0980392 26:0.145098 27:0.772549 28:0.054902 29:0.137255 30:0.760784 31:0.0117647 32:0.117647 33:0.737255 34:0.105882 35:0.207843 36:0.811765 37:0.113725 38:0.180392 39:0.768627 40:0.0980392 41:0.12549 42:0.717647 43:0.203922 44:0.176471 45:0.819608 46:0.152941 47:0.117647 48:0.733333 49:0.176471 50:0.180392 51:0.705882 52:0.160784 53:0.180392 54:0.698039 55:0.156863 56:0.160784 57:0.74902 58:0.027451 59:0.0313725 60:0.65098 61:0.027451 62:0.109804 63:0.796078 64:0.0705882 65:0.145098 66:0.792157 67:0.12549 68:0.165354 69:0.760784 70:0.113725 71:0.129412 72:0.690196 73:0.14902 74:0.121569 75:0.690196 76:0.329412 77:0.286275 78:0.858824 79:0.376471 80:0.34902 81:0.917647 82:0.156863 83:0.156863 84:0.729412 85:0.141176 86:0.184314 87:0.776471 88:0.0745098 89:0.145098 90:0.745098 91:0.0313725 92:0.117647 93:0.72549 94:0.137255 95:0.219608 96:0.811765 97:0.113725 98:0.180392 99:0.729412 100:0.0509804 101:0.0784314 102:0.622047 103:0.156863 104:0.137255 105:0.705882 106:0.14902 107:0.117647 108:0.667984 109:0.117647 110:0.121569 111:0.623529 112:0.156863 113:0.172549 114:0.688976 115:0.180392 116:0.180392 117:0.760784 118:0.188235 119:0.184314 120:0.796078 121:0.118577 122:0.192157 123:0.857708 124:0.133333 125:0.192157 126:0.802372 127:0.0980392 128:0.14902 129:0.658824 130:0.196078 131:0.219608 132:0.662745 133:0.207843 134:0.207843 135:0.623529 136:0.298039 137:0.282353 138:0.694118 139:0.407843 140:0.407843 141:0.831373 142:0.142292 143:0.160784 144:0.611765 145:0.0862745 146:0.12549 147:0.639216 148:0.137255 149:0.188235 150:0.737255 151:0.0862745 152:0.145098 153:0.717647 154:0.0705882 155:0.137255 156:0.686275 157:0.0901961 158:0.14902 159:0.631373 160:0.211765 161:0.243137 162:0.686275 163:0.367589 164:0.368627 165:0.8 166:0.277778 167:0.27451 168:0.704724 169:0.223529 170:0.219608 171:0.67451 172:0.203922 173:0.2 174:0.701961 175:0.0784314 176:0.0666667 177:0.639216 178:0.156863 179:0.141176 180:0.74902 181:0.113725 182:0.160784 183:0.764706 184:0.0745098 185:0.121569 186:0.654902 187:0.196078 188:0.247059 189:0.654902 190:0.521569 191:0.564706 192:0.878431 193:0.643137 194:0.666667 195:0.929412 196:0.686275 197:0.694118 198:0.945098 199:0.768627 200:0.776471 201:1 202:0.623529 203:0.639216 204:0.956863 205:0.333333 206:0.360784 207:0.764706 208:0.254902 209:0.294118 210:0.752941 211:0.129412 212:0.168627 213:0.654902 214:0.184314 215:0.231373 216:0.694118 217:0.388235 218:0.435294 219:0.811765 220:0.635294 221:0.670588 222:0.984314 223:0.792157 224:0.807843 225:1 226:0.686275 227:0.686275 228:0.984314 229:0.619608 230:0.623529 231:0.980392 232:0.486275 233:0.486275 234:0.909449 235:0.168627 236:0.156863 237:0.65098 238:0.121569 239:0.105882 240:0.639216 241:0.12549 242:0.168627 243:0.664 244:0.196078 245:0.243137 246:0.666667 247:0.545098 248:0.6 249:0.882353 250:0.823529 251:0.874016 252:1 253:0.905882 254:0.937255 255:1 256:0.933333 257:0.960784 258:1 259:0.909804 260:0.937255 261:1 262:0.898039 263:0.921569 264:1 265:0.733333 266:0.756863 267:1 268:0.337255 269:0.372549 270:0.686275 271:0.137255 272:0.168627 273:0.517647 274:0.439216 275:0.482353 276:0.803922 277:0.764706 278:0.807843 279:1 280:0.85098 281:0.886275 282:1 283:0.917647 284:0.937255 285:1 286:0.92549 287:0.941176 288:1 289:0.890196 290:0.917647 291:1 292:0.772549 293:0.8 294:1 295:0.462745 296:0.478431 297:0.827451 298:0.215686 299:0.227451 300:0.611765 301:0.133333 302:0.168627 303:0.574803 304:0.447059 305:0.486275 306:0.827451 307:0.843137 308:0.898039 309:1 310:0.909804 311:0.960784 312:1 313:0.92549 314:0.960784 315:0.976471 316:0.980392 317:1 318:0.996078 319:0.933333 320:0.952941 321:0.956863 322:0.929412 323:0.952941 324:0.996078 325:0.941176 326:0.960784 327:1 328:0.65098 329:0.67451 330:0.858824 331:0.509804 332:0.537255 333:0.752941 334:0.745098 335:0.772549 336:0.964706 337:0.929412 338:0.972549 339:1 340:0.913725 341:0.941176 342:1 343:0.941176 344:0.956863 345:0.976471 346:0.964706 347:0.988235 348:1 349:0.909804 350:0.94902 351:1 352:0.870588 353:0.917647 354:1 355:0.737255 356:0.776471 357:0.988235 358:0.376471 359:0.411765 360:0.658824 361:0.121569 362:0.160784 363:0.490196 364:0.615686 365:0.65098 366:0.917647 367:0.894118 368:0.929412 369:1 370:0.901961 371:0.937255 372:0.992157 373:0.94902 374:0.968627 375:0.964706 376:0.996078 377:1 378:0.972549 379:0.996078 380:1 381:0.960784 382:0.980392 383:0.988235 384:0.964706 385:0.952941 386:0.964706 387:0.996063 388:0.956863 389:0.976471 390:1 391:0.92549 392:0.941176 393:1 394:0.929412 395:0.952941 396:1 397:0.945098 398:0.972549 399:0.984314 400:0.968627 401:0.984314 402:0.964706 403:1 404:1 405:0.984314 406:0.976471 407:0.984314 408:0.96063 409:0.945098 410:1 411:0.972549 412:0.905882 413:0.980392 414:0.992157 415:0.913725 416:0.968627 417:1 418:0.501961 419:0.552941 420:0.678431 421:0.196078 422:0.211765 423:0.529412 424:0.72549 425:0.74902 426:1 427:0.858824 428:0.890196 429:1 430:0.952941 431:0.972549 432:1 433:1 434:0.996078 435:1 436:0.945098 437:0.937255 438:0.905882 439:1 440:1 441:0.948819 442:1 443:1 444:0.956863 445:1 446:1 447:0.976471 448:1 449:1 450:1 451:0.972549 452:0.972549 453:0.996078 454:0.976471 455:0.984314 456:0.988235 457:0.984314 458:0.996078 459:0.960784 460:0.988235 461:0.988235 462:0.941176 463:1 464:0.996078 465:0.960474 466:0.992157 467:0.988235 468:0.94902 469:0.960784 470:1 471:0.968627 472:0.878431 473:0.956863 474:0.937255 475:0.905882 476:0.960784 477:1 478:0.458824 479:0.509804 480:0.611765 481:0.152941 482:0.14902 483:0.515748 484:0.552941 485:0.556863 486:0.870588 487:0.882353 488:0.898039 489:1 490:0.937255 491:0.94902 492:1 493:0.984314 494:0.976471 495:1 496:1 497:0.984314 498:0.988235 499:0.956863 500:0.933333 501:0.905882 502:1 503:0.980392 504:0.937255 505:1 506:0.988235 507:0.960784 508:1 509:0.988235 510:0.976471 511:1 512:0.996078 513:1 514:1 515:0.992157 516:0.996078 517:1 518:1 519:0.972549 520:0.996078 521:0.976471 522:0.941176 523:1 524:0.996078 525:0.980392 526:1 527:0.980392 528:0.984314 529:0.968627 530:0.996078 531:1 532:0.870588 533:0.921569 534:0.976285 535:0.858824 536:0.894118 537:1 538:0.462745 539:0.498039 540:0.670588 541:0.211765 542:0.188235 543:0.623529 544:0.317647 545:0.313725 546:0.682353 547:0.678431 548:0.678431 549:0.929412 550:0.878431 551:0.890196 552:1 553:0.941176 554:0.937255 555:1 556:1 557:0.992157 558:1 559:0.996078 560:0.980392 561:0.960784 562:1 563:0.996078 564:0.960784 565:1 566:0.992157 567:0.964706 568:1 569:0.980392 570:0.968627 571:1 572:0.968627 573:0.980392 574:1 575:0.988235 576:1 577:1 578:1 579:0.984314 580:0.980392 581:0.94902 582:0.921569 583:0.996078 584:0.956863 585:0.956863 586:1 587:0.976471 588:1 589:0.909804 590:0.929412 591:1 592:0.917647 593:0.945098 594:1 595:0.568627 596:0.584314 597:0.815686 598:0.2 599:0.211765 600:0.478431 601:0.156863 602:0.137255 603:0.643137 604:0.137255 605:0.133333 606:0.564706 607:0.470588 608:0.490196 609:0.784314 610:0.862745 611:0.886275 612:1 613:0.956863 614:0.972549 615:1 616:0.960784 617:0.976471 618:0.996078 619:1 620:1 621:0.976471 622:0.992157 623:0.984314 624:0.945098 625:1 626:0.980392 627:0.968627 628:1 629:0.992157 630:1 631:1 632:0.972549 633:1 634:0.972549 635:0.941176 636:0.968627 637:1 638:0.992157 639:0.988235 640:1 641:0.984314 642:0.964706 643:1 644:0.984314 645:0.980392 646:0.952941 647:0.945098 648:0.992157 649:0.898039 650:0.905882 651:1 652:0.780392 653:0.796078 654:1 655:0.266667 656:0.270588 657:0.607843 658:0.160784 659:0.160784 660:0.521912 661:0.282353 662:0.270588 663:0.839216 664:0.262745 665:0.270588 666:0.760784 667:0.223529 668:0.254902 669:0.603922 670:0.568627 671:0.607843 672:0.843137 673:0.894118 674:0.929412 675:1 676:0.905882 677:0.937255 678:1 679:0.964706 680:0.984314 681:0.996078 682:1 683:1 684:0.988235 685:0.996078 686:0.976471 687:0.980315 688:0.996078 689:0.972549 690:0.992157 691:0.988235 692:0.956863 693:1 694:0.976471 695:0.945098 696:0.984314 697:1 698:1 699:1 700:0.996078 701:0.996078 702:0.996078 703:0.988235 704:0.992157 705:1 706:0.905882 707:0.905882 708:1 709:0.823529 710:0.827451 711:1 712:0.427451 713:0.435294 714:0.780392 715:0.172549 716:0.172549 717:0.588235 718:0.384314 719:0.384314 720:0.831373 721:0.34902 722:0.368627 723:0.968254 724:0.301961 725:0.32549 726:0.862205 727:0.054902 728:0.0980392 729:0.505882 730:0.258824 731:0.309804 732:0.615686 733:0.717647 734:0.764706 735:0.992157 736:0.878431 737:0.913725 738:1 739:0.929412 740:0.956863 741:1 742:0.937255 743:0.960784 744:0.988235 745:0.972549 746:0.984314 747:1 748:0.952941 749:0.94902 750:0.964706 751:0.980392 752:0.972549 753:0.996078 754:0.984314 755:0.984314 756:1 757:0.937255 758:0.94902 759:0.964706 760:0.894118 761:0.905882 762:0.937255 763:0.94902 764:0.952941 765:1 766:0.921569 767:0.929412 768:1 769:0.572549 770:0.592157 771:0.886275 772:0.145098 773:0.160784 774:0.560784 775:0.196078 776:0.2 777:0.666667 778:0.356863 779:0.360784 780:0.862745 781:0.160784 782:0.192157 783:0.823529 784:0.0470588 785:0.0862745 786:0.666667 787:0.0901961 788:0.137255 789:0.623529 790:0.203922 791:0.254902 792:0.662745 793:0.368627 794:0.407843 795:0.74902 796:0.670588 797:0.701961 798:0.964706 799:0.905882 800:0.929412 801:1 802:0.933333 803:0.952941 804:1 805:0.956863 806:0.972549 807:1 808:0.968627 809:0.988235 810:1 811:0.984314 812:0.996078 813:1 814:0.945098 815:0.960784 816:0.980392 817:0.937255 818:0.956863 819:0.992157 820:0.933333 821:0.952941 822:1 823:0.866667 824:0.87451 825:1 826:0.639216 827:0.647059 828:0.901961 829:0.278431 830:0.294118 831:0.666667 832:0.101961 833:0.117647 834:0.580392 835:0.176471 836:0.188235 837:0.717647 838:0.0666667 839:0.0705882 840:0.635294 841:0.0784314 842:0.12549 843:0.776471 845:0.0117647 846:0.639216 847:0.109804 848:0.160784 849:0.733333 850:0.137255 851:0.172549 852:0.698039 853:0.0705882 854:0.0862745 855:0.576471 856:0.321569 857:0.329412 858:0.752941 859:0.67451 860:0.682353 861:0.988235 862:0.886275 863:0.898039 864:1 865:0.917647 866:0.941176 867:1 868:0.952941 869:0.984314 870:1 871:0.941176 872:0.968627 873:0.980392 874:0.917647 875:0.94902 876:0.976471 877:0.952941 878:0.980392 879:1 880:0.87451 881:0.890196 882:1 883:0.588235 884:0.576471 885:0.858824 886:0.211765 887:0.2 888:0.588235 889:0.137255 890:0.14902 891:0.6 892:0.141176 893:0.160784 894:0.678431 895:0.101961 896:0.117647 897:0.701961 898:0.0117647 899:0.0235294 900:0.643137 901:0.117647 902:0.168627 903:0.803922 904:0.133333 905:0.180392 906:0.807843 907:0.0784314 908:0.117647 909:0.721569 910:0.0705882 911:0.0980392 912:0.690196 913:0.160784 914:0.164706 915:0.752941 916:0.14902 917:0.14902 918:0.682353 919:0.235294 920:0.239216 921:0.670588 922:0.564706 923:0.576471 924:0.893701 925:0.866667 926:0.898039 927:1 928:0.886275 929:0.92549 930:1 931:0.894118 932:0.941176 933:1 934:0.909804 935:0.952941 936:1 937:0.792157 938:0.831373 939:1 940:0.439216 941:0.454902 942:0.733333 943:0.215686 944:0.203922 945:0.607843 946:0.172549 947:0.160784 948:0.643137 949:0.164706 950:0.180392 951:0.698039 952:0.156863 953:0.180392 954:0.741176 955:0.0470588 956:0.0588235 957:0.678431 958:0.219608 959:0.227451 960:0.870588 961:0.0666667 962:0.117647 963:0.690196 964:0.129412 965:0.168627 966:0.74902 967:0.105882 968:0.137255 969:0.737255 970:0.0705882 971:0.0901961 972:0.698039 973:0.141176 974:0.152941 975:0.772549 976:0.145098 977:0.156863 978:0.752941 979:0.101961 980:0.113725 981:0.654902 982:0.172549 983:0.203922 984:0.678431 985:0.54902 986:0.596078 987:0.992126 988:0.654902 989:0.709804 990:1 991:0.803922 992:0.870588 993:1 994:0.662745 995:0.72549 996:1 997:0.368627 998:0.415686 999:0.792157 1000:0.14902 1001:0.184314 1002:0.619608 1003:0.0901961 1004:0.0980392 1005:0.607843 1006:0.219608 1007:0.227451 1008:0.782609 1009:0.0784314 1010:0.0941176 1011:0.67451 1012:0.0509804 1013:0.0705882 1014:0.666667 1015:0.2 1016:0.219608 1017:0.827451 1018:0.0705882 1019:0.0901961 1020:0.705882 1021:0.121569 1022:0.160784 1023:0.713725 1024:0.345098 1025:0.384314 1026:0.941176 1027:0.215686 1028:0.239216 1029:0.839216 1030:0.0745098 1031:0.0901961 1032:0.713725 1033:0.054902 1034:0.0627451 1035:0.705882 1036:0.101961 1037:0.113725 1038:0.74902 1039:0.27451 1040:0.294118 1041:0.894118 1042:0.278431 1043:0.313725 1044:0.866667 1045:0.0705882 1046:0.12549 1047:0.619608 1048:0.337255 1049:0.407843 1050:0.858824 1051:0.45098 1052:0.529412 1053:0.956863 1054:0.192157 1055:0.266667 1056:0.701961 1057:0.121569 1058:0.172549 1059:0.65098 1060:0.294118 1061:0.329412 1062:0.85098 1063:0.223529 1064:0.243137 1065:0.811024 1066:0.0352941 1067:0.054902 1068:0.65098 1069:0.0980392 1070:0.121569 1071:0.721569 1072:0.117647 1073:0.137255 1074:0.745098 1075:0.282353 1076:0.301961 1077:0.909804 1078:0.223529 1079:0.243137 1080:0.85098 1081:0.121569 1082:0.168627 1083:0.72549 1084:0.333333 1085:0.376471 1086:0.941176 1087:0.192157 1088:0.211765 1089:0.819608 1090:0.156863 1091:0.168627 1092:0.803922 1093:0.12549 1094:0.133333 1095:0.780392 1096:0.0862745 1097:0.0941176 1098:0.737255 1099:0.286275 1100:0.305882 1101:0.913725 1102:0.254902 1103:0.290196 1104:0.854902 1105:0.0509804 1106:0.105882 1107:0.615686 1108:0.129412 1109:0.196078 1110:0.666667 1111:0.180392 1112:0.25098 1113:0.694118 1114:0.0941176 1115:0.164706 1116:0.615686 1117:0.160784 1118:0.215686 1119:0.708661 1120:0.321569 1121:0.360784 1122:0.897638 1123:0.243137 1124:0.270588 1125:0.845238 1126:0.105882 1127:0.12549 1128:0.72549 1129:0.176471 1130:0.196078 1131:0.803922 1132:0.172549 1133:0.192157 1134:0.8 1135:0.25098 1136:0.270588 1137:0.878431 1138:0.223529 1139:0.243137 1140:0.85098 1141:0.113725 1142:0.160784 1143:0.717647 1144:0.156863 1145:0.196078 1146:0.772549 1147:0.105882 1148:0.12549 1149:0.733333 1150:0.243137 1151:0.254902 1152:0.890196 1153:0.25098 1154:0.254902 1155:0.913725 1156:0.0980392 1157:0.105882 1158:0.752941 1159:0.145098 1160:0.164706 1161:0.780392 1162:0.145098 1163:0.180392 1164:0.745098 1165:0.176471 1166:0.227451 1167:0.745098 1168:0.0627451 1169:0.129412 1170:0.599206 1171:0.0666667 1172:0.137255 1173:0.588235 1174:0.12549 1175:0.192157 1176:0.65098 1177:0.176471 1178:0.227451 1179:0.727273 1180:0.168627 1181:0.207843 1182:0.74902 1183:0.109804 1184:0.133333 1185:0.717647 1186:0.141176 1187:0.156863 1188:0.764706 1189:0.254902 1190:0.27451 1191:0.882353 1192:0.188235 1193:0.207843 1194:0.815686 1195:0.145098 1196:0.164706 1197:0.772549 1198:0.121569 1199:0.141176 1200:0.74902 
0.063243153576018965 1:1 2:1 3:1 4:0.984314 5:0.988235 6:0.952941 7:0.976471 8:1 9:0.909804 10:0.992157 11:1 12:0.886275 13:0.984314 14:1 15:0.850394 16:0.94902 17:1 18:0.799197 19:0.980392 20:1 21:0.858824 22:0.960784 23:0.996078 24:0.866667 25:1 26:1 27:0.960784 28:0.980392 29:0.976471 30:0.960784 31:1 32:0.992157 33:1 34:1 35:1 36:1 37:0.992157 38:0.996078 39:0.956863 40:1 41:1 42:0.929412 43:0.960784 44:1 45:0.843137 46:0.968627 47:1 48:0.85098 49:0.972549 50:1 51:0.901961 52:0.972549 53:0.992157 54:0.933333 55:1 56:1 57:0.976471 58:1 59:1 60:0.988235 61:0.996078 62:1 63:0.94902 64:1 65:1 66:0.945098 67:0.909804 68:0.944882 69:0.815686 70:0.745098 71:0.796078 72:0.623529 73:0.54902 74:0.611765 75:0.403922 76:0.486275 77:0.54902 78:0.337255 79:0.568627 80:0.623529 81:0.435294 82:0.952941 83:0.996078 84:0.847059 85:0.972549 86:0.996078 87:0.905882 88:1 89:1 90:0.960784 91:0.988235 92:0.992157 93:0.956863 94:1 95:1 96:0.972549 97:0.929412 98:0.94902 99:0.866667 100:0.647059 101:0.678431 102:0.555118 103:0.670588 104:0.721569 105:0.541176 106:0.654902 107:0.709804 108:0.517787 109:0.823529 110:0.870588 111:0.729412 112:0.937255 113:0.972549 114:0.866142 115:0.960784 116:0.984314 117:0.909804 118:1 119:1 120:0.960784 121:0.98419 122:1 123:0.865613 124:0.811765 125:0.862745 126:0.679842 127:0.615686 128:0.678431 129:0.470588 130:0.368627 131:0.435294 132:0.211765 133:0.352941 134:0.423529 135:0.184314 136:0.388235 137:0.458824 138:0.219608 139:0.34902 140:0.415686 141:0.192157 142:0.312253 143:0.376471 144:0.176471 145:0.713725 146:0.756863 147:0.6 148:0.988235 149:1 150:0.886275 151:0.984314 152:1 153:0.894118 154:0.768627 155:0.803922 156:0.67451 157:0.392157 158:0.435294 159:0.278431 160:0.372549 161:0.423529 162:0.243137 163:0.339921 164:0.407843 165:0.196078 166:0.337302 167:0.411765 168:0.185039 169:0.376471 170:0.439216 171:0.227451 172:0.776471 173:0.831373 174:0.643137 175:0.956863 176:1 177:0.843137 178:1 179:1 180:0.913725 181:0.921569 182:0.988235 183:0.764706 184:0.686275 185:0.752941 186:0.529412 187:0.360784 188:0.427451 189:0.203922 190:0.529412 191:0.596078 192:0.372549 193:0.952941 194:1 195:0.803922 196:0.941176 197:1 198:0.796078 199:0.972549 200:1 201:0.831373 202:0.831373 203:0.882353 204:0.701961 205:0.341176 206:0.388235 207:0.223529 208:0.72549 209:0.768627 210:0.611765 211:0.870588 212:0.913725 213:0.756863 214:0.337255 215:0.380392 216:0.223529 217:0.741176 218:0.788235 219:0.623529 220:0.933333 221:0.984314 222:0.811765 223:0.956863 224:1 225:0.827451 226:0.929412 227:0.992157 228:0.784314 229:0.521569 230:0.588235 231:0.364706 232:0.341176 233:0.407843 234:0.181102 235:0.827451 236:0.886275 237:0.686275 238:0.988235 239:1 240:0.858824 241:0.858824 242:0.929412 243:0.692 244:0.356863 245:0.419608 246:0.207843 247:0.568627 248:0.623529 249:0.435294 250:1 251:1 252:0.886275 253:0.976471 254:1 255:0.882353 256:1 257:1 258:0.921569 259:1 260:1 261:0.921569 262:0.992157 263:1 264:0.913725 265:0.992157 266:1 267:0.905882 268:0.435294 269:0.466667 270:0.345098 271:0.45098 272:0.486275 273:0.356863 274:0.960784 275:0.996078 276:0.866667 277:0.964706 278:0.996078 279:0.87451 280:1 281:1 282:0.921569 283:1 284:1 285:0.92549 286:0.984314 287:1 288:0.894118 289:0.968627 290:1 291:0.847059 292:0.462745 293:0.52549 294:0.317647 295:0.607843 296:0.666667 297:0.466667 298:0.956863 299:1 300:0.815686 301:0.890196 302:0.956863 303:0.732283 304:0.309804 305:0.368627 306:0.168627 307:1 308:1 309:0.894118 310:0.984314 311:1 312:0.905882 313:1 314:1 315:0.94902 316:0.992157 317:0.996078 318:0.956863 319:0.984314 320:0.988235 321:0.952941 322:1 323:1 324:0.968627 325:0.988235 326:1 327:0.937255 328:0.964706 329:0.988235 330:0.898039 331:0.909804 332:0.933333 333:0.835294 334:1 335:1 336:0.933333 337:1 338:1 339:0.945098 340:1 341:1 342:0.952941 343:0.992157 344:0.996078 345:0.960784 346:1 347:1 348:0.960784 349:0.952941 350:0.984314 351:0.865079 352:0.870588 353:0.913725 354:0.756863 355:0.4 356:0.45098 357:0.278431 358:0.913725 359:0.968627 360:0.780392 361:0.823529 362:0.886275 363:0.67451 364:0.533333 365:0.584314 366:0.403922 367:0.964706 368:0.996078 369:0.87451 370:0.984314 371:1 372:0.92549 373:1 374:1 375:0.988235 376:1 377:0.996078 378:1 379:0.996078 380:0.980392 381:1 382:1 383:1 384:1 385:1 386:1 387:0.976378 388:1 389:1 390:0.956863 391:0.988235 392:1 393:0.929412 394:1 395:1 396:0.956863 397:0.968627 398:0.976471 399:0.929412 400:1 401:1 402:0.984314 403:1 404:0.984314 405:1 406:1 407:0.992157 408:1 409:1 410:1 411:0.968627 412:0.996078 413:1 414:0.921569 415:0.384314 416:0.407843 417:0.286275 418:0.929412 419:0.960784 420:0.815686 421:0.898039 422:0.952941 423:0.764706 424:0.627451 425:0.67451 426:0.509804 427:0.984314 428:1 429:0.905882 430:1 431:1 432:0.952941 433:0.988235 434:0.980392 435:0.980392 436:1 437:0.992157 438:1 439:1 440:0.980392 441:1 442:1 443:0.988235 444:1 445:0.988235 446:0.980392 447:0.976471 448:1 449:1 450:0.976471 451:0.984314 452:0.992157 453:0.945098 454:1 455:1 456:0.968627 457:1 458:1 459:0.976471 460:1 461:0.992157 462:0.992157 463:1 464:0.980392 465:1 466:1 467:0.992157 468:1 469:0.992157 470:0.980392 471:0.960784 472:1 473:1 474:0.952941 475:0.423529 476:0.443137 477:0.337255 478:0.92549 479:0.94902 480:0.827451 481:0.972549 482:1 483:0.854331 484:0.654902 485:0.694118 486:0.552941 487:1 488:1 489:0.932806 490:0.996078 491:1 492:0.94902 493:1 494:0.996078 495:0.980392 496:1 497:0.992157 498:1 499:0.996078 500:0.980392 501:1 502:1 503:0.984314 504:1 505:1 506:1 507:1 508:0.972549 509:0.968627 510:0.952941 511:1 512:1 513:0.976471 514:1 515:1 516:0.976471 517:0.996078 518:0.992157 519:0.976471 520:1 521:1 522:1 523:1 524:0.988235 525:1 526:1 527:0.996078 528:0.996078 529:0.992157 530:0.992157 531:0.937255 532:0.933333 533:0.945098 534:0.857708 535:0.490196 536:0.509804 537:0.403922 538:0.988235 539:1 540:0.894118 541:0.992157 542:1 543:0.905882 544:0.745098 545:0.772549 546:0.666667 547:0.913725 548:0.933333 549:0.85098 550:1 551:1 552:0.960784 553:0.968627 554:0.968627 555:0.945098 556:1 557:1 558:1 559:1 560:0.992157 561:1 562:0.996078 563:0.980392 564:1 565:0.972549 566:0.956863 567:0.976471 568:1 569:0.996078 570:1 571:1 572:1 573:1 574:0.984314 575:0.976471 576:0.972441 577:1 578:1 579:0.996078 580:1 581:1 582:1 583:0.980392 584:0.972549 585:0.972549 586:1 587:1 588:0.984314 589:0.980392 590:0.988235 591:0.909804 592:0.698039 593:0.717647 594:0.603922 595:0.776471 596:0.796078 597:0.682353 598:0.980392 599:1 600:0.886275 601:1 602:1 603:0.952941 604:0.956863 605:0.968627 606:0.909804 607:0.733333 608:0.741176 609:0.694118 610:1 611:1 612:0.964706 613:0.992157 614:0.992157 615:0.968627 616:1 617:1 618:0.996078 619:0.992157 620:0.980392 621:0.988235 622:1 623:0.992157 624:1 625:1 626:0.992157 627:1 628:1 629:0.984314 630:1 631:1 632:0.992157 633:1 634:0.996078 635:0.980392 636:1 637:1 638:0.996078 639:1 640:0.980392 641:0.972549 642:0.972549 643:1 644:1 645:0.996078 646:1 647:1 648:0.968627 649:0.976471 650:1 651:0.889764 652:0.415686 653:0.454902 654:0.313725 655:0.937255 656:0.968627 657:0.847059 658:1 659:1 660:0.916335 661:0.996078 662:0.996078 663:0.972549 664:1 665:1 666:0.984314 667:0.839216 668:0.843137 669:0.807843 670:0.831373 671:0.835294 672:0.796078 673:1 674:1 675:0.964706 676:1 677:1 678:0.968627 679:1 680:1 681:0.988235 682:1 683:0.992157 684:0.992157 685:1 686:0.984314 687:1 688:1 689:0.988235 690:1 691:0.988235 692:0.972549 693:0.996078 694:1 695:0.992157 696:1 697:1 698:1 699:1 700:1 701:1 702:0.984314 703:0.956863 704:0.960784 705:0.921569 706:0.984314 707:1 708:0.92549 709:0.658824 710:0.690196 711:0.568627 712:0.752941 713:0.788235 714:0.658824 715:0.996078 716:1 717:0.917647 718:1 719:1 720:0.933333 721:1 722:1 723:0.996032 724:0.992157 725:0.988235 726:0.972441 727:0.972549 728:0.976471 729:0.941176 730:0.686275 731:0.694118 732:0.647059 733:0.996078 734:1 735:0.945098 736:0.976471 737:0.988235 738:0.92549 739:1 740:1 741:0.960784 742:0.996078 743:1 744:0.964706 745:1 746:0.996078 747:0.980392 748:1 749:1 750:1 751:0.964706 752:0.956863 753:0.956863 754:1 755:1 756:0.996078 757:1 758:1 759:0.968627 760:0.980392 761:0.992157 762:0.929412 763:1 764:1 765:0.940239 766:0.952941 767:0.980392 768:0.87451 769:0.443137 770:0.470588 771:0.364706 772:0.956863 773:0.980392 774:0.882353 775:0.984314 776:1 777:0.924603 778:1 779:1 780:0.956863 781:0.996078 782:0.984314 783:0.992157 784:1 785:0.996078 786:0.992157 787:0.992157 788:0.996078 789:0.960784 790:0.976471 791:0.988235 792:0.929412 793:0.564706 794:0.580392 795:0.505882 796:0.984314 797:1 798:0.921569 799:1 800:1 801:0.94902 802:0.976471 803:0.988235 804:0.929412 805:1 806:1 807:0.972549 808:0.992157 809:0.988235 810:0.972549 811:1 812:1 813:0.988235 814:0.972549 815:0.972549 816:0.94902 817:1 818:1 819:0.960784 820:0.980392 821:1 822:0.912698 823:0.992157 824:1 825:0.905882 826:0.34902 827:0.380392 828:0.258824 829:0.921569 830:0.945098 831:0.854902 832:1 833:1 834:0.956863 835:1 836:1 837:0.968627 838:1 839:1 840:0.968627 841:1 842:0.984314 843:1 844:0.988235 845:0.976471 846:0.984314 847:1 848:1 849:0.984314 850:1 851:1 852:0.968627 853:0.901961 854:0.917647 855:0.843137 856:0.52549 857:0.545098 858:0.462745 859:0.956863 860:0.972549 861:0.898039 862:1 863:1 864:0.960784 865:0.972549 866:0.976471 867:0.937255 868:1 869:1 870:0.976378 871:1 872:1 873:0.984314 874:1 875:1 876:0.972549 877:0.980392 878:0.992157 879:0.929412 880:1 881:1 882:0.92549 883:0.419608 884:0.45098 885:0.329412 886:0.792157 887:0.823529 888:0.701961 889:0.956863 890:0.984314 891:0.901961 892:1 893:1 894:0.968627 895:0.980392 896:0.988235 897:0.964706 898:0.984314 899:0.988235 900:0.972549 901:0.992157 902:0.976471 903:1 904:1 905:0.992157 906:1 907:0.996078 908:0.984314 909:0.992157 910:0.972549 911:0.972549 912:0.94902 913:1 914:1 915:0.956863 916:0.913725 917:0.937255 918:0.839216 919:0.470588 920:0.501961 921:0.380392 922:0.984314 923:1 924:0.897638 925:1 926:1 927:0.941176 928:0.984314 929:1 930:0.92549 931:0.992157 932:1 933:0.941176 934:0.960784 935:0.976471 936:0.901961 937:1 938:1 939:0.941176 940:0.419608 941:0.447059 942:0.341176 943:0.65098 944:0.678431 945:0.572549 946:0.976471 947:1 948:0.909804 949:1 950:1 951:0.960784 952:0.984314 953:0.992157 954:0.968627 955:0.996078 956:1 957:0.992157 958:0.996078 959:0.996078 960:0.996078 961:0.996078 962:0.996078 963:0.996078 964:0.980392 965:0.976471 966:0.992157 967:0.996078 968:0.980392 969:1 970:0.996078 971:0.992157 972:1 973:1 974:1 975:0.960784 976:0.94902 977:0.988235 978:0.847059 979:0.54902 980:0.603922 981:0.392157 982:0.431373 983:0.490196 984:0.266667 985:0.94902 986:0.992157 987:0.811024 988:0.996078 989:1 990:0.87451 991:0.992157 992:1 993:0.882353 994:1 995:1 996:0.890196 997:0.407843 998:0.45098 999:0.301961 1000:0.568627 1001:0.6 1002:0.478431 1003:0.992157 1004:1 1005:0.941176 1006:0.988235 1007:0.992157 1008:0.956522 1009:1 1010:1 1011:0.988235 1012:1 1013:1 1014:0.996078 1015:1 1016:1 1017:1 1018:1 1019:1 1020:1 1021:1 1022:1 1023:1 1024:1 1025:0.996078 1026:1 1027:1 1028:0.980392 1029:1 1030:0.988235 1031:0.976471 1032:1 1033:0.992157 1034:1 1035:0.945098 1036:0.996078 1037:1 1038:0.890196 1039:0.45098 1040:0.513725 1041:0.27451 1042:0.564706 1043:0.639216 1044:0.368627 1045:0.396078 1046:0.458824 1047:0.219608 1048:0.815686 1049:0.870588 1050:0.658824 1051:0.952941 1052:1 1053:0.811765 1054:0.345098 1055:0.384314 1056:0.215686 1057:0.533333 1058:0.580392 1059:0.415686 1060:0.968627 1061:1 1062:0.878431 1063:0.996078 1064:1 1065:0.956693 1066:1 1067:1 1068:0.996078 1069:1 1070:1 1071:1 1072:1 1073:1 1074:1 1075:1 1076:1 1077:1 1078:1 1079:1 1080:1 1081:0.968627 1082:0.964706 1083:0.972549 1084:1 1085:0.996078 1086:1 1087:0.992157 1088:0.980392 1089:1 1090:1 1091:0.996078 1092:1 1093:1 1094:1 1095:0.968627 1096:1 1097:1 1098:0.917647 1099:0.980392 1100:1 1101:0.827451 1102:0.486275 1103:0.552941 1104:0.301961 1105:0.521569 1106:0.588235 1107:0.337255 1108:0.403922 1109:0.470588 1110:0.223529 1111:0.364706 1112:0.419608 1113:0.207843 1114:0.54902 1115:0.592157 1116:0.411765 1117:1 1118:1 1119:0.901575 1120:0.988235 1121:1 1122:0.913386 1123:0.992157 1124:1 1125:0.952381 1126:0.996078 1127:0.992157 1128:0.976471 1129:1 1130:1 1131:0.996078 1132:1 1133:1 1134:1 1135:1 1136:1 1137:1 1138:1 1139:1 1140:1 1141:1 1142:0.996078 1143:1 1144:1 1145:0.996078 1146:1 1147:0.992157 1148:0.984314 1149:1 1150:0.976471 1151:0.976471 1152:0.976471 1153:0.988235 1154:0.996078 1155:0.94902 1156:0.964706 1157:0.996078 1158:0.878431 1159:1 1160:1 1161:0.87451 1162:0.968627 1163:1 1164:0.788235 1165:0.576471 1166:0.647059 1167:0.384314 1168:0.584314 1169:0.654902 1170:0.384921 1171:0.721569 1172:0.780392 1173:0.552941 1174:0.964706 1175:1 1176:0.823529 1177:0.980392 1178:1 1179:0.885375 1180:0.992157 1181:1 1182:0.92549 1183:0.984314 1184:0.988235 1185:0.94902 1186:1 1187:1 1188:0.988235 1189:1 1190:1 1191:0.996078 1192:1 1193:1 1194:1 1195:1 1196:1 1197:1 1198:1 1199:1 1200:1 
0.035940588876920081 1:0.0196078 3:0.0156863 4:0.0431373 6:0.0431373 7:0.0745098 9:0.0823529 10:0.0901961 12:0.109804 13:0.156863 14:0.00392157 15:0.181102 16:0.294118 17:0.129412 18:0.301205 19:0.168627 20:0.0156863 21:0.192157 22:0.105882 24:0.109804 25:0.0666667 27:0.054902 28:0.0823529 30:0.0666667 31:0.0470588 33:0.054902 34:0.0784314 36:0.101961 37:0.12549 39:0.160784 40:0.301961 41:0.129412 42:0.337255 43:0.282353 44:0.0784314 45:0.290196 46:0.160784 48:0.172549 49:0.0705882 51:0.101961 52:0.0431373 54:0.0784314 55:0.0196078 57:0.0313725 58:0.0313725 59:0.00392157 60:0.0313725 61:0.0666667 62:0.00392157 63:0.0745098 64:0.054902 66:0.0666667 67:0.305882 68:0.19685 69:0.329412 70:0.392157 71:0.25098 72:0.423529 73:0.341176 74:0.164706 75:0.388235 76:0.380392 77:0.188235 78:0.431373 79:0.368627 80:0.180392 81:0.407843 82:0.498039 83:0.333333 84:0.517647 85:0.0901961 87:0.0941176 88:0.0745098 90:0.0784314 91:0.0941176 93:0.113725 94:0.4 95:0.270588 96:0.443137 97:0.458824 98:0.290196 99:0.513725 100:0.321569 101:0.129412 102:0.370079 103:0.431373 104:0.215686 105:0.462745 106:0.384314 107:0.192157 108:0.407115 109:0.486275 110:0.356863 111:0.529412 112:0.0941176 113:0.0117647 114:0.133858 115:0.0627451 116:0.00392157 117:0.0862745 118:0.027451 120:0.0392157 121:0.0474308 123:0.0988142 124:0.45098 125:0.321569 126:0.494071 127:0.313725 128:0.160784 129:0.364706 130:0.2 131:0.00392157 132:0.254902 133:0.419608 134:0.188235 135:0.501961 136:0.372549 137:0.12549 138:0.462745 139:0.615686 140:0.372549 141:0.701961 142:0.256917 143:0.0431373 144:0.329412 145:0.466667 146:0.282353 147:0.501961 148:0.211765 149:0.0431373 150:0.243137 151:0.576471 152:0.415686 153:0.639216 154:0.141176 156:0.219608 157:0.521569 158:0.317647 159:0.623529 160:0.447059 161:0.219608 162:0.537255 163:0.351779 164:0.121569 165:0.427451 166:0.337302 167:0.129412 168:0.397638 169:0.25098 170:0.0901961 171:0.313725 172:0.580392 173:0.45098 174:0.627451 175:0.14902 176:0.0509804 177:0.184314 178:0.0745098 180:0.0980392 181:0.188235 182:0.0392157 183:0.243137 184:0.227451 185:0.0588235 186:0.282353 187:0.462745 188:0.262745 189:0.529412 190:0.764706 191:0.52549 192:0.839216 193:0.811765 194:0.529412 195:0.905882 196:0.603922 197:0.305882 198:0.701961 199:0.831373 200:0.537255 201:0.921569 202:0.611765 203:0.337255 204:0.694118 205:0.631373 206:0.376471 207:0.686275 208:0.396078 209:0.164706 210:0.454902 211:0.309804 212:0.0901961 213:0.384314 214:0.603922 215:0.376471 216:0.694118 217:0.756863 218:0.513725 219:0.866667 220:0.654902 221:0.403922 222:0.756863 223:0.705882 224:0.45098 225:0.788235 226:0.772549 227:0.52549 228:0.839216 229:0.615686 230:0.396078 231:0.682353 232:0.176471 234:0.228346 235:0.533333 236:0.372549 237:0.572549 238:0.113725 240:0.145098 241:0.431373 242:0.262745 243:0.452 244:0.54902 245:0.360784 246:0.592157 247:0.388235 248:0.145098 249:0.466667 250:0.67451 251:0.389764 252:0.768627 253:0.768627 254:0.45098 255:0.854902 256:0.462745 257:0.129412 258:0.541176 259:0.431373 260:0.0941176 261:0.486275 262:0.298039 264:0.356863 265:0.780392 266:0.462745 267:0.843137 268:0.513725 269:0.211765 270:0.592157 271:0.686275 272:0.407843 273:0.772549 274:0.552941 275:0.282353 276:0.639216 277:0.188235 279:0.270588 280:0.568627 281:0.301961 282:0.65098 283:0.564706 284:0.290196 285:0.647059 286:0.792157 287:0.501961 288:0.870588 289:0.482353 290:0.196078 291:0.556863 292:0.576471 293:0.298039 294:0.635294 295:0.568627 296:0.321569 297:0.603922 298:0.192157 300:0.219608 301:0.52549 302:0.345098 303:0.547244 304:0.207843 306:0.247059 307:0.811765 308:0.545098 309:0.894118 310:0.662745 311:0.352941 312:0.760784 313:0.396078 314:0.0470588 315:0.478431 316:0.533333 317:0.160784 318:0.596078 319:0.607843 320:0.231373 321:0.65098 322:0.662745 323:0.286275 324:0.705882 325:0.556863 326:0.184314 327:0.631373 328:0.541176 329:0.184314 330:0.635294 331:0.427451 332:0.0901961 333:0.521569 334:0.701961 335:0.384314 336:0.788235 337:0.905882 338:0.607843 339:0.976471 340:0.466667 341:0.172549 342:0.533333 343:0.458824 344:0.156863 345:0.541176 346:0.278431 348:0.360784 349:0.835294 350:0.52549 351:0.904762 352:0.627451 353:0.337255 354:0.690196 355:0.262745 356:0.00784314 357:0.305882 358:0.4 359:0.156863 360:0.431373 361:0.443137 362:0.262745 363:0.470588 364:0.188235 366:0.231373 367:0.662745 368:0.396078 369:0.737255 370:0.486275 371:0.164706 372:0.576471 373:0.454902 374:0.0823529 375:0.533333 376:0.984314 377:0.584314 378:1 379:0.901961 380:0.486275 381:0.956863 382:0.898039 383:0.470588 384:0.94902 385:0.956863 386:0.533333 387:1 388:0.858824 389:0.447059 390:0.945098 391:0.694118 392:0.301961 393:0.792157 394:0.792157 395:0.423529 396:0.890196 397:0.823529 398:0.47451 399:0.905882 400:0.662745 401:0.329412 402:0.741176 403:0.498039 404:0.172549 405:0.576471 406:0.368627 407:0.054902 408:0.440945 409:0.623529 410:0.34902 411:0.705882 412:0.560784 413:0.313725 414:0.627451 415:0.419608 416:0.215686 417:0.466667 418:0.12549 420:0.164706 421:0.254902 422:0.0862745 423:0.286275 424:0.490196 425:0.290196 426:0.533333 427:0.52549 428:0.27451 429:0.596078 430:0.823529 431:0.509804 432:0.905882 433:0.34902 435:0.423529 436:0.917647 437:0.505882 438:0.980392 439:0.780392 440:0.341176 441:0.826772 442:0.752941 443:0.298039 444:0.803922 445:0.992157 446:0.529412 447:1 448:0.737255 449:0.282353 450:0.819608 451:0.917647 452:0.490196 453:1 454:0.690196 455:0.286275 456:0.792157 457:0.937255 458:0.552941 459:1 460:0.713725 461:0.352941 462:0.796078 463:0.529412 464:0.180392 465:0.604743 466:0.513725 467:0.2 468:0.588235 469:0.772549 470:0.521569 471:0.843137 472:0.411765 473:0.211765 474:0.478431 475:0.568627 476:0.403922 477:0.619608 478:0.105882 480:0.141176 481:0.0941176 483:0.114173 484:0.431373 485:0.270588 486:0.470588 487:0.388235 488:0.168627 489:0.450593 490:0.792157 491:0.505882 492:0.866667 493:0.305882 495:0.376471 496:0.588235 497:0.192157 498:0.647059 499:0.898039 500:0.470588 501:0.94902 502:0.807843 503:0.352941 504:0.858824 505:0.8 506:0.32549 507:0.866667 508:0.835294 509:0.364706 510:0.921569 511:0.847059 512:0.384314 513:0.941176 514:0.933333 515:0.498039 516:1 517:0.776471 518:0.376471 519:0.866667 520:0.937255 521:0.556863 522:1 523:0.368627 524:0.0117647 525:0.439216 526:0.521569 527:0.215686 528:0.584314 529:0.764706 530:0.545098 531:0.831373 532:0.239216 533:0.0784314 534:0.296443 535:0.305882 536:0.176471 537:0.34902 538:0.101961 540:0.129412 541:0.0901961 543:0.101961 544:0.352941 545:0.231373 546:0.384314 547:0.192157 548:0.00784314 549:0.254902 550:0.478431 551:0.227451 552:0.54902 553:0.858824 554:0.541176 555:0.913725 556:0.498039 557:0.137255 558:0.54902 559:0.917647 560:0.509804 561:0.960784 562:0.937255 563:0.498039 564:0.984314 565:0.886275 566:0.411765 567:0.952941 568:0.886275 569:0.403922 570:0.968627 571:0.858824 572:0.396078 573:0.952941 574:0.772549 575:0.337255 576:0.862205 577:0.776471 578:0.372549 579:0.847059 580:0.752941 581:0.384314 582:0.819608 583:0.490196 584:0.141176 585:0.54902 586:0.776471 587:0.486275 588:0.831373 589:0.188235 591:0.243137 592:0.443137 593:0.294118 594:0.482353 595:0.0862745 597:0.105882 598:0.054902 600:0.0666667 601:0.0352941 603:0.0313725 604:0.0862745 606:0.109804 607:0.396078 608:0.247059 609:0.45098 610:0.45098 611:0.247059 612:0.521569 613:0.717647 614:0.45098 615:0.776471 616:0.333333 617:0.0196078 618:0.376471 619:0.87451 620:0.505882 621:0.901961 622:0.764706 623:0.356863 624:0.8 625:0.913725 626:0.462745 627:0.984314 628:0.839216 629:0.376471 630:0.933333 631:0.862745 632:0.411765 633:0.956863 634:0.776471 635:0.352941 636:0.862745 637:0.882353 638:0.509804 639:0.945098 640:0.368627 641:0.0235294 642:0.415686 643:0.486275 644:0.164706 645:0.537255 646:0.823529 647:0.552941 648:0.870588 649:0.364706 650:0.164706 651:0.405512 652:0.313725 653:0.160784 654:0.341176 655:0.105882 657:0.113725 658:0.0901961 660:0.0717131 661:0.0156863 663:0.027451 664:0.0666667 665:0.00784314 666:0.0901961 667:0.207843 668:0.0980392 669:0.266667 670:0.309804 671:0.137255 672:0.368627 673:0.317647 674:0.0862745 675:0.376471 676:0.85098 677:0.564706 678:0.901961 679:0.482353 680:0.141176 681:0.517647 682:0.788235 683:0.411765 684:0.831373 685:0.690196 686:0.270588 687:0.76378 688:0.917647 689:0.482353 690:1 691:0.788235 692:0.360784 693:0.882353 694:0.866667 695:0.466667 696:0.956863 697:0.615686 698:0.258824 699:0.686275 700:0.745098 701:0.427451 702:0.807843 703:0.792157 704:0.505882 705:0.843137 706:0.2 708:0.239216 709:0.466667 710:0.294118 711:0.501961 712:0.0666667 714:0.0901961 715:0.0666667 717:0.0666667 718:0.054902 720:0.0509804 721:0.0470588 722:0.0156863 723:0.0714286 724:0.0156863 726:0.0511811 727:0.0588235 729:0.101961 730:0.380392 731:0.25098 732:0.427451 733:0.380392 734:0.180392 735:0.443137 736:0.627451 737:0.364706 738:0.698039 739:0.560784 740:0.247059 741:0.635294 742:0.458824 743:0.101961 744:0.529412 745:0.960784 746:0.584314 747:1 748:0.933333 749:0.54902 750:1 751:0.690196 752:0.305882 753:0.792157 754:0.639216 755:0.27451 756:0.74902 757:0.439216 758:0.105882 759:0.552941 760:0.643137 761:0.356863 762:0.741176 763:0.521569 764:0.290196 765:0.577689 766:0.439216 767:0.266667 768:0.47451 769:0.164706 770:0.0627451 771:0.203922 772:0.0352941 774:0.0666667 775:0.027451 777:0.0238095 778:0.0235294 779:0.00392157 780:0.0117647 783:0.0313725 784:0.0431373 785:0.0156863 786:0.0666667 787:0.027451 789:0.0509804 790:0.105882 792:0.129412 793:0.443137 794:0.278431 795:0.494118 796:0.215686 798:0.286275 799:0.803922 800:0.517647 801:0.878431 802:0.713725 803:0.392157 804:0.780392 805:0.27451 807:0.337255 808:0.752941 809:0.411765 810:0.819608 811:0.87451 812:0.533333 813:0.964706 814:0.27451 816:0.392157 817:0.843137 818:0.556863 819:0.960784 820:0.521569 821:0.282353 822:0.615079 823:0.243137 824:0.0627451 825:0.294118 826:0.278431 827:0.168627 828:0.309804 829:0.0352941 831:0.0745098 832:0.00392157 834:0.0313725 838:0.00392157 839:0.0196078 841:0.0196078 842:0.0235294 843:0.0156863 844:0.0352941 845:0.027451 846:0.027451 847:0.0196078 849:0.0156863 850:0.0431373 852:0.0509804 853:0.137255 854:0.00392157 855:0.160784 856:0.423529 857:0.239216 858:0.458824 859:0.419608 860:0.184314 861:0.462745 862:0.580392 863:0.309804 864:0.627451 865:0.603922 866:0.309804 867:0.639216 868:0.270588 870:0.314961 871:0.270588 873:0.34902 874:0.686275 875:0.415686 876:0.772549 877:0.380392 878:0.14902 879:0.466667 880:0.309804 881:0.133333 882:0.380392 883:0.345098 884:0.223529 885:0.368627 886:0.0431373 888:0.0588235 889:0.0235294 891:0.0588235 892:0.00392157 894:0.0352941 896:0.00392157 898:0.00392157 899:0.0313725 900:0.00392157 902:0.00784314 904:0.00784314 905:0.00392157 907:0.0156863 909:0.00392157 910:0.0705882 911:0.0156863 912:0.0627451 913:0.054902 915:0.054902 916:0.2 917:0.0666667 918:0.211765 919:0.482353 920:0.301961 921:0.505882 922:0.376471 923:0.168627 924:0.413386 925:0.678431 926:0.443137 927:0.717647 928:0.482353 929:0.243137 930:0.533333 931:0.482353 932:0.25098 933:0.545098 934:0.717647 935:0.505882 936:0.776471 937:0.247059 938:0.0784314 939:0.301961 940:0.388235 941:0.262745 942:0.423529 943:0.0705882 945:0.0823529 946:0.027451 948:0.0392157 949:0.00784314 951:0.0352941 954:0.0156863 955:0.0352941 956:0.0470588 957:0.0392157 959:0.00784314 961:0.0117647 962:0.0117647 963:0.0117647 967:0.0196078 968:0.00784314 969:0.0156863 970:0.0235294 972:0.0196078 973:0.0392157 975:0.0392157 976:0.0509804 978:0.0588235 979:0.156863 980:0.0509804 981:0.180392 982:0.454902 983:0.313725 984:0.494118 985:0.14902 987:0.200787 988:0.768627 989:0.596078 990:0.827451 991:0.643137 992:0.486275 993:0.701961 994:0.113725 996:0.14902 997:0.521569 998:0.419608 999:0.537255 1000:0.0470588 1002:0.054902 1003:0.054902 1004:0.00392157 1005:0.0666667 1006:0.0196078 1008:0.0237154 1011:0.0156863 1014:0.00392157 1019:0.00392157 1023:0.00392157 1026:0.00392157 1027:0.0196078 1028:0.00784314 1029:0.0156863 1030:0.0156863 1031:0.00392157 1032:0.0117647 1033:0.0431373 1034:0.0156863 1035:0.027451 1036:0.0352941 1038:0.0313725 1039:0.0470588 1041:0.0666667 1042:0.203922 1043:0.105882 1044:0.239216 1045:0.407843 1046:0.282353 1047:0.466667 1048:0.27451 1049:0.137255 1050:0.333333 1051:0.133333 1052:0.0156863 1053:0.176471 1054:0.592157 1055:0.498039 1056:0.615686 1057:0.0588235 1059:0.054902 1060:0.027451 1062:0.0235294 1063:0.027451 1065:0.0314961 1066:0.00784314 1068:0.0235294 1071:0.00392157 1081:0.00392157 1082:0.00392157 1083:0.00392157 1087:0.0156863 1088:0.00784314 1089:0.00784314 1090:0.00784314 1093:0.027451 1094:0.00392157 1095:0.00784314 1096:0.0431373 1097:0.00392157 1098:0.027451 1099:0.0352941 1101:0.0431373 1102:0.0705882 1104:0.101961 1105:0.235294 1106:0.113725 1107:0.290196 1108:0.360784 1109:0.227451 1110:0.411765 1111:0.529412 1112:0.415686 1113:0.568627 1114:0.0588235 1116:0.0784314 1117:0.0588235 1119:0.0433071 1120:0.0509804 1121:0.00784314 1122:0.0354331 1123:0.0392157 1124:0.0117647 1125:0.0277778 1126:0.00784314 1128:0.0156863 1131:0.00392157 1141:0.0156863 1142:0.0196078 1143:0.0117647 1144:0.00392157 1145:0.00784314 1147:0.0235294 1148:0.0156863 1149:0.0117647 1150:0.00784314 1153:0.0196078 1156:0.0431373 1157:0.00392157 1158:0.027451 1159:0.0470588 1161:0.0509804 1162:0.0705882 1164:0.0941176 1165:0.0980392 1167:0.14902 1168:0.305882 1169:0.176471 1170:0.345238 1171:0.0745098 1173:0.105882 1174:0.0588235 1176:0.0705882 1177:0.0705882 1178:0.00392157 1179:0.0474308 1180:0.027451 1182:0.0117647 1183:0.0156863 1185:0.0156863 1186:0.0470588 1187:0.0313725 1188:0.0509804 1191:0.00392157 
0.017741663099776265 1:0.870588 2:0.854902 3:0.898039 4:0.952941 5:0.941176 6:0.976471 7:0.980392 8:0.976471 9:0.992157 10:0.972549 11:0.956863 12:1 13:0.996078 14:0.94902 15:1 16:0.984314 17:0.929412 18:1 19:0.956863 20:0.894118 21:1 22:0.996078 23:0.937255 24:1 25:0.992157 26:0.941176 27:1 28:0.988235 29:0.952941 30:1 31:1 32:1 33:0.972549 34:0.968627 35:0.976471 36:0.901961 37:0.905882 38:0.917647 39:0.858824 40:1 41:1 42:0.964706 43:0.988235 44:1 45:0.960784 46:1 47:1 48:0.976471 49:0.984314 50:0.996078 51:0.960784 52:1 53:1 54:0.984314 55:0.972549 56:0.976471 57:0.960784 58:0.980392 59:0.984314 60:0.976471 61:0.886275 62:0.866667 63:0.92549 64:0.894118 65:0.87451 66:0.933333 67:0.976471 68:0.952756 69:1 70:0.901961 71:0.866667 72:0.968627 73:0.647059 74:0.596078 75:0.721569 76:0.572549 77:0.509804 78:0.670588 79:0.670588 80:0.588235 81:0.780392 82:0.784314 83:0.705882 84:0.890196 85:1 86:0.937255 87:1 88:1 89:0.960784 90:1 91:0.992157 92:0.972549 93:0.980392 94:0.909804 95:0.901961 96:0.898039 97:0.980392 98:0.956863 99:1 100:0.992157 101:0.968627 102:1 103:0.94902 104:0.92549 105:1 106:0.94902 107:0.92549 108:0.992095 109:0.968627 110:0.952941 111:1 112:0.988235 113:0.976471 114:1 115:1 116:0.996078 117:1 118:0.964706 119:0.960784 120:0.968627 121:0.897233 122:0.870588 123:0.952569 124:0.905882 125:0.866667 126:0.98419 127:0.894118 128:0.831373 129:1 130:0.545098 131:0.47451 132:0.682353 133:0.678431 134:0.615686 135:0.776471 136:0.694118 137:0.619608 138:0.811765 139:0.568627 140:0.443137 141:0.760784 142:0.533597 143:0.407843 144:0.737255 145:0.623529 146:0.537255 147:0.768627 148:0.968627 149:0.905882 150:1 151:0.945098 152:0.901961 153:1 154:0.952941 155:0.901961 156:1 157:0.909804 158:0.819608 159:1 160:0.74902 161:0.647059 162:0.945098 163:0.70751 164:0.607843 165:0.905882 166:0.706349 167:0.627451 168:0.893701 169:0.776471 170:0.705882 171:0.913725 172:0.960784 173:0.909804 174:1 175:0.984314 176:0.956863 177:1 178:0.843137 179:0.827451 180:0.87451 181:0.913725 182:0.870588 183:0.996078 184:0.901961 185:0.843137 186:1 187:0.533333 188:0.439216 189:0.721569 190:0.701961 191:0.603922 192:0.894118 193:0.956863 194:0.882353 195:1 196:0.921569 197:0.839216 198:1 199:0.694118 200:0.560784 201:0.901961 202:0.564706 203:0.431373 204:0.8 205:0.537255 206:0.435294 207:0.709804 208:0.807843 209:0.72549 210:0.941176 211:0.901961 212:0.827451 213:1 214:0.74902 215:0.666667 216:0.913725 217:0.517647 218:0.396078 219:0.760784 220:0.490196 221:0.360784 222:0.768627 223:0.564706 224:0.443137 225:0.823529 226:0.517647 227:0.415686 228:0.745098 229:0.603922 230:0.513725 231:0.780392 232:0.529412 233:0.458824 234:0.665354 235:0.917647 236:0.866667 237:1 238:0.929412 239:0.886275 240:1 241:0.945098 242:0.882353 243:1 244:0.627451 245:0.545098 246:0.788235 247:0.541176 248:0.427451 249:0.764706 250:0.564706 251:0.448819 252:0.788235 253:0.952941 254:0.866667 255:1 256:0.901961 257:0.819608 258:1 259:0.639216 260:0.533333 261:0.819608 262:0.741176 263:0.631373 264:0.929412 265:0.85098 266:0.74902 267:1 268:0.576471 269:0.482353 270:0.756863 271:0.776471 272:0.67451 273:0.980392 274:0.509804 275:0.4 276:0.752941 277:0.611765 278:0.482353 279:0.890196 280:0.588235 281:0.470588 282:0.866667 283:0.6 284:0.509804 285:0.831373 286:0.933333 287:0.85098 288:1 289:0.952941 290:0.878431 291:1 292:0.639216 293:0.568627 294:0.776471 295:0.556863 296:0.482353 297:0.698039 298:0.870588 299:0.796078 300:1 301:0.913725 302:0.835294 303:1 304:0.52549 305:0.435294 306:0.701961 307:0.603922 308:0.490196 309:0.823529 310:0.52549 311:0.411765 312:0.74902 313:0.521569 314:0.419608 315:0.694118 316:0.588235 317:0.494118 318:0.745098 319:0.658824 320:0.552941 321:0.843137 322:0.945098 323:0.843137 324:1 325:0.952941 326:0.85098 327:1 328:0.756863 329:0.654902 330:0.980392 331:0.552941 332:0.435294 333:0.807843 334:0.568627 335:0.45098 336:0.847059 337:0.490196 338:0.380392 339:0.756863 340:0.533333 341:0.431373 342:0.784314 343:0.607843 344:0.521569 345:0.831373 346:0.952941 347:0.87451 348:1 349:0.937255 350:0.85098 351:1 352:0.698039 353:0.611765 354:0.866667 355:0.501961 356:0.407843 357:0.690196 358:0.74902 359:0.647059 360:0.945098 361:0.858824 362:0.764706 363:1 364:0.505882 365:0.411765 366:0.666667 367:0.619608 368:0.529412 369:0.796078 370:0.839216 371:0.745098 372:1 373:0.792157 374:0.690196 375:0.988235 376:0.541176 377:0.431373 378:0.756863 379:0.529412 380:0.407843 381:0.772549 382:0.796078 383:0.670588 384:1 385:0.823529 386:0.701961 387:1 388:0.623529 389:0.509804 390:0.87451 391:0.494118 392:0.368627 393:0.764706 394:0.545098 395:0.439216 396:0.807843 397:0.8 398:0.717647 399:1 400:0.745098 401:0.670588 402:0.956863 403:0.458824 404:0.364706 405:0.709804 406:0.6 407:0.494118 408:0.862205 409:0.643137 410:0.521569 411:0.878431 412:0.509804 413:0.384314 414:0.733333 415:0.572549 416:0.443137 417:0.8 418:0.729412 419:0.596078 420:0.964706 421:0.870588 422:0.784314 423:1 424:0.498039 425:0.411765 426:0.643137 427:0.831373 428:0.74902 429:0.992157 430:0.941176 431:0.847059 432:1 433:0.929412 434:0.815686 435:1 436:0.603922 437:0.47451 438:0.854902 439:0.568627 440:0.431373 441:0.838583 442:0.521569 443:0.396078 444:0.792157 445:0.501961 446:0.392157 447:0.741176 448:0.517647 449:0.407843 450:0.760784 451:0.556863 452:0.435294 453:0.847059 454:0.662745 455:0.552941 456:0.929412 457:0.929412 458:0.858824 459:1 460:0.945098 461:0.882353 462:1 463:0.639216 464:0.545098 465:0.889328 466:0.584314 467:0.478431 468:0.847059 469:0.780392 470:0.666667 471:1 472:0.682353 473:0.560784 474:0.894118 475:0.513725 476:0.388235 477:0.737255 478:0.717647 479:0.584314 480:0.952941 481:0.941176 482:0.878431 483:1 484:0.521569 485:0.447059 486:0.639216 487:0.611765 488:0.517647 489:0.790514 490:0.905882 491:0.792157 492:1 493:0.792157 494:0.658824 495:1 496:0.533333 497:0.392157 498:0.815686 499:0.592157 500:0.458824 501:0.882353 502:0.545098 503:0.427451 504:0.8 505:0.745098 506:0.662745 507:0.933333 508:0.627451 509:0.54902 510:0.835294 511:0.521569 512:0.396078 513:0.823529 514:0.592157 515:0.466667 516:0.894118 517:0.890196 518:0.811765 519:1 520:0.87451 521:0.807843 522:1 523:0.517647 524:0.439216 525:0.741176 526:0.85098 527:0.772549 528:1 529:0.937255 530:0.866667 531:1 532:0.952941 533:0.878431 534:1 535:0.52549 536:0.431373 537:0.686275 538:0.752941 539:0.647059 540:0.937255 541:0.964706 542:0.913725 543:1 544:0.701961 545:0.631373 546:0.815686 547:0.533333 548:0.431373 549:0.737255 550:0.541176 551:0.407843 552:0.8 553:0.52549 554:0.380392 555:0.811765 556:0.580392 557:0.439216 558:0.886275 559:0.486275 560:0.345098 561:0.784314 562:0.741176 563:0.619608 564:1 565:0.917647 566:0.843137 567:1 568:0.933333 569:0.854902 570:1 571:0.568627 572:0.443137 573:0.866667 574:0.545098 575:0.419608 576:0.846457 577:0.47451 578:0.392157 579:0.701961 580:0.513725 581:0.443137 582:0.721569 583:0.513725 584:0.423529 585:0.752941 586:0.752941 587:0.666667 588:0.972549 589:0.941176 590:0.866667 591:1 592:0.823529 593:0.752941 594:0.937255 595:0.501961 596:0.419608 597:0.635294 598:0.866667 599:0.780392 600:1 601:0.980392 602:0.92549 603:1 604:0.886275 605:0.807843 606:1 607:0.545098 608:0.427451 609:0.776471 610:0.509804 611:0.360784 612:0.8 613:0.6 614:0.45098 615:0.917647 616:0.592157 617:0.443137 618:0.913725 619:0.552941 620:0.411765 621:0.858824 622:0.709804 623:0.592157 624:0.996078 625:0.909804 626:0.815686 627:1 628:0.854902 629:0.760784 630:1 631:0.533333 632:0.415686 633:0.819608 634:0.541176 635:0.427451 636:0.815686 637:0.631373 638:0.552941 639:0.839216 640:0.529412 641:0.447059 642:0.741176 643:0.541176 644:0.419608 645:0.831373 646:0.501961 647:0.360784 648:0.8 649:0.54902 650:0.419608 651:0.799213 652:0.498039 653:0.384314 654:0.694118 655:0.662745 656:0.576471 657:0.803922 658:0.972549 659:0.905882 660:1 661:0.992157 662:0.941176 663:1 664:0.992157 665:0.92549 666:1 667:0.74902 668:0.65098 669:0.941176 670:0.556863 671:0.435294 672:0.8 673:0.545098 674:0.419608 675:0.815686 676:0.521569 677:0.392157 678:0.8 679:0.572549 680:0.458824 681:0.847059 682:0.494118 683:0.384314 684:0.760784 685:0.556863 686:0.45098 687:0.818898 688:0.545098 689:0.439216 690:0.807843 691:0.509804 692:0.396078 693:0.784314 694:0.803922 695:0.705882 696:1 697:0.905882 698:0.831373 699:1 700:0.776471 701:0.698039 702:0.984314 703:0.529412 704:0.396078 705:0.819608 706:0.576471 707:0.431373 708:0.886275 709:0.54902 710:0.415686 711:0.811765 712:0.67451 713:0.560784 714:0.870588 715:0.964706 716:0.894118 717:1 718:0.980392 719:0.929412 720:1 721:1 722:0.972549 723:1 724:0.956863 725:0.913725 726:1 727:0.952941 728:0.909804 729:1 730:0.588235 731:0.533333 732:0.698039 733:0.564706 734:0.501961 735:0.713725 736:0.94902 737:0.87451 738:1 739:0.921569 740:0.85098 741:1 742:0.67451 743:0.588235 744:0.898039 745:0.552941 746:0.439216 747:0.827451 748:0.533333 749:0.415686 750:0.819608 751:0.541176 752:0.423529 753:0.796078 754:0.870588 755:0.772549 756:1 757:0.937255 758:0.866667 759:1 760:0.87451 761:0.796078 762:1 763:0.541176 764:0.419608 765:0.780876 766:0.564706 767:0.443137 768:0.807843 769:0.709804 770:0.611765 771:0.878431 772:0.921569 773:0.854902 774:1 775:0.996078 776:0.94902 777:1 778:1 779:0.964706 780:1 781:0.964706 782:0.937255 783:0.988235 784:0.996078 785:0.972549 786:1 787:0.988235 788:0.980392 789:1 790:0.929412 791:0.913725 792:0.960784 793:0.533333 794:0.498039 795:0.627451 796:0.945098 797:0.886275 798:1 799:0.937255 800:0.870588 801:1 802:0.737255 803:0.65098 804:0.956863 805:0.486275 806:0.380392 807:0.745098 808:0.627451 809:0.521569 810:0.886275 811:0.541176 812:0.439216 813:0.764706 814:0.584314 815:0.501961 816:0.772549 817:0.768627 818:0.690196 819:0.921569 820:0.517647 821:0.439216 822:0.666667 823:0.509804 824:0.415686 825:0.690196 826:0.807843 827:0.72549 828:0.968627 829:0.968627 830:0.913725 831:1 832:0.992157 833:0.960784 834:1 835:0.992157 836:0.964706 837:1 838:0.996078 839:0.972549 840:1 841:1 842:0.996078 843:1 844:0.945098 845:0.945098 846:0.945098 847:0.941176 848:0.945098 849:0.929412 850:0.976471 851:0.964706 852:1 853:0.764706 854:0.72549 855:0.866667 856:0.568627 857:0.494118 858:0.741176 859:0.709804 860:0.6 861:0.94902 862:0.501961 863:0.388235 864:0.752941 865:0.647059 866:0.556863 867:0.85098 868:0.905882 869:0.827451 870:1 871:0.901961 872:0.823529 873:1 874:0.596078 875:0.517647 876:0.74902 877:0.513725 878:0.419608 879:0.670588 880:0.65098 881:0.564706 882:0.792157 883:0.929412 884:0.866667 885:1 886:1 887:0.960784 888:1 889:0.988235 890:0.976471 891:0.984314 892:0.917647 893:0.913725 894:0.898039 895:1 896:0.992157 897:0.992157 898:0.968627 899:0.952941 900:0.972549 901:0.964706 902:0.972549 903:0.94902 904:0.988235 905:0.996078 906:0.972549 907:0.980392 908:0.988235 909:0.964706 910:1 911:0.992157 912:1 913:0.980392 914:0.94902 915:1 916:0.67451 917:0.603922 918:0.843137 919:0.513725 920:0.4 921:0.764706 922:0.541176 923:0.419608 924:0.799213 925:0.745098 926:0.65098 927:0.956863 928:0.933333 929:0.858824 930:1 931:0.945098 932:0.87451 933:1 934:0.596078 935:0.529412 936:0.729412 937:0.643137 938:0.560784 939:0.776471 940:0.972549 941:0.905882 942:1 943:0.984314 944:0.94902 945:1 946:0.94902 947:0.937255 948:0.945098 949:0.972549 950:0.976471 951:0.937255 952:1 953:1 954:0.964706 955:0.972549 956:0.968627 957:0.952941 958:0.968627 959:0.960784 960:0.960784 961:0.988235 962:1 963:0.960784 964:0.964706 965:0.972549 966:0.94902 967:0.988235 968:0.988235 969:0.988235 970:0.917647 971:0.901961 972:0.945098 973:0.898039 974:0.87451 975:0.964706 976:0.941176 977:0.890196 978:1 979:0.623529 980:0.533333 981:0.827451 982:0.552941 983:0.439216 984:0.803922 985:0.588235 986:0.470588 987:0.84252 988:0.682353 989:0.576471 990:0.913725 991:0.690196 992:0.607843 993:0.854902 994:0.607843 995:0.545098 996:0.729412 997:1 998:0.945098 999:1 1000:0.941176 1001:0.901961 1002:0.992157 1003:0.913725 1004:0.882353 1005:0.921569 1006:0.901961 1007:0.894118 1008:0.893281 1009:0.913725 1010:0.909804 1011:0.894118 1012:1 1013:1 1014:0.988235 1015:0.921569 1016:0.92549 1017:0.917647 1018:0.972549 1019:0.972549 1020:0.972549 1021:0.976471 1022:0.992157 1023:0.94902 1024:0.996078 1025:1 1026:0.980392 1027:1 1028:0.996078 1029:1 1030:0.929412 1031:0.917647 1032:0.952941 1033:0.858824 1034:0.854902 1035:0.894118 1036:0.894118 1037:0.866667 1038:0.972549 1039:0.803922 1040:0.737255 1041:0.960784 1042:0.564706 1043:0.470588 1044:0.776471 1045:0.529412 1046:0.415686 1047:0.780392 1048:0.494118 1049:0.388235 1050:0.72549 1051:0.67451 1052:0.596078 1053:0.827451 1054:0.992157 1055:0.941176 1056:1 1057:0.976471 1058:0.941176 1059:1 1060:0.988235 1061:0.968627 1062:1 1063:0.882353 1064:0.858824 1065:0.877953 1066:0.866667 1067:0.858824 1068:0.858824 1069:0.941176 1070:0.933333 1071:0.933333 1072:0.976471 1073:0.976471 1074:0.976471 1075:0.929412 1076:0.929412 1077:0.929412 1078:0.984314 1079:0.984314 1080:0.984314 1081:1 1082:1 1083:0.984314 1084:0.992157 1085:0.996078 1086:0.980392 1087:0.996078 1088:0.996078 1089:0.996078 1090:0.976471 1091:0.976471 1092:0.976471 1093:0.917647 1094:0.929412 1095:0.921569 1096:0.894118 1097:0.890196 1098:0.929412 1099:0.960784 1100:0.921569 1101:1 1102:0.745098 1103:0.682353 1104:0.894118 1105:0.490196 1106:0.407843 1107:0.678431 1108:0.694118 1109:0.619608 1110:0.866667 1111:0.941176 1112:0.886275 1113:1 1114:0.960784 1115:0.929412 1116:1 1117:0.976471 1118:0.94902 1119:1 1120:0.996078 1121:0.980392 1122:1 1123:0.917647 1124:0.894118 1125:0.912698 1126:0.886275 1127:0.87451 1128:0.882353 1129:0.972549 1130:0.964706 1131:0.964706 1132:0.941176 1133:0.941176 1134:0.941176 1135:0.94902 1136:0.94902 1137:0.94902 1138:1 1139:1 1140:1 1141:1 1142:1 1143:0.988235 1144:0.984314 1145:0.988235 1146:0.972549 1147:1 1148:1 1149:1 1150:0.988235 1151:0.992157 1152:0.984314 1153:0.992157 1154:1 1155:0.976471 1156:0.952941 1157:0.960784 1158:0.960784 1159:0.976471 1160:0.952941 1161:1 1162:0.945098 1163:0.898039 1164:1 1165:0.768627 1166:0.701961 1167:0.92549 1168:0.882353 1169:0.819608 1170:1 1171:0.992157 1172:0.94902 1173:1 1174:0.984314 1175:0.960784 1176:1 1177:1 1178:0.988235 1179:1 1180:1 1181:0.988235 1182:1 1183:0.972549 1184:0.94902 1185:0.968627 1186:0.992157 1187:0.980392 1188:0.988235 1189:0.988235 1190:0.976471 1191:0.984314 1192:0.917647 1193:0.917647 1194:0.917647 1195:0.976471 1196:0.976471 1197:0.976471 1198:1 1199:1 1200:1 
0.082047351422036466 1:0.992157 2:0.984314 3:1 4:1 5:0.992157 6:1 7:0.996078 8:0.964706 9:1 10:0.784314 11:0.752941 12:0.796078 13:0.733333 14:0.690196 15:0.751969 16:0.65098 17:0.607843 18:0.662651 19:0.776471 20:0.737255 21:0.788235 22:0.992157 23:0.956863 24:1 25:1 26:0.980392 27:1 28:0.996078 29:0.972549 30:1 31:1 32:0.988235 33:1 34:0.968627 35:0.956863 36:0.992157 37:1 38:0.984314 39:1 40:0.992157 41:0.968627 42:1 43:0.956863 44:0.917647 45:0.968627 46:0.976471 47:0.945098 48:0.988235 49:0.996078 50:0.976471 51:1 52:0.996078 53:0.988235 54:1 55:0.984314 56:0.980392 57:0.996078 58:1 59:0.996078 60:1 61:0.992157 62:0.980392 63:1 64:0.988235 65:0.968627 66:1 67:0.611765 68:0.57874 69:0.623529 70:0.894118 71:0.858824 72:0.909804 73:0.623529 74:0.580392 75:0.643137 76:0.733333 77:0.690196 78:0.752941 79:0.792157 80:0.752941 81:0.803922 82:0.388235 83:0.356863 84:0.4 85:1 86:0.980392 87:1 88:1 89:0.980392 90:1 91:0.964706 92:0.952941 93:0.988235 94:0.996078 95:0.984314 96:1 97:0.639216 98:0.615686 99:0.658824 100:0.662745 101:0.631373 102:0.673228 103:0.423529 104:0.384314 105:0.435294 106:0.772549 107:0.737255 108:0.786561 109:0.686275 110:0.666667 111:0.701961 112:0.92549 113:0.917647 114:0.940945 115:0.996078 116:0.988235 117:1 118:0.992157 119:0.984314 120:1 121:0.988142 122:0.964706 123:1 124:0.576471 125:0.552941 126:0.592885 127:0.541176 128:0.509804 129:0.552941 130:0.803922 131:0.768627 132:0.819608 133:0.705882 134:0.662745 135:0.72549 136:0.752941 137:0.701961 138:0.764706 139:0.619608 140:0.580392 141:0.631373 142:0.774704 143:0.745098 144:0.788235 145:0.662745 146:0.631373 147:0.67451 148:1 149:0.988235 150:1 151:0.984314 152:0.964706 153:1 154:0.541176 155:0.521569 156:0.556863 157:0.74902 158:0.717647 159:0.760784 160:0.607843 161:0.576471 162:0.619608 163:0.802372 164:0.764706 165:0.815686 166:0.765873 167:0.733333 168:0.783465 169:0.694118 170:0.666667 171:0.717647 172:0.443137 173:0.419608 174:0.462745 175:1 176:0.984314 177:1 178:0.960784 179:0.941176 180:0.976471 181:0.819608 182:0.792157 183:0.843137 184:0.788235 185:0.760784 186:0.811765 187:0.952941 188:0.917647 189:0.968627 190:0.713725 191:0.670588 192:0.733333 193:0.980392 194:0.929412 195:0.992157 196:1 197:0.976471 198:1 199:0.737255 200:0.698039 201:0.745098 202:0.996078 203:0.960784 204:1 205:0.584314 206:0.552941 207:0.592157 208:0.898039 209:0.882353 210:0.905882 211:0.635294 212:0.619608 213:0.643137 214:0.776471 215:0.760784 216:0.784314 217:0.87451 218:0.843137 219:0.882353 220:0.866667 221:0.831373 222:0.882353 223:0.992157 224:0.94902 225:1 226:0.756863 227:0.713725 228:0.776471 229:0.917647 230:0.878431 231:0.941176 232:0.713725 233:0.686275 234:0.744094 235:0.717647 236:0.682353 237:0.733333 238:0.992157 239:0.964706 240:1 241:0.752941 242:0.72549 243:0.78 244:0.784314 245:0.756863 246:0.815686 247:0.709804 248:0.670588 249:0.733333 250:0.54902 251:0.503937 252:0.568627 253:0.882353 254:0.831373 255:0.894118 256:1 257:0.956863 258:1 259:0.709804 260:0.670588 261:0.717647 262:1 263:0.976471 264:1 265:0.772549 266:0.745098 267:0.772549 268:0.576471 269:0.552941 270:0.572549 271:0.807843 272:0.792157 273:0.811765 274:0.807843 275:0.792157 276:0.815686 277:0.847059 278:0.815686 279:0.854902 280:0.901961 281:0.866667 282:0.917647 283:0.976471 284:0.933333 285:0.996078 286:0.556863 287:0.509804 288:0.580392 289:0.705882 290:0.658824 291:0.729412 292:0.65098 293:0.611765 294:0.678431 295:0.768627 296:0.721569 297:0.792157 298:0.941176 299:0.901961 300:0.968627 301:0.737255 302:0.705882 303:0.771654 304:0.662745 305:0.623529 306:0.690196 307:0.603922 308:0.556863 309:0.627451 310:1 311:0.952941 312:1 313:0.576471 314:0.52549 315:0.588235 316:0.709804 317:0.658824 318:0.713725 319:0.705882 320:0.666667 321:0.713725 322:1 323:0.976471 324:1 325:0.788235 326:0.764706 327:0.784314 328:0.670588 329:0.647059 330:0.666667 331:0.968627 332:0.952941 333:0.972549 334:0.752941 335:0.737255 336:0.760784 337:0.937255 338:0.905882 339:0.945098 340:0.545098 341:0.505882 342:0.556863 343:0.701961 344:0.647059 345:0.717647 346:0.941176 347:0.886275 348:0.956863 349:0.72549 350:0.678431 351:0.753968 352:0.564706 353:0.517647 354:0.596078 355:0.858824 356:0.811765 357:0.890196 358:0.890196 359:0.843137 360:0.921569 361:0.423529 362:0.380392 363:0.458824 364:0.831373 365:0.788235 366:0.866667 367:1 368:0.972549 369:1 370:0.588235 371:0.541176 372:0.611765 373:0.658824 374:0.607843 375:0.670588 376:1 377:0.968627 378:1 379:0.65098 380:0.607843 381:0.647059 382:0.729412 383:0.698039 384:0.72549 385:0.929412 386:0.905882 387:0.925197 388:0.996078 389:0.976471 390:0.984314 391:0.980392 392:0.964706 393:0.984314 394:0.690196 395:0.67451 396:0.698039 397:0.627451 398:0.596078 399:0.639216 400:0.988235 401:0.94902 402:1 403:0.658824 404:0.603922 405:0.67451 406:0.768627 407:0.709804 408:0.791339 409:0.772549 410:0.709804 411:0.8 412:0.984314 413:0.921569 414:1 415:0.376471 416:0.317647 417:0.4 418:0.843137 419:0.784314 420:0.866667 421:0.490196 422:0.447059 423:0.52549 424:0.745098 425:0.705882 426:0.772549 427:0.576471 428:0.529412 429:0.6 430:1 431:0.956863 432:1 433:0.933333 434:0.882353 435:0.945098 436:0.560784 437:0.509804 438:0.564706 439:0.760784 440:0.717647 441:0.755906 442:0.694118 443:0.666667 444:0.686275 445:1 446:0.980392 447:1 448:1 449:0.996078 450:1 451:1 452:0.984314 453:1 454:0.941176 455:0.92549 456:0.94902 457:0.654902 458:0.623529 459:0.666667 460:0.682353 461:0.643137 462:0.694118 463:0.662745 464:0.607843 465:0.675889 466:1 467:0.960784 468:1 469:0.611765 470:0.552941 471:0.635294 472:0.8 473:0.741176 474:0.823529 475:0.498039 476:0.439216 477:0.521569 478:0.854902 479:0.8 480:0.870588 481:0.678431 482:0.647059 483:0.712598 484:0.913725 485:0.87451 486:0.941176 487:0.780392 488:0.733333 489:0.802372 490:0.890196 491:0.847059 492:0.909804 493:0.552941 494:0.501961 495:0.564706 496:0.996078 497:0.94902 498:0.996078 499:0.886275 500:0.85098 501:0.890196 502:0.866667 503:0.839216 504:0.858824 505:1 506:0.988235 507:1 508:0.984314 509:0.964706 510:0.972549 511:0.996078 512:0.980392 513:1 514:1 515:0.992157 516:1 517:0.745098 518:0.713725 519:0.752941 520:1 521:0.968627 522:1 523:0.556863 524:0.501961 525:0.572549 526:0.929412 527:0.87451 528:0.945098 529:0.666667 530:0.611765 531:0.682353 532:1 533:0.94902 534:1 535:0.572549 536:0.517647 537:0.588235 538:0.976471 539:0.92549 540:0.988235 541:0.996078 542:0.968627 543:1 544:0.54902 545:0.521569 546:0.580392 547:0.615686 548:0.576471 549:0.639216 550:0.701961 551:0.662745 552:0.713725 553:0.980392 554:0.929412 555:0.984314 556:0.572549 557:0.52549 558:0.572549 559:0.513725 560:0.478431 561:0.517647 562:1 563:0.980392 564:1 565:1 566:0.988235 567:1 568:1 569:0.996078 570:1 571:0.996078 572:0.980392 573:1 574:0.984314 575:0.968627 576:0.992126 577:0.670588 578:0.639216 579:0.678431 580:0.65098 581:0.619608 582:0.662745 583:0.768627 584:0.72549 585:0.788235 586:0.843137 587:0.792157 588:0.854902 589:0.611765 590:0.560784 591:0.623529 592:0.784314 593:0.733333 594:0.788235 595:0.52549 596:0.47451 597:0.529412 598:1 599:0.94902 600:1 601:0.988235 602:0.972549 603:1 604:0.72549 605:0.701961 606:0.745098 607:0.647059 608:0.615686 609:0.658824 610:1 611:0.984314 612:1 613:0.835294 614:0.796078 615:0.843137 616:0.913725 617:0.87451 618:0.921569 619:0.764706 620:0.729412 621:0.768627 622:0.74902 623:0.717647 624:0.745098 625:0.65098 626:0.627451 627:0.647059 628:0.831373 629:0.815686 630:0.835294 631:0.717647 632:0.701961 633:0.721569 634:0.701961 635:0.686275 636:0.709804 637:0.756863 638:0.72549 639:0.764706 640:0.980392 641:0.94902 642:0.992157 643:0.686275 644:0.643137 645:0.705882 646:0.988235 647:0.945098 648:1 649:0.780392 650:0.741176 651:0.787402 652:0.74902 653:0.709804 654:0.756863 655:0.839216 656:0.803922 657:0.843137 658:1 659:0.976471 660:1 661:0.984314 662:0.976471 663:1 664:1 665:0.992157 666:1 667:0.513725 668:0.494118 669:0.529412 670:0.54902 671:0.517647 672:0.556863 673:0.839216 674:0.8 675:0.847059 676:0.709804 677:0.670588 678:0.717647 679:0.780392 680:0.745098 681:0.784314 682:0.831373 683:0.8 684:0.839216 685:1 686:0.992157 687:1 688:0.6 689:0.596078 690:0.611765 691:0.917647 692:0.913725 693:0.929412 694:0.988235 695:0.980392 696:1 697:0.694118 698:0.678431 699:0.701961 700:0.6 701:0.568627 702:0.607843 703:0.905882 704:0.866667 705:0.917647 706:0.662745 707:0.623529 708:0.67451 709:0.592157 710:0.556863 711:0.596078 712:0.670588 713:0.643137 714:0.670588 715:1 716:0.968627 717:0.996078 718:1 719:0.980392 720:1 721:0.996078 722:0.996078 723:0.996032 724:0.968627 725:0.964706 726:0.972441 727:1 728:0.992157 729:1 730:0.619608 731:0.603922 732:0.627451 733:0.588235 734:0.556863 735:0.596078 736:0.921569 737:0.890196 738:0.929412 739:0.913725 740:0.882353 741:0.92549 742:0.85098 743:0.819608 744:0.858824 745:0.992157 746:0.976471 747:1 748:0.992157 749:0.984314 750:1 751:0.976471 752:0.968627 753:0.992157 754:0.988235 755:0.980392 756:1 757:0.709804 758:0.694118 759:0.717647 760:1 761:0.988235 762:1 763:0.705882 764:0.67451 765:0.713147 766:0.47451 767:0.443137 768:0.486275 769:0.839216 770:0.811765 771:0.839216 772:0.992157 773:0.976471 774:0.996078 775:1 776:0.984314 777:1 778:1 779:0.992157 780:1 781:1 782:1 783:0.988235 784:1 785:1 786:0.996078 787:0.972549 788:0.960784 789:0.968627 790:0.992157 791:0.976471 792:0.996078 793:0.8 794:0.772549 795:0.8 796:0.733333 797:0.701961 798:0.741176 799:0.956863 800:0.92549 801:0.968627 802:0.615686 803:0.592157 804:0.635294 805:0.952941 806:0.941176 807:0.976471 808:0.992157 809:0.984314 810:1 811:0.992157 812:0.992157 813:1 814:0.698039 815:0.698039 816:0.721569 817:0.854902 818:0.847059 819:0.870588 820:0.815686 821:0.8 822:0.821429 823:0.705882 824:0.67451 825:0.713725 826:1 827:0.984314 828:1 829:0.960784 830:0.945098 831:0.964706 832:1 833:0.992157 834:1 835:0.956863 836:0.945098 837:0.952941 838:0.996078 839:0.984314 840:0.992157 841:0.952941 842:0.968627 843:0.945098 844:1 845:1 846:0.988235 847:1 848:1 849:1 850:0.972549 851:0.960784 852:0.968627 853:1 854:0.988235 855:1 856:0.94902 857:0.917647 858:0.956863 859:0.627451 860:0.603922 861:0.647059 862:0.964706 863:0.941176 864:0.984314 865:0.670588 866:0.658824 867:0.694118 868:0.835294 869:0.831373 870:0.866142 871:0.623529 872:0.623529 873:0.647059 874:0.952941 875:0.952941 876:0.976471 877:0.694118 878:0.686275 879:0.709804 880:0.839216 881:0.823529 882:0.847059 883:1 884:0.988235 885:1 886:0.980392 887:0.952941 888:0.980392 889:1 890:0.992157 891:1 892:0.980392 893:0.976471 894:0.984314 895:0.996078 896:0.992157 897:1 898:0.968627 899:0.964706 900:0.972549 901:1 902:1 903:0.984314 904:0.984314 905:0.988235 906:0.972549 907:0.980392 908:0.972549 909:0.968627 910:1 911:1 912:1 913:1 914:0.980392 915:1 916:0.976471 917:0.94902 918:0.976471 919:1 920:0.988235 921:1 922:0.654902 923:0.635294 924:0.669291 925:0.929412 926:0.917647 927:0.952941 928:0.662745 929:0.662745 930:0.686275 931:0.909804 932:0.901961 933:0.92549 934:0.713725 935:0.705882 936:0.729412 937:0.886275 938:0.878431 939:0.901961 940:0.980392 941:0.964706 942:0.984314 943:1 944:0.992157 945:1 946:1 947:0.992157 948:1 949:1 950:0.992157 951:1 952:1 953:1 954:1 955:0.992157 956:0.988235 957:0.996078 958:0.996078 959:0.996078 960:0.996078 961:1 962:1 963:0.996078 964:1 965:0.996078 966:0.992157 967:1 968:0.992157 969:0.988235 970:1 971:0.996078 972:0.992157 973:1 974:0.996078 975:0.996078 976:0.996078 977:0.988235 978:0.988235 979:0.996078 980:0.984314 981:0.992157 982:1 983:0.984314 984:1 985:0.65098 986:0.635294 987:0.653543 988:0.917647 989:0.909804 990:0.933333 991:0.996078 992:0.980392 993:1 994:0.67451 995:0.658824 996:0.682353 997:1 998:0.984314 999:1 1000:0.976471 1001:0.964706 1002:0.972549 1003:0.984314 1004:0.976471 1005:0.976471 1006:0.996078 1007:0.988235 1008:0.988142 1009:1 1010:0.996078 1011:0.996078 1012:1 1013:0.996078 1014:0.992157 1015:1 1016:0.992157 1017:0.992157 1018:1 1019:0.992157 1020:0.988235 1021:1 1022:1 1023:1 1024:1 1025:0.992157 1026:0.992157 1027:1 1028:0.992157 1029:0.988235 1030:1 1031:0.996078 1032:0.992157 1033:1 1034:0.992157 1035:0.988235 1036:0.996078 1037:0.988235 1038:0.984314 1039:0.996078 1040:0.988235 1041:0.988235 1042:1 1043:0.992157 1044:0.992157 1045:1 1046:0.992157 1047:1 1048:0.627451 1049:0.611765 1050:0.631373 1051:0.784314 1052:0.768627 1053:0.792157 1054:0.956863 1055:0.941176 1056:0.960784 1057:0.996078 1058:0.980392 1059:1 1060:1 1061:1 1062:1 1063:0.980392 1064:0.972549 1065:0.972441 1066:1 1067:1 1068:0.996078 1069:1 1070:0.996078 1071:0.992157 1072:1 1073:0.996078 1074:0.992157 1075:1 1076:0.992157 1077:0.988235 1078:1 1079:0.992157 1080:0.988235 1081:1 1082:1 1083:1 1084:1 1085:0.992157 1086:0.992157 1087:1 1088:0.992157 1089:0.988235 1090:1 1091:0.996078 1092:0.992157 1093:1 1094:0.992157 1095:0.988235 1096:0.996078 1097:0.988235 1098:0.984314 1099:0.996078 1100:0.988235 1101:0.988235 1102:1 1103:0.992157 1104:0.992157 1105:0.992157 1106:0.976471 1107:0.996078 1108:0.85098 1109:0.835294 1110:0.854902 1111:0.596078 1112:0.580392 1113:0.603922 1114:1 1115:0.988235 1116:1 1117:1 1118:0.992157 1119:1 1120:0.952941 1121:0.945098 1122:0.944882 1123:1 1124:1 1125:1 1126:0.956863 1127:0.94902 1128:0.945098 1129:1 1130:0.996078 1131:0.992157 1132:1 1133:0.996078 1134:0.992157 1135:1 1136:0.992157 1137:0.988235 1138:1 1139:0.992157 1140:0.988235 1141:1 1142:1 1143:1 1144:1 1145:0.992157 1146:0.992157 1147:1 1148:0.992157 1149:0.988235 1150:1 1151:0.992157 1152:0.988235 1153:1 1154:0.992157 1155:0.988235 1156:0.996078 1157:0.988235 1158:0.984314 1159:0.996078 1160:0.988235 1161:0.988235 1162:1 1163:0.992157 1164:0.992157 1165:0.992157 1166:0.976471 1167:0.996078 1168:1 1169:0.988235 1170:1 1171:0.776471 1172:0.760784 1173:0.784314 1174:0.992157 1175:0.976471 1176:0.996078 1177:1 1178:0.992157 1179:1 1180:1 1181:0.992157 1182:0.992157 1183:1 1184:0.992157 1185:0.992157 1186:1 1187:1 1188:0.996078 1189:1 1190:0.996078 1191:0.992157 1192:1 1193:0.996078 1194:0.992157 1195:1 1196:0.992157 1197:0.988235 1198:1 1199:0.992157 1200:0.988235 
0.069829225519071808 1:0.615686 2:0.560784 3:0.513725 4:0.607843 5:0.560784 6:0.513725 7:0.164706 8:0.121569 9:0.0901961 10:0.12549 11:0.0980392 12:0.0627451 13:0.113725 14:0.0901961 15:0.0669291 16:0.129412 17:0.117647 18:0.0763052 19:0.0627451 20:0.0470588 21:0.0431373 22:0.113725 23:0.105882 24:0.101961 25:0.0823529 26:0.0745098 27:0.0745098 28:0.117647 29:0.109804 30:0.109804 31:0.0666667 32:0.0627451 33:0.0705882 34:0.117647 35:0.113725 36:0.121569 37:0.219608 38:0.227451 39:0.231373 40:0.188235 41:0.203922 42:0.207843 43:0.0980392 44:0.113725 45:0.117647 46:0.0352941 47:0.0431373 48:0.0431373 49:0.239216 50:0.223529 51:0.219608 52:0.215686 53:0.180392 54:0.168627 55:0.0941176 56:0.0509804 57:0.0352941 58:0.0470588 61:0.431373 62:0.384314 63:0.345098 64:0.384314 65:0.345098 66:0.305882 67:0.298039 68:0.259843 69:0.227451 70:0.521569 71:0.498039 72:0.470588 73:0.568627 74:0.556863 75:0.537255 76:0.607843 77:0.603922 78:0.588235 79:0.717647 80:0.721569 81:0.713725 82:0.443137 83:0.443137 84:0.443137 85:0.258824 86:0.254902 87:0.262745 88:0.0235294 89:0.0313725 90:0.0352941 91:0.321569 92:0.329412 93:0.333333 94:0.505882 95:0.521569 96:0.52549 97:0.552941 98:0.564706 99:0.580392 100:0.623529 101:0.643137 102:0.645669 103:0.498039 104:0.529412 105:0.529412 106:0.486275 107:0.501961 108:0.501976 109:0.0313725 110:0.0235294 111:0.0196078 112:0.113725 113:0.0941176 114:0.0787402 115:0.0980392 116:0.0627451 117:0.0509804 118:0.054902 119:0.00784314 121:0.371542 122:0.34902 123:0.3083 124:0.372549 125:0.34902 126:0.316206 127:0.709804 128:0.698039 129:0.666667 130:0.584314 131:0.584314 132:0.560784 133:0.458824 134:0.470588 135:0.462745 136:0.572549 137:0.592157 138:0.588235 139:0.584314 140:0.6 141:0.603922 142:0.541502 143:0.564706 144:0.568627 145:0.509804 146:0.529412 147:0.541176 148:0.32549 149:0.345098 150:0.356863 151:0.65098 152:0.670588 153:0.682353 154:0.478431 155:0.505882 156:0.517647 157:0.470588 158:0.494118 159:0.513725 160:0.356863 161:0.392157 162:0.403922 163:0.521739 164:0.572549 165:0.580392 166:0.599206 167:0.635294 168:0.633858 169:0.580392 170:0.588235 171:0.592157 172:0.0509804 173:0.0431373 174:0.0431373 175:0.0705882 176:0.0470588 177:0.0509804 178:0.054902 179:0.0352941 180:0.0313725 181:0.25098 182:0.235294 183:0.215686 184:0.643137 185:0.631373 186:0.611765 187:0.458824 188:0.462745 189:0.447059 190:0.419608 191:0.439216 192:0.431373 193:0.470588 194:0.494118 195:0.490196 196:0.541176 197:0.580392 198:0.580392 199:0.619608 200:0.654902 201:0.670588 202:0.54902 203:0.592157 204:0.607843 205:0.415686 206:0.454902 207:0.482353 208:0.521569 209:0.560784 210:0.588235 211:0.415686 212:0.454902 213:0.482353 214:0.4 215:0.447059 216:0.470588 217:0.415686 218:0.462745 219:0.486275 220:0.403922 221:0.462745 222:0.47451 223:0.368627 224:0.427451 225:0.439216 226:0.360784 227:0.411765 228:0.419608 229:0.466667 230:0.494118 231:0.505882 232:0.505882 233:0.521569 234:0.523622 235:0.0392157 236:0.0352941 237:0.0431373 238:0.0588235 239:0.0470588 240:0.054902 241:0.513725 242:0.517647 243:0.5 244:0.584314 245:0.596078 246:0.588235 247:0.462745 248:0.486275 249:0.482353 250:0.478431 251:0.515748 252:0.517647 253:0.333333 254:0.380392 255:0.388235 256:0.415686 257:0.47451 258:0.486275 259:0.537255 260:0.6 261:0.627451 262:0.486275 263:0.54902 264:0.576471 265:0.470588 266:0.529412 267:0.564706 268:0.513725 269:0.572549 270:0.607843 271:0.337255 272:0.4 273:0.427451 274:0.380392 275:0.443137 276:0.470588 277:0.509804 278:0.572549 279:0.6 280:0.431373 281:0.501961 282:0.529412 283:0.376471 284:0.447059 285:0.47451 286:0.419608 287:0.482353 288:0.505882 289:0.482353 290:0.521569 291:0.54902 292:0.552941 293:0.576471 294:0.596078 295:0.156863 296:0.168627 297:0.188235 299:0.00392157 300:0.0196078 301:0.560784 302:0.576471 303:0.57874 304:0.603922 305:0.623529 306:0.627451 307:0.431373 308:0.466667 309:0.478431 310:0.447059 311:0.498039 312:0.505882 313:0.384314 314:0.447059 315:0.470588 316:0.482353 317:0.552941 318:0.580392 319:0.380392 320:0.454902 321:0.486275 322:0.552941 323:0.631373 324:0.67451 325:0.47451 326:0.54902 327:0.6 328:0.376471 329:0.454902 330:0.498039 331:0.564706 332:0.635294 333:0.678431 334:0.396078 335:0.466667 336:0.509804 337:0.25098 338:0.321569 339:0.364706 340:0.443137 341:0.52549 342:0.556863 343:0.317647 344:0.4 345:0.431373 346:0.262745 347:0.337255 348:0.364706 349:0.478431 350:0.533333 351:0.551587 352:0.4 353:0.439216 354:0.466667 355:0.34902 356:0.372549 357:0.392157 359:0.00392157 360:0.0235294 361:0.588235 362:0.607843 363:0.619608 364:0.415686 365:0.443137 366:0.454902 367:0.415686 368:0.458824 369:0.47451 370:0.556863 371:0.611765 372:0.635294 373:0.552941 374:0.619608 375:0.654902 376:0.345098 377:0.423529 378:0.466667 379:0.47451 380:0.560784 381:0.607843 382:0.494118 383:0.580392 384:0.627451 385:0.34902 386:0.431373 387:0.488189 388:0.501961 389:0.584314 390:0.643137 391:0.486275 392:0.560784 393:0.619608 394:0.458824 395:0.533333 396:0.584314 397:0.431373 398:0.505882 399:0.556863 400:0.356863 401:0.443137 402:0.486275 403:0.364706 404:0.45098 405:0.494118 406:0.380392 407:0.462745 408:0.492126 409:0.529412 410:0.580392 411:0.611765 412:0.435294 413:0.47451 414:0.501961 415:0.321569 416:0.345098 417:0.364706 418:0.0235294 419:0.0470588 420:0.0666667 421:0.435294 422:0.447059 423:0.466667 424:0.67451 425:0.690196 426:0.709804 427:0.537255 428:0.568627 429:0.596078 430:0.537255 431:0.588235 432:0.619608 433:0.407843 434:0.47451 435:0.509804 436:0.564706 437:0.643137 438:0.686275 439:0.415686 440:0.498039 441:0.555118 442:0.509804 443:0.6 444:0.658824 445:0.533333 446:0.623529 447:0.686275 448:0.521569 449:0.611765 450:0.67451 451:0.490196 452:0.572549 453:0.631373 454:0.403922 455:0.486275 456:0.545098 457:0.447059 458:0.533333 459:0.580392 460:0.513725 461:0.6 462:0.647059 463:0.47451 464:0.560784 465:0.600791 466:0.294118 467:0.376471 468:0.407843 469:0.423529 470:0.478431 471:0.501961 472:0.564706 473:0.6 474:0.615686 475:0.298039 476:0.321569 477:0.341176 479:0.0196078 480:0.0313725 481:0.403922 482:0.4 483:0.413386 484:0.666667 485:0.666667 486:0.690196 487:0.607843 488:0.631373 489:0.656126 490:0.584314 491:0.619608 492:0.654902 493:0.568627 494:0.627451 495:0.662745 496:0.490196 497:0.560784 498:0.603922 499:0.603922 500:0.686275 501:0.745098 502:0.443137 503:0.52549 504:0.584314 505:0.4 506:0.478431 507:0.545098 508:0.52549 509:0.603922 510:0.670588 511:0.396078 512:0.466667 513:0.533333 514:0.505882 515:0.580392 516:0.639216 517:0.384314 518:0.458824 519:0.509804 520:0.454902 521:0.529412 522:0.580392 523:0.490196 524:0.568627 525:0.611765 526:0.45098 527:0.517647 528:0.552941 529:0.486275 530:0.52549 531:0.552941 532:0.537255 533:0.556863 534:0.565217 537:0.0117647 538:0.0705882 539:0.0784314 540:0.0823529 541:0.321569 542:0.294118 543:0.305882 544:0.65098 545:0.635294 546:0.654902 547:0.647059 548:0.647059 549:0.670588 550:0.619608 551:0.643137 552:0.670588 553:0.356863 554:0.396078 555:0.435294 556:0.435294 557:0.498039 558:0.545098 559:0.462745 560:0.529412 561:0.580392 562:0.454902 563:0.529412 564:0.588235 565:0.607843 566:0.682353 567:0.741176 568:0.313725 569:0.384314 570:0.45098 571:0.447059 572:0.509804 573:0.576471 574:0.498039 575:0.560784 576:0.622047 577:0.513725 578:0.576471 579:0.627451 580:0.415686 581:0.478431 582:0.52549 583:0.4 584:0.470588 585:0.513725 586:0.478431 587:0.541176 588:0.568627 589:0.584314 590:0.607843 591:0.627451 592:0.439216 593:0.447059 594:0.45098 597:0.00392157 598:0.101961 599:0.0941176 600:0.0941176 601:0.321569 602:0.27451 603:0.27451 604:0.247059 605:0.215686 606:0.219608 607:0.682353 608:0.662745 609:0.670588 610:0.678431 611:0.682353 612:0.698039 613:0.623529 614:0.654902 615:0.682353 616:0.517647 617:0.560784 618:0.592157 619:0.47451 620:0.529412 621:0.576471 622:0.364706 623:0.427451 624:0.478431 625:0.466667 626:0.529412 627:0.592157 628:0.478431 629:0.541176 630:0.603922 631:0.537255 632:0.596078 633:0.658824 634:0.431373 635:0.494118 636:0.545098 637:0.498039 638:0.54902 639:0.603922 640:0.568627 641:0.623529 642:0.670588 643:0.552941 644:0.607843 645:0.654902 646:0.443137 647:0.486275 648:0.517647 649:0.52549 650:0.541176 651:0.543307 652:0.00784314 655:0.113725 656:0.0980392 657:0.0941176 658:0.105882 659:0.0862745 660:0.0677291 661:0.333333 662:0.266667 663:0.254902 664:0.298039 665:0.247059 666:0.239216 667:0.337255 668:0.298039 669:0.298039 670:0.631373 671:0.619608 672:0.627451 673:0.513725 674:0.52549 675:0.541176 676:0.411765 677:0.443137 678:0.470588 679:0.560784 680:0.6 681:0.639216 682:0.537255 683:0.592157 684:0.639216 685:0.54902 686:0.6 687:0.653543 688:0.470588 689:0.521569 690:0.576471 691:0.517647 692:0.560784 693:0.615686 694:0.458824 695:0.505882 696:0.552941 697:0.529412 698:0.564706 699:0.615686 700:0.537255 701:0.576471 702:0.615686 703:0.576471 704:0.615686 705:0.654902 706:0.556863 707:0.588235 708:0.615686 709:0.164706 710:0.172549 711:0.172549 712:0.0941176 713:0.0823529 714:0.0666667 715:0.168627 716:0.14902 717:0.137255 718:0.145098 719:0.117647 720:0.105882 721:0.360784 722:0.27451 723:0.242063 724:0.333333 725:0.258824 726:0.23622 727:0.223529 728:0.176471 729:0.160784 730:0.431373 731:0.403922 732:0.392157 733:0.560784 734:0.556863 735:0.564706 736:0.690196 737:0.709804 738:0.721569 739:0.47451 740:0.513725 741:0.541176 742:0.556863 743:0.6 744:0.631373 745:0.509804 746:0.54902 747:0.588235 748:0.537255 749:0.584314 750:0.631373 751:0.505882 752:0.541176 753:0.592157 754:0.533333 755:0.572549 756:0.611765 757:0.564706 758:0.6 759:0.639216 760:0.662745 761:0.698039 762:0.733333 763:0.627451 764:0.666667 765:0.689243 766:0.141176 767:0.168627 768:0.180392 769:0.0588235 770:0.0666667 771:0.0666667 772:0.180392 773:0.168627 774:0.152941 775:0.133333 776:0.113725 777:0.0912698 778:0.105882 779:0.0823529 780:0.0627451 781:0.380392 782:0.282353 783:0.243137 784:0.32549 785:0.243137 786:0.211765 787:0.313725 788:0.25098 789:0.223529 790:0.25098 791:0.211765 792:0.184314 793:0.219608 794:0.203922 795:0.2 796:0.517647 797:0.533333 798:0.537255 799:0.611765 800:0.635294 801:0.654902 802:0.517647 803:0.556863 804:0.584314 805:0.576471 806:0.611765 807:0.647059 808:0.513725 809:0.556863 810:0.588235 811:0.560784 812:0.596078 813:0.635294 814:0.533333 815:0.568627 816:0.603922 817:0.639216 818:0.666667 819:0.701961 820:0.556863 821:0.588235 822:0.611111 823:0.054902 824:0.0901961 825:0.105882 826:0.0627451 827:0.0823529 828:0.0941176 829:0.129412 830:0.141176 831:0.133333 832:0.12549 833:0.121569 834:0.105882 835:0.054902 836:0.0392157 837:0.0196078 838:0.188235 839:0.164706 840:0.145098 841:0.411765 842:0.309804 843:0.254902 844:0.372549 845:0.278431 846:0.231373 847:0.34902 848:0.278431 849:0.235294 850:0.270588 851:0.227451 852:0.196078 853:0.25098 854:0.231373 855:0.219608 856:0.133333 857:0.133333 858:0.133333 859:0.345098 860:0.364706 861:0.376471 862:0.521569 863:0.556863 864:0.572549 865:0.501961 866:0.541176 867:0.568627 868:0.54902 869:0.588235 870:0.614173 871:0.588235 872:0.615686 873:0.65098 874:0.552941 875:0.584314 876:0.611765 877:0.423529 878:0.447059 879:0.47451 880:0.0313725 881:0.054902 882:0.0745098 883:0.0862745 884:0.109804 885:0.129412 886:0.12549 887:0.145098 888:0.14902 889:0.129412 890:0.141176 891:0.133333 892:0.321569 893:0.317647 894:0.301961 895:0.4 896:0.384314 897:0.364706 898:0.0980392 899:0.0823529 900:0.0627451 901:0.403922 902:0.301961 903:0.247059 904:0.372549 905:0.282353 906:0.223529 907:0.32549 908:0.254902 909:0.211765 910:0.309804 911:0.262745 912:0.223529 913:0.294118 914:0.254902 915:0.227451 916:0.270588 917:0.25098 918:0.239216 919:0.184314 920:0.176471 921:0.176471 922:0.27451 923:0.282353 924:0.283465 925:0.545098 926:0.556863 927:0.572549 928:0.541176 929:0.552941 930:0.568627 931:0.603922 932:0.615686 933:0.631373 934:0.243137 935:0.258824 936:0.278431 937:0.0156863 938:0.0313725 939:0.0509804 940:0.160784 941:0.184314 942:0.203922 943:0.34902 944:0.372549 945:0.392157 946:0.505882 947:0.533333 948:0.545098 949:0.0941176 950:0.113725 951:0.109804 952:0.658824 953:0.662745 954:0.647059 955:0.443137 956:0.439216 957:0.423529 958:0.0980392 959:0.0941176 960:0.0784314 961:0.376471 962:0.301961 963:0.25098 964:0.341176 965:0.262745 966:0.219608 967:0.32549 968:0.254902 969:0.211765 970:0.32549 971:0.266667 972:0.231373 973:0.321569 974:0.258824 975:0.235294 976:0.301961 977:0.243137 978:0.231373 979:0.282353 980:0.235294 981:0.219608 982:0.266667 983:0.215686 984:0.207843 985:0.203922 986:0.156863 987:0.145669 988:0.439216 989:0.403922 990:0.392157 991:0.180392 992:0.160784 993:0.156863 994:0.12549 995:0.117647 996:0.117647 997:0.176471 998:0.180392 999:0.196078 1000:0.196078 1001:0.211765 1002:0.231373 1003:0.164706 1004:0.196078 1005:0.223529 1006:0.8 1007:0.835294 1008:0.849802 1009:0.698039 1010:0.717647 1011:0.721569 1012:0.772549 1013:0.792157 1014:0.784314 1015:0.443137 1016:0.462745 1017:0.454902 1018:0.0666667 1019:0.0862745 1020:0.0784314 1021:0.364706 1022:0.294118 1023:0.25098 1024:0.333333 1025:0.262745 1026:0.219608 1027:0.32549 1028:0.258824 1029:0.223529 1030:0.333333 1031:0.266667 1032:0.231373 1033:0.32549 1034:0.25098 1035:0.231373 1036:0.313725 1037:0.239216 1038:0.219608 1039:0.309804 1040:0.231373 1041:0.211765 1042:0.298039 1043:0.223529 1044:0.203922 1045:0.321569 1046:0.247059 1047:0.227451 1048:0.262745 1049:0.207843 1050:0.184314 1051:0.2 1052:0.152941 1053:0.145098 1054:0.258824 1055:0.239216 1056:0.235294 1057:0.156863 1058:0.152941 1059:0.160784 1060:0.12549 1061:0.141176 1062:0.160784 1063:0.266667 1064:0.305882 1065:0.330709 1066:0.462745 1067:0.501961 1068:0.529412 1069:0.733333 1070:0.760784 1071:0.772549 1072:0.168627 1073:0.184314 1074:0.188235 1075:0.262745 1076:0.278431 1077:0.282353 1078:0.0588235 1079:0.0745098 1080:0.0784314 1081:0.360784 1082:0.290196 1083:0.247059 1084:0.333333 1085:0.262745 1086:0.219608 1087:0.329412 1088:0.262745 1089:0.227451 1090:0.333333 1091:0.266667 1092:0.231373 1093:0.321569 1094:0.247059 1095:0.227451 1096:0.309804 1097:0.235294 1098:0.215686 1099:0.313725 1100:0.235294 1101:0.215686 1102:0.305882 1103:0.231373 1104:0.211765 1105:0.313725 1106:0.239216 1107:0.219608 1108:0.278431 1109:0.223529 1110:0.2 1111:0.270588 1112:0.223529 1113:0.215686 1114:0.184314 1115:0.164706 1116:0.160784 1117:0.721569 1118:0.717647 1119:0.724409 1120:0.435294 1121:0.45098 1122:0.468504 1123:0.658824 1124:0.698039 1125:0.722222 1126:0.305882 1127:0.345098 1128:0.372549 1129:0.0627451 1130:0.0784314 1131:0.0980392 1132:0.12549 1133:0.129412 1134:0.145098 1135:0.117647 1136:0.121569 1137:0.137255 1138:0.101961 1139:0.105882 1140:0.121569 1141:0.356863 1142:0.286275 1143:0.243137 1144:0.337255 1145:0.266667 1146:0.223529 1147:0.333333 1148:0.266667 1149:0.231373 1150:0.333333 1151:0.266667 1152:0.231373 1153:0.317647 1154:0.243137 1155:0.223529 1156:0.305882 1157:0.231373 1158:0.211765 1159:0.317647 1160:0.239216 1161:0.219608 1162:0.317647 1163:0.243137 1164:0.223529 1165:0.32549 1166:0.25098 1167:0.231373 1168:0.27451 1169:0.219608 1170:0.186508 1171:0.27451 1172:0.227451 1173:0.219608 1174:0.227451 1175:0.207843 1176:0.203922 1177:0.231373 1178:0.227451 1179:0.229249 1180:0.733333 1181:0.74902 1182:0.768627 1183:0.415686 1184:0.454902 1185:0.482353 1186:0.286275 1187:0.32549 1188:0.352941 1189:0.321569 1190:0.329412 1191:0.360784 1192:0.282353 1193:0.282353 1194:0.305882 1195:0.333333 1196:0.32549 1197:0.34902 1198:0.282353 1199:0.27451 1200:0.298039 
